{"learner":{"attributes":{},"feature_names":[],"feature_types":[],"gradient_booster":{"model":{"gbtree_model_param":{"num_parallel_tree":"1","num_trees":"100"},"iteration_indptr":[0,1,2,3,4,5,6,7,8,9,10,11,12,13,14,15,16,17,18,19,20,21,22,23,24,25,26,27,28,29,30,31,32,33,34,35,36,37,38,39,40,41,42,43,44,45,46,47,48,49,50,51,52,53,54,55,56,57,58,59,60,61,62,63,64,65,66,67,68,69,70,71,72,73,74,75,76,77,78,79,80,81,82,83,84,85,86,87,88,89,90,91,92,93,94,95,96,97,98,99,100],"tree_info":[0,0,0,0,0,0,0,0,0,0,0,0,0,0,0,0,0,0,0,0,0,0,0,0,0,0,0,0,0,0,0,0,0,0,0,0,0,0,0,0,0,0,0,0,0,0,0,0,0,0,0,0,0,0,0,0,0,0,0,0,0,0,0,0,0,0,0,0,0,0,0,0,0,0,0,0,0,0,0,0,0,0,0,0,0,0,0,0,0,0,0,0,0,0,0,0,0,0,0,0],"trees":[{"base_weights":[7.871862E-8,-1.7805884E0,1.5295222E0,-2.4213266E0,-8.5544634E-1,6.1803454E-1,2.408815E0,-2.7003816E-1,-1.8954593E-1,-1.1635796E-1,-6.324555E-2,3.0222116E-2,1.2220468E-1,1.7963363E-1,2.6610383E-1],"categories":[],"categories_nodes":[],"categories_segments":[],"categories_sizes":[],"default_left":[0,0,0,0,0,0,0,0,0,0,0,0,0,0,0],"id":0,"left_children":[1,3,5,7,9,11,13,-1,-1,-1,-1,-1,-1,-1,-1],"loss_changes":[2.7288962E3,2.7238306E2,4.3050073E2,3.4942993E1,1.2387878E1,5.037156E1,3.754773E1,0E0,0E0,0E0,0E0,0E0,0E0,0E0,0E0],"parents":[2147483647,0,0,1,1,2,2,3,3,4,4,5,5,6,6],"right_children":[2,4,6,8,10,12,14,-1,-1,-1,-1,-1,-1,-1,-1],"split_conditions":[5E0,3E0,8E0,2E0,4E0,7E0,9E0,-2.7003816E-1,-1.8954593E-1,-1.1635796E-1,-6.324555E-2,3.0222116E-2,1.2220468E-1,1.7963363E-1,2.6610383E-1],"split_indices":[0,0,0,0,0,0,0,0,0,0,0,0,0,0,0],"split_type":[0,0,0,0,0,0,0,0,0,0,0,0,0,0,0],"sum_hessian":[1E3,4.62E2,5.38E2,2.72E2,1.9E2,2.65E2,2.73E2,1.75E2,9.7E1,7.8E1,1.12E2,1.75E2,9E1,8.2E1,1.91E2],"tree_param":{"num_deleted":"0","num_feature":"2","num_nodes":"15","size_leaf_vector":"1"}},{"base_weights":[-4.0914154E-5,-1.3329046E0,1.6682851E0,-2.1808774E0,-5.159591E-1,8.600429E-1,2.1695602E0,-2.746372E-1,-1.9405957E-1,-7.7084206E-2,1.9209863E-4,6.326221E-2,1.21570945E-1,1.9079867E-1,2.6831332E-1],"categories":[],"categories_nodes":[],"categories_segments":[],"categories_sizes":[],"default_left":[0,0,0,0,0,0,0,0,0,0,0,0,0,0,0],"id":1,"left_children":[1,3,5,7,9,11,13,-1,-1,-1,-1,-1,-1,-1,-1],"loss_changes":[2.2280986E3,3.8473517E2,1.7842664E2,3.1765137E1,3.762113E1,1.3143295E1,3.1688965E1,0E0,0E0,0E0,0E0,0E0,0E0,0E0,0E0],"parents":[2147483647,0,0,1,1,2,2,3,3,4,4,5,5,6,6],"right_children":[2,4,6,8,10,12,14,-1,-1,-1,-1,-1,-1,-1,-1],"split_conditions":[6E0,3E0,8E0,1E0,5E0,2E0,1E1,-2.746372E-1,-1.9405957E-1,-7.7084206E-2,1.9209863E-4,6.326221E-2,1.21570945E-1,1.9079867E-1,2.6831332E-1],"split_indices":[0,0,0,0,0,1,0,0,0,0,0,0,0,0,0],"split_type":[0,0,0,0,0,0,0,0,0,0,0,0,0,0,0],"sum_hessian":[1E3,5.56E2,4.44E2,2.72E2,2.84E2,1.71E2,2.73E2,7.8E1,1.94E2,1.9E2,9.4E1,1.06E2,6.5E1,1.84E2,8.9E1],"tree_param":{"num_deleted":"0","num_feature":"2","num_nodes":"15","size_leaf_vector":"1"}},{"base_weights":[6.143244E-5,-1.2005936E0,1.5029037E0,-1.9645065E0,-4.646329E-1,9.922832E-1,2.1705844E0,-2.4752112E-1,-1.7475311E-1,-6.941613E-2,1.7308437E-4,4.9883354E-2,1.2204369E-1,1.7639646E-1,2.3464611E-1],"categories":[],"categories_nodes":[],"categories_segments":[],"categories_sizes":[],"default_left":[0,0,0,0,0,0,0,0,0,0,0,0,0,0,0],"id":2,"left_children":[1,3,5,7,9,11,13,-1,-1,-1,-1,-1,-1,-1,-1],"loss_changes":[1.8080039E3,3.122381E2,1.4956067E2,2.592566E1,3.0508667E1,2.7987091E1,9.591858E0,0E0,0E0,0E0,0E0,0E0,0E0,0E0,0E0],"parents":[2147483647,0,0,1,1,2,2,3,3,4,4,5,5,6,6],"right_children":[2,4,6,8,10,12,14,-1,-1,-1,-1,-1,-1,-1,-1],"split_conditions":[6E0,3E0,9E0,1E0,5E0,7E0,1E0,-2.4752112E-1,-1.7475311E-1,-6.941613E-2,1.7308437E-4,4.9883354E-2,1.2204369E-1,1.7639646E-1,2.3464611E-1],"split_indices":[0,0,0,0,0,0,1,0,0,0,0,0,0,0,0],"split_type":[0,0,0,0,0,0,0,0,0,0,0,0,0,0,0],"sum_hessian":[1E3,5.56E2,4.44E2,2.72E2,2.84E2,2.53E2,1.91E2,7.8E1,1.94E2,1.9E2,9.4E1,8.1E1,1.72E2,6.1E1,1.3E2],"tree_param":{"num_deleted":"0","num_feature":"2","num_nodes":"15","size_leaf_vector":"1"}},{"base_weights":[1.4665791E-4,-1.0814167E0,1.3539233E0,-1.7696025E0,-4.1841263E-1,8.9373183E-1,1.9556668E0,-1.9972004E-1,-1.3427983E-1,-9.040485E-2,-2.3105202E-2,4.495585E-2,1.09909885E-1,1.7609672E-1,2.3089881E-1],"categories":[],"categories_nodes":[],"categories_segments":[],"categories_sizes":[],"default_left":[0,0,0,0,0,0,0,0,0,0,0,0,0,0,0],"id":3,"left_children":[1,3,5,7,9,11,13,-1,-1,-1,-1,-1,-1,-1,-1],"loss_changes":[1.4671237E3,2.5340192E2,1.21480286E2,2.3837341E1,2.5722988E1,2.26754E1,9.141907E0,0E0,0E0,0E0,0E0,0E0,0E0,0E0,0E0],"parents":[2147483647,0,0,1,1,2,2,3,3,4,4,5,5,6,6],"right_children":[2,4,6,8,10,12,14,-1,-1,-1,-1,-1,-1,-1,-1],"split_conditions":[6E0,3E0,9E0,2E0,4E0,7E0,2E0,-1.9972004E-1,-1.3427983E-1,-9.040485E-2,-2.3105202E-2,4.495585E-2,1.09909885E-1,1.7609672E-1,2.3089881E-1],"split_indices":[0,0,0,0,0,0,1,0,0,0,0,0,0,0,0],"split_type":[0,0,0,0,0,0,0,0,0,0,0,0,0,0,0],"sum_hessian":[1E3,5.56E2,4.44E2,2.72E2,2.84E2,2.53E2,1.91E2,1.75E2,9.7E1,7.8E1,2.06E2,8.1E1,1.72E2,1.27E2,6.4E1],"tree_param":{"num_deleted":"0","num_feature":"2","num_nodes":"15","size_leaf_vector":"1"}},{"base_weights":[2.4620528E-4,-1.1768504E0,1.0113696E0,-1.5938656E0,-5.746409E-1,4.0256292E-1,1.5987097E0,-2.033631E-1,-1.4075308E-1,-9.377671E-2,-3.842642E-2,2.4421506E-3,6.090796E-2,1.3880217E-1,2.0140271E-1],"categories":[],"categories_nodes":[],"categories_segments":[],"categories_sizes":[],"default_left":[0,0,0,0,0,0,0,0,0,0,0,0,0,0,0],"id":4,"left_children":[1,3,5,7,9,11,13,-1,-1,-1,-1,-1,-1,-1,-1],"loss_changes":[1.1925703E3,1.15357605E2,1.9209021E2,1.9508179E1,1.2843628E1,2.0757736E1,2.1180115E1,0E0,0E0,0E0,0E0,0E0,0E0,0E0,0E0],"parents":[2147483647,0,0,1,1,2,2,3,3,4,4,5,5,6,6],"right_children":[2,4,6,8,10,12,14,-1,-1,-1,-1,-1,-1,-1,-1],"split_conditions":[5E0,3E0,8E0,1E0,1E0,6E0,1E1,-2.033631E-1,-1.4075308E-1,-9.377671E-2,-3.842642E-2,2.4421506E-3,6.090796E-2,1.3880217E-1,2.0140271E-1],"split_indices":[0,0,0,0,1,0,0,0,0,0,0,0,0,0,0],"split_type":[0,0,0,0,0,0,0,0,0,0,0,0,0,0,0],"sum_hessian":[1E3,4.62E2,5.38E2,2.72E2,1.9E2,2.65E2,2.73E2,7.8E1,1.94E2,6.4E1,1.26E2,9.4E1,1.71E2,1.84E2,8.9E1],"tree_param":{"num_deleted":"0","num_feature":"2","num_nodes":"15","size_leaf_vector":"1"}},{"base_weights":[1.4891765E-4,-1.0601941E0,9.1098136E-1,-1.4357396E0,-5.17869E-1,3.625448E-1,1.4400804E0,-1.630914E-1,-1.0705719E-1,-6.834964E-2,-1.622331E-2,1.5654715E-2,6.975257E-2,1.24997E-1,1.8148623E-1],"categories":[],"categories_nodes":[],"categories_segments":[],"categories_sizes":[],"default_left":[0,0,0,0,0,0,0,0,0,0,0,0,0,0,0],"id":5,"left_children":[1,3,5,7,9,11,13,-1,-1,-1,-1,-1,-1,-1,-1],"loss_changes":[9.677265E2,9.355463E1,1.5588342E2,1.771112E1,1.1139595E1,1.8246208E1,1.7254028E1,0E0,0E0,0E0,0E0,0E0,0E0,0E0,0E0],"parents":[2147483647,0,0,1,1,2,2,3,3,4,4,5,5,6,6],"right_children":[2,4,6,8,10,12,14,-1,-1,-1,-1,-1,-1,-1,-1],"split_conditions":[5E0,3E0,8E0,2E0,2E0,2E0,1E1,-1.630914E-1,-1.0705719E-1,-6.834964E-2,-1.622331E-2,1.5654715E-2,6.975257E-2,1.24997E-1,1.8148623E-1],"split_indices":[0,0,0,0,1,1,0,0,0,0,0,0,0,0,0],"split_type":[0,0,0,0,0,0,0,0,0,0,0,0,0,0,0],"sum_hessian":[1E3,4.62E2,5.38E2,2.72E2,1.9E2,2.65E2,2.73E2,1.75E2,9.7E1,1.29E2,6.1E1,1.65E2,1E2,1.84E2,8.9E1],"tree_param":{"num_deleted":"0","num_feature":"2","num_nodes":"15","size_leaf_vector":"1"}},{"base_weights":[1.7110987E-4,-7.9607207E-1,9.9681664E-1,-1.2931552E0,-3.1712544E-1,6.5441674E-1,1.4445914E0,-1.5993212E-1,-1.0922819E-1,-6.830355E-2,-1.4748755E-2,2.3640333E-2,8.217017E-2,1.2686844E-1,1.7687684E-1],"categories":[],"categories_nodes":[],"categories_segments":[],"categories_sizes":[],"default_left":[0,0,0,0,0,0,0,0,0,0,0,0,0,0,0],"id":6,"left_children":[1,3,5,7,9,11,13,-1,-1,-1,-1,-1,-1,-1,-1],"loss_changes":[7.9515936E2,1.3219843E2,6.728116E1,1.5042755E1,1.7589838E1,1.7567299E1,8.704773E0,0E0,0E0,0E0,0E0,0E0,0E0,0E0,0E0],"parents":[2147483647,0,0,1,1,2,2,3,3,4,4,5,5,6,6],"right_children":[2,4,6,8,10,12,14,-1,-1,-1,-1,-1,-1,-1,-1],"split_conditions":[6E0,3E0,9E0,1E0,1E0,1E0,2E0,-1.5993212E-1,-1.0922819E-1,-6.830355E-2,-1.4748755E-2,2.3640333E-2,8.217017E-2,1.2686844E-1,1.7687684E-1],"split_indices":[0,0,0,1,1,1,1,0,0,0,0,0,0,0,0],"split_type":[0,0,0,0,0,0,0,0,0,0,0,0,0,0,0],"sum_hessian":[1E3,5.56E2,4.44E2,2.72E2,2.84E2,2.53E2,1.91E2,1.05E2,1.67E2,8.9E1,1.95E2,7.3E1,1.8E2,1.27E2,6.4E1],"tree_param":{"num_deleted":"0","num_feature":"2","num_nodes":"15","size_leaf_vector":"1"}},{"base_weights":[2.1131722E-4,-8.658183E-1,7.441288E-1,-1.3422801E0,-5.7164097E-1,2.948148E-1,1.1776084E0,-1.4929615E-1,-9.2127025E-2,-7.7013284E-2,-2.574267E-2,1.2302081E-2,6.23836E-2,8.323547E-2,1.3284771E-1],"categories":[],"categories_nodes":[],"categories_segments":[],"categories_sizes":[],"default_left":[0,0,0,0,0,0,0,0,0,0,0,0,0,0,0],"id":7,"left_children":[1,3,5,7,9,11,13,-1,-1,-1,-1,-1,-1,-1,-1],"loss_changes":[6.455431E2,6.4128815E1,1.04633026E2,9.789703E0,1.7764008E1,1.4958603E1,1.3166351E1,0E0,0E0,0E0,0E0,0E0,0E0,0E0,0E0],"parents":[2147483647,0,0,1,1,2,2,3,3,4,4,5,5,6,6],"right_children":[2,4,6,8,10,12,14,-1,-1,-1,-1,-1,-1,-1,-1],"split_conditions":[5E0,2E0,8E0,2E0,4E0,7E0,1E0,-1.4929615E-1,-9.2127025E-2,-7.7013284E-2,-2.574267E-2,1.2302081E-2,6.23836E-2,8.323547E-2,1.3284771E-1],"split_indices":[0,0,0,1,0,0,1,0,0,0,0,0,0,0,0],"split_type":[0,0,0,0,0,0,0,0,0,0,0,0,0,0,0],"sum_hessian":[1E3,4.62E2,5.38E2,1.75E2,2.87E2,2.65E2,2.73E2,1.27E2,4.8E1,1.75E2,1.12E2,1.75E2,9E1,8.5E1,1.88E2],"tree_param":{"num_deleted":"0","num_feature":"2","num_nodes":"15","size_leaf_vector":"1"}},{"base_weights":[1.3682272E-4,-6.47821E-1,8.111759E-1,-9.542013E-1,-1.2517709E-1,5.25164E-1,1.1853209E0,-1.2094238E-1,-6.935572E-2,-2.8767524E-2,2.1121873E-2,3.400558E-2,8.212665E-2,1.0346409E-1,1.4638087E-1],"categories":[],"categories_nodes":[],"categories_segments":[],"categories_sizes":[],"default_left":[0,0,0,0,0,0,0,0,0,0,0,0,0,0,0],"id":8,"left_children":[1,3,5,7,9,11,13,-1,-1,-1,-1,-1,-1,-1,-1],"loss_changes":[5.265701E2,8.907176E1,4.6996887E1,2.2510498E1,1.1376146E1,1.3642723E1,6.5422974E0,0E0,0E0,0E0,0E0,0E0,0E0,0E0,0E0],"parents":[2147483647,0,0,1,1,2,2,3,3,4,4,5,5,6,6],"right_children":[2,4,6,8,10,12,14,-1,-1,-1,-1,-1,-1,-1,-1],"split_conditions":[6E0,4E0,9E0,2E0,2E0,2E0,2E0,-1.2094238E-1,-6.935572E-2,-2.8767524E-2,2.1121873E-2,3.400558E-2,8.212665E-2,1.0346409E-1,1.4638087E-1],"split_indices":[0,0,0,0,1,1,1,0,0,0,0,0,0,0,0],"split_type":[0,0,0,0,0,0,0,0,0,0,0,0,0,0,0],"sum_hessian":[1E3,5.56E2,4.44E2,3.5E2,2.06E2,2.53E2,1.91E2,1.75E2,1.75E2,1.39E2,6.7E1,1.57E2,9.6E1,1.27E2,6.4E1],"tree_param":{"num_deleted":"0","num_feature":"2","num_nodes":"15","size_leaf_vector":"1"}},{"base_weights":[2.9099148E-4,-7.0454216E-1,6.057408E-1,-1.0891687E0,-4.6704626E-1,2.3559594E-1,9.628678E-1,-1.22483425E-1,-7.125492E-2,-7.6440126E-2,-2.8703863E-2,-1.0359342E-2,3.6686473E-2,8.114611E-2,1.2633939E-1],"categories":[],"categories_nodes":[],"categories_segments":[],"categories_sizes":[],"default_left":[0,0,0,0,0,0,0,0,0,0,0,0,0,0,0],"id":9,"left_children":[1,3,5,7,9,11,13,-1,-1,-1,-1,-1,-1,-1,-1],"loss_changes":[4.2759457E2,4.1785065E1,7.102287E1,8.119827E0,1.5196121E1,1.1881647E1,1.14422455E1,0E0,0E0,0E0,0E0,0E0,0E0,0E0,0E0],"parents":[2147483647,0,0,1,1,2,2,3,3,4,4,5,5,6,6],"right_children":[2,4,6,8,10,12,14,-1,-1,-1,-1,-1,-1,-1,-1],"split_conditions":[5E0,2E0,8E0,2E0,1E0,1E0,1E1,-1.22483425E-1,-7.125492E-2,-7.6440126E-2,-2.8703863E-2,-1.0359342E-2,3.6686473E-2,8.114611E-2,1.2633939E-1],"split_indices":[0,0,0,1,1,1,0,0,0,0,0,0,0,0,0],"split_type":[0,0,0,0,0,0,0,0,0,0,0,0,0,0,0],"sum_hessian":[1E3,4.62E2,5.38E2,1.75E2,2.87E2,2.65E2,2.73E2,1.27E2,4.8E1,1.07E2,1.8E2,7.4E1,1.91E2,1.84E2,8.9E1],"tree_param":{"num_deleted":"0","num_feature":"2","num_nodes":"15","size_leaf_vector":"1"}},{"base_weights":[1.9686492E-4,-5.294463E-1,6.6314304E-1,-7.818386E-1,-9.891898E-2,4.3128538E-1,9.6641743E-1,-9.1987714E-2,-4.2117618E-2,-2.3613166E-2,1.850324E-2,1.0801751E-2,5.6106735E-2,6.871232E-2,1.0912253E-1],"categories":[],"categories_nodes":[],"categories_segments":[],"categories_sizes":[],"default_left":[0,0,0,0,0,0,0,0,0,0,0,0,0,0,0],"id":10,"left_children":[1,3,5,7,9,11,13,-1,-1,-1,-1,-1,-1,-1,-1],"loss_changes":[3.5182712E2,6.044728E1,3.0874054E1,1.708722E1,8.10877E0,1.05957985E1,5.942932E0,0E0,0E0,0E0,0E0,0E0,0E0,0E0,0E0],"parents":[2147483647,0,0,1,1,2,2,3,3,4,4,5,5,6,6],"right_children":[2,4,6,8,10,12,14,-1,-1,-1,-1,-1,-1,-1,-1],"split_conditions":[6E0,4E0,9E0,2E0,2E0,1E0,1E0,-9.1987714E-2,-4.2117618E-2,-2.3613166E-2,1.850324E-2,1.0801751E-2,5.6106735E-2,6.871232E-2,1.0912253E-1],"split_indices":[0,0,0,1,1,1,1,0,0,0,0,0,0,0,0],"split_type":[0,0,0,0,0,0,0,0,0,0,0,0,0,0,0],"sum_hessian":[1E3,5.56E2,4.44E2,3.5E2,2.06E2,2.53E2,1.91E2,2.52E2,9.8E1,1.39E2,6.7E1,7.3E1,1.8E2,6.1E1,1.3E2],"tree_param":{"num_deleted":"0","num_feature":"2","num_nodes":"15","size_leaf_vector":"1"}},{"base_weights":[2.826015E-4,-4.767516E-1,5.973787E-1,-7.833693E-1,-1.8137129E-1,2.911261E-1,7.874446E-1,-1.1088538E-1,-6.4748906E-2,-4.488395E-2,-5.762889E-3,1.967999E-3,3.991032E-2,6.447143E-2,1.04537465E-1],"categories":[],"categories_nodes":[],"categories_segments":[],"categories_sizes":[],"default_left":[0,0,0,0,0,0,0,0,0,0,0,0,0,0,0],"id":11,"left_children":[1,3,5,7,9,11,13,-1,-1,-1,-1,-1,-1,-1,-1],"loss_changes":[2.8540488E2,5.030474E1,2.5673386E1,1.1355988E1,9.406824E0,5.0334587E0,9.413193E0,0E0,0E0,0E0,0E0,0E0,0E0,0E0,0E0],"parents":[2147483647,0,0,1,1,2,2,3,3,4,4,5,5,6,6],"right_children":[2,4,6,8,10,12,14,-1,-1,-1,-1,-1,-1,-1,-1],"split_conditions":[6E0,3E0,8E0,1E0,1E0,1E0,2E0,-1.1088538E-1,-6.4748906E-2,-4.488395E-2,-5.762889E-3,1.967999E-3,3.991032E-2,6.447143E-2,1.04537465E-1],"split_indices":[0,0,0,0,1,1,1,0,0,0,0,0,0,0,0],"split_type":[0,0,0,0,0,0,0,0,0,0,0,0,0,0,0],"sum_hessian":[1E3,5.56E2,4.44E2,2.72E2,2.84E2,1.71E2,2.73E2,7.8E1,1.94E2,8.9E1,1.95E2,4.9E1,1.22E2,1.78E2,9.5E1],"tree_param":{"num_deleted":"0","num_feature":"2","num_nodes":"15","size_leaf_vector":"1"}},{"base_weights":[2.3898724E-4,-5.193675E-1,4.4657958E-1,-8.186606E-1,-3.3466285E-1,4.930572E-2,6.3744116E-1,-1.0951692E-1,-6.586721E-2,-4.523899E-2,-3.844078E-3,-7.568562E-3,2.6391685E-2,5.2700516E-2,9.67802E-2],"categories":[],"categories_nodes":[],"categories_segments":[],"categories_sizes":[],"default_left":[0,0,0,0,0,0,0,0,0,0,0,0,0,0,0],"id":12,"left_children":[1,3,5,7,9,11,13,-1,-1,-1,-1,-1,-1,-1,-1],"loss_changes":[2.3238535E2,2.5321045E1,4.0837883E1,7.064575E0,1.0026131E1,4.7410927E0,1.277005E1,0E0,0E0,0E0,0E0,0E0,0E0,0E0,0E0],"parents":[2147483647,0,0,1,1,2,2,3,3,4,4,5,5,6,6],"right_children":[2,4,6,8,10,12,14,-1,-1,-1,-1,-1,-1,-1,-1],"split_conditions":[5E0,2E0,7E0,1E0,2E0,2E0,1E1,-1.0951692E-1,-6.586721E-2,-4.523899E-2,-3.844078E-3,-7.568562E-3,2.6391685E-2,5.2700516E-2,9.67802E-2],"split_indices":[0,0,0,1,1,1,0,0,0,0,0,0,0,0,0],"split_type":[0,0,0,0,0,0,0,0,0,0,0,0,0,0,0],"sum_hessian":[1E3,4.62E2,5.38E2,1.75E2,2.87E2,1.75E2,3.63E2,6.2E1,1.13E2,2.05E2,8.2E1,1.11E2,6.4E1,2.74E2,8.9E1],"tree_param":{"num_deleted":"0","num_feature":"2","num_nodes":"15","size_leaf_vector":"1"}},{"base_weights":[1.5896778E-4,-4.6791562E-1,4.0223387E-1,-7.3779106E-1,-3.01367E-1,4.4482138E-2,5.741077E-1,-9.873906E-2,-5.9338268E-2,-5.256592E-2,-1.6587019E-2,-2.0127278E-2,1.40885785E-2,4.7449626E-2,8.720971E-2],"categories":[],"categories_nodes":[],"categories_segments":[],"categories_sizes":[],"default_left":[0,0,0,0,0,0,0,0,0,0,0,0,0,0,0],"id":13,"left_children":[1,3,5,7,9,11,13,-1,-1,-1,-1,-1,-1,-1,-1],"loss_changes":[1.8857745E2,2.0588295E1,3.311657E1,5.757881E0,8.6653805E0,4.19809E0,1.03908615E1,0E0,0E0,0E0,0E0,0E0,0E0,0E0,0E0],"parents":[2147483647,0,0,1,1,2,2,3,3,4,4,5,5,6,6],"right_children":[2,4,6,8,10,12,14,-1,-1,-1,-1,-1,-1,-1,-1],"split_conditions":[5E0,2E0,7E0,1E0,1E0,1E0,1E1,-9.873906E-2,-5.9338268E-2,-5.256592E-2,-1.6587019E-2,-2.0127278E-2,1.40885785E-2,4.7449626E-2,8.720971E-2],"split_indices":[0,0,0,1,1,1,0,0,0,0,0,0,0,0,0],"split_type":[0,0,0,0,0,0,0,0,0,0,0,0,0,0,0],"sum_hessian":[1E3,4.62E2,5.38E2,1.75E2,2.87E2,1.75E2,3.63E2,6.2E1,1.13E2,1.07E2,1.8E2,4.9E1,1.26E2,2.74E2,8.9E1],"tree_param":{"num_deleted":"0","num_feature":"2","num_nodes":"15","size_leaf_vector":"1"}},{"base_weights":[4.454986E-5,-3.4992543E-1,4.3809676E-1,-5.307627E-1,-4.1597895E-2,2.7262592E-1,6.547192E-1,-6.378018E-2,-2.5185699E-2,-1.3983101E-2,1.6125849E-2,1.3590819E-2,4.925102E-2,4.1563306E-2,7.628766E-2],"categories":[],"categories_nodes":[],"categories_segments":[],"categories_sizes":[],"default_left":[0,0,0,0,0,0,0,0,0,0,0,0,0,0,0],"id":14,"left_children":[1,3,5,7,9,11,13,-1,-1,-1,-1,-1,-1,-1,-1],"loss_changes":[1.5361172E2,3.1034637E1,1.5772392E1,1.0318054E1,4.147483E0,7.5688343E0,4.647835E0,0E0,0E0,0E0,0E0,0E0,0E0,0E0,0E0],"parents":[2147483647,0,0,1,1,2,2,3,3,4,4,5,5,6,6],"right_children":[2,4,6,8,10,12,14,-1,-1,-1,-1,-1,-1,-1,-1],"split_conditions":[6E0,4E0,9E0,2E0,2E0,2E0,1E0,-6.378018E-2,-2.5185699E-2,-1.3983101E-2,1.6125849E-2,1.3590819E-2,4.925102E-2,4.1563306E-2,7.628766E-2],"split_indices":[0,0,0,1,1,1,1,0,0,0,0,0,0,0,0],"split_type":[0,0,0,0,0,0,0,0,0,0,0,0,0,0,0],"sum_hessian":[1E3,5.56E2,4.44E2,3.5E2,2.06E2,2.53E2,1.91E2,2.52E2,9.8E1,1.39E2,6.7E1,1.57E2,9.6E1,6.1E1,1.3E2],"tree_param":{"num_deleted":"0","num_feature":"2","num_nodes":"15","size_leaf_vector":"1"}},{"base_weights":[1.3381487E-4,-2.678664E-1,4.698701E-1,-4.779399E-1,-1.0909204E-2,3.532703E-1,6.721267E-1,-7.925511E-2,-3.851479E-2,-2.0364355E-2,7.63119E-3,2.6076127E-2,6.098407E-2,5.91331E-2,9.271211E-2],"categories":[],"categories_nodes":[],"categories_segments":[],"categories_sizes":[],"default_left":[0,0,0,0,0,0,0,0,0,0,0,0,0,0,0],"id":15,"left_children":[1,3,5,7,9,11,13,-1,-1,-1,-1,-1,-1,-1,-1],"loss_changes":[1.26141174E2,3.443397E1,8.346802E0,9.941635E0,4.856965E0,5.3712482E0,2.1712837E0,0E0,0E0,0E0,0E0,0E0,0E0,0E0,0E0],"parents":[2147483647,0,0,1,1,2,2,3,3,4,4,5,5,6,6],"right_children":[2,4,6,8,10,12,14,-1,-1,-1,-1,-1,-1,-1,-1],"split_conditions":[7E0,4E0,2E0,1E0,1E0,1E1,1E1,-7.925511E-2,-3.851479E-2,-2.0364355E-2,7.63119E-3,2.6076127E-2,6.098407E-2,5.91331E-2,9.271211E-2],"split_indices":[0,0,1,0,1,0,0,0,0,0,0,0,0,0,0],"split_type":[0,0,0,0,0,0,0,0,0,0,0,0,0,0,0],"sum_hessian":[1E3,6.37E2,3.63E2,3.5E2,2.87E2,2.32E2,1.31E2,7.8E1,2.72E2,8.9E1,1.98E2,1.72E2,6E1,1.02E2,2.9E1],"tree_param":{"num_deleted":"0","num_feature":"2","num_nodes":"15","size_leaf_vector":"1"}},{"base_weights":[2.2866658E-4,-2.4128436E-1,4.2353934E-1,-4.3048146E-1,-9.862595E-3,2.0632237E-1,5.1679736E-1,-6.38613E-2,-3.0666355E-2,-9.476672E-3,1.5829673E-2,1.1254215E-2,4.3432537E-2,4.4132005E-2,7.5877644E-2],"categories":[],"categories_nodes":[],"categories_segments":[],"categories_sizes":[],"default_left":[0,0,0,0,0,0,0,0,0,0,0,0,0,0,0],"id":16,"left_children":[1,3,5,7,9,11,13,-1,-1,-1,-1,-1,-1,-1,-1],"loss_changes":[1.0243946E2,2.793016E1,7.267006E0,8.849571E0,4.1268983E0,2.3245406E0,4.304184E0,0E0,0E0,0E0,0E0,0E0,0E0,0E0,0E0],"parents":[2147483647,0,0,1,1,2,2,3,3,4,4,5,5,6,6],"right_children":[2,4,6,8,10,12,14,-1,-1,-1,-1,-1,-1,-1,-1],"split_conditions":[7E0,4E0,1E0,1E0,2E0,1E1,1E1,-6.38613E-2,-3.0666355E-2,-9.476672E-3,1.5829673E-2,1.1254215E-2,4.3432537E-2,4.4132005E-2,7.5877644E-2],"split_indices":[0,0,1,1,1,0,0,0,0,0,0,0,0,0,0],"split_type":[0,0,0,0,0,0,0,0,0,0,0,0,0,0,0],"sum_hessian":[1E3,6.37E2,3.63E2,3.5E2,2.87E2,1.1E2,2.53E2,1.29E2,2.21E2,1.91E2,9.6E1,7.9E1,3.1E1,1.95E2,5.8E1],"tree_param":{"num_deleted":"0","num_feature":"2","num_nodes":"15","size_leaf_vector":"1"}},{"base_weights":[2.921825E-4,-3.107436E-1,2.674708E-1,-6.7183554E-1,-2.3584227E-1,9.2891075E-2,4.3597713E-1,-7.53598E-2,-4.2574205E-2,-3.1920552E-2,-2.453232E-3,-9.133723E-3,1.6437147E-2,3.301243E-2,6.288071E-2],"categories":[],"categories_nodes":[],"categories_segments":[],"categories_sizes":[],"default_left":[0,0,0,0,0,0,0,0,0,0,0,0,0,0,0],"id":17,"left_children":[1,3,5,7,9,11,13,-1,-1,-1,-1,-1,-1,-1,-1],"loss_changes":[8.326833E1,1.2363968E1,1.5815689E1,1.2687378E0,6.774128E0,3.5178893E0,5.3851967E0,0E0,0E0,0E0,0E0,0E0,0E0,0E0,0E0],"parents":[2147483647,0,0,1,1,2,2,3,3,4,4,5,5,6,6],"right_children":[2,4,6,8,10,12,14,-1,-1,-1,-1,-1,-1,-1,-1],"split_conditions":[5E0,1E0,8E0,2E0,2E0,1E0,2E0,-7.53598E-2,-4.2574205E-2,-3.1920552E-2,-2.453232E-3,-9.133723E-3,1.6437147E-2,3.301243E-2,6.288071E-2],"split_indices":[0,0,0,1,1,1,1,0,0,0,0,0,0,0,0],"split_type":[0,0,0,0,0,0,0,0,0,0,0,0,0,0,0],"sum_hessian":[1E3,4.62E2,5.38E2,7.8E1,3.84E2,2.65E2,2.73E2,5.7E1,2.1E1,2.75E2,1.09E2,7.4E1,1.91E2,1.78E2,9.5E1],"tree_param":{"num_deleted":"0","num_feature":"2","num_nodes":"15","size_leaf_vector":"1"}},{"base_weights":[2.1395762E-4,-1.975267E-1,3.4680277E-1,-3.984655E-1,-4.710642E-2,1.629601E-1,4.257781E-1,-5.7220347E-2,-2.8647332E-2,-1.9910723E-2,2.1570257E-3,8.199947E-3,3.602692E-2,3.600083E-2,6.37051E-2],"categories":[],"categories_nodes":[],"categories_segments":[],"categories_sizes":[],"default_left":[0,0,0,0,0,0,0,0,0,0,0,0,0,0,0],"id":18,"left_children":[1,3,5,7,9,11,13,-1,-1,-1,-1,-1,-1,-1,-1],"loss_changes":[6.867174E1,1.9264954E1,5.2155457E0,5.1479225E0,3.8249362E0,1.7436016E0,3.3000793E0,0E0,0E0,0E0,0E0,0E0,0E0,0E0,0E0],"parents":[2147483647,0,0,1,1,2,2,3,3,4,4,5,5,6,6],"right_children":[2,4,6,8,10,12,14,-1,-1,-1,-1,-1,-1,-1,-1],"split_conditions":[7E0,3E0,1E0,1E0,1E0,1E1,1E1,-5.7220347E-2,-2.8647332E-2,-1.9910723E-2,2.1570257E-3,8.199947E-3,3.602692E-2,3.600083E-2,6.37051E-2],"split_indices":[0,0,1,1,1,0,0,0,0,0,0,0,0,0,0],"split_type":[0,0,0,0,0,0,0,0,0,0,0,0,0,0,0],"sum_hessian":[1E3,6.37E2,3.63E2,2.72E2,3.65E2,1.1E2,2.53E2,1.05E2,1.67E2,1.13E2,2.52E2,7.9E1,3.1E1,1.95E2,5.8E1],"tree_param":{"num_deleted":"0","num_feature":"2","num_nodes":"15","size_leaf_vector":"1"}},{"base_weights":[2.3285269E-4,-3.2286903E-1,1.744395E-1,-5.673713E-1,-2.5093296E-1,-6.819773E-4,3.1251794E-1,-6.370976E-2,-3.577579E-2,-3.292964E-2,-5.0802655E-3,-6.6932365E-3,1.3045983E-2,2.2550581E-2,4.6373993E-2],"categories":[],"categories_nodes":[],"categories_segments":[],"categories_sizes":[],"default_left":[0,0,0,0,0,0,0,0,0,0,0,0,0,0,0],"id":19,"left_children":[1,3,5,7,9,11,13,-1,-1,-1,-1,-1,-1,-1,-1],"loss_changes":[5.63991E1,6.031204E0,1.5741716E1,9.267044E-1,4.264702E0,2.5109324E0,4.68499E0,0E0,0E0,0E0,0E0,0E0,0E0,0E0,0E0],"parents":[2147483647,0,0,1,1,2,2,3,3,4,4,5,5,6,6],"right_children":[2,4,6,8,10,12,14,-1,-1,-1,-1,-1,-1,-1,-1],"split_conditions":[4E0,1E0,7E0,2E0,2E0,2E0,2E0,-6.370976E-2,-3.577579E-2,-3.292964E-2,-5.0802655E-3,-6.6932365E-3,1.3045983E-2,2.2550581E-2,4.6373993E-2],"split_indices":[0,0,0,1,1,1,1,0,0,0,0,0,0,0,0],"split_type":[0,0,0,0,0,0,0,0,0,0,0,0,0,0,0],"sum_hessian":[1E3,3.5E2,6.5E2,7.8E1,2.72E2,2.87E2,3.63E2,5.7E1,2.1E1,1.95E2,7.7E1,1.91E2,9.6E1,2.32E2,1.31E2],"tree_param":{"num_deleted":"0","num_feature":"2","num_nodes":"15","size_leaf_vector":"1"}},{"base_weights":[1.4741148E-4,-1.9138667E-1,2.3988749E-1,-3.9359447E-1,-9.772185E-2,1.363076E-1,3.7566566E-1,-5.5364914E-2,-3.0169064E-2,-2.4631046E-2,-1.8281825E-3,5.1604863E-3,2.7287176E-2,2.2782018E-2,4.427707E-2],"categories":[],"categories_nodes":[],"categories_segments":[],"categories_sizes":[],"default_left":[0,0,0,0,0,0,0,0,0,0,0,0,0,0,0],"id":20,"left_children":[1,3,5,7,9,11,13,-1,-1,-1,-1,-1,-1,-1,-1],"loss_changes":[4.6010223E1,1.0510984E1,6.207224E0,2.4218655E0,4.5045805E0,2.9240274E0,1.8039932E0,0E0,0E0,0E0,0E0,0E0,0E0,0E0,0E0],"parents":[2147483647,0,0,1,1,2,2,3,3,4,4,5,5,6,6],"right_children":[2,4,6,8,10,12,14,-1,-1,-1,-1,-1,-1,-1,-1],"split_conditions":[6E0,2E0,9E0,1E0,1E0,2E0,1E0,-5.5364914E-2,-3.0169064E-2,-2.4631046E-2,-1.8281825E-3,5.1604863E-3,2.7287176E-2,2.2782018E-2,4.427707E-2],"split_indices":[0,0,0,1,1,1,1,0,0,0,0,0,0,0,0],"split_type":[0,0,0,0,0,0,0,0,0,0,0,0,0,0,0],"sum_hessian":[1E3,5.56E2,4.44E2,1.75E2,3.81E2,2.53E2,1.91E2,6.2E1,1.13E2,1.32E2,2.49E2,1.57E2,9.6E1,6.1E1,1.3E2],"tree_param":{"num_deleted":"0","num_feature":"2","num_nodes":"15","size_leaf_vector":"1"}},{"base_weights":[1.2021504E-4,-2.662176E-1,1.4372152E-1,-4.7285724E-1,-2.0544562E-1,3.3237513E-2,2.9561654E-1,-5.3223945E-2,-2.9481059E-2,-3.462727E-2,-1.220411E-2,-2.6679337E-3,1.4381126E-2,2.1740638E-2,4.3836653E-2],"categories":[],"categories_nodes":[],"categories_segments":[],"categories_sizes":[],"default_left":[0,0,0,0,0,0,0,0,0,0,0,0,0,0,0],"id":21,"left_children":[1,3,5,7,9,11,13,-1,-1,-1,-1,-1,-1,-1,-1],"loss_changes":[3.8322964E1,4.3106747E0,1.0915236E1,6.783409E-1,3.1642942E0,2.5081737E0,2.963768E0,0E0,0E0,0E0,0E0,0E0,0E0,0E0,0E0],"parents":[2147483647,0,0,1,1,2,2,3,3,4,4,5,5,6,6],"right_children":[2,4,6,8,10,12,14,-1,-1,-1,-1,-1,-1,-1,-1],"split_conditions":[4E0,1E0,8E0,2E0,1E0,2E0,2E0,-5.3223945E-2,-2.9481059E-2,-3.462727E-2,-1.220411E-2,-2.6679337E-3,1.4381126E-2,2.1740638E-2,4.3836653E-2],"split_indices":[0,0,0,1,1,1,1,0,0,0,0,0,0,0,0],"split_type":[0,0,0,0,0,0,0,0,0,0,0,0,0,0,0],"sum_hessian":[1E3,3.5E2,6.5E2,7.8E1,2.72E2,3.77E2,2.73E2,5.7E1,2.1E1,1E2,1.72E2,2.45E2,1.32E2,1.78E2,9.5E1],"tree_param":{"num_deleted":"0","num_feature":"2","num_nodes":"15","size_leaf_vector":"1"}},{"base_weights":[5.6041168E-5,-2.3996489E-1,1.2946816E-1,-3.0290595E-1,-7.669164E-2,2.9944757E-2,2.6629436E-1,-4.7993314E-2,-2.4897492E-2,-2.6666958E-2,-2.212489E-3,-8.457889E-3,7.971852E-3,1.1954415E-2,3.3166062E-2],"categories":[],"categories_nodes":[],"categories_segments":[],"categories_sizes":[],"default_left":[0,0,0,0,0,0,0,0,0,0,0,0,0,0,0],"id":22,"left_children":[1,3,5,7,9,11,13,-1,-1,-1,-1,-1,-1,-1,-1],"loss_changes":[3.1123747E1,3.5838528E0,8.856958E0,2.2959652E0,1.0203812E0,2.1614456E0,2.5887012E0,0E0,0E0,0E0,0E0,0E0,0E0,0E0,0E0],"parents":[2147483647,0,0,1,1,2,2,3,3,4,4,5,5,6,6],"right_children":[2,4,6,8,10,12,14,-1,-1,-1,-1,-1,-1,-1,-1],"split_conditions":[4E0,2E0,8E0,1E0,1E0,1E0,1E0,-4.7993314E-2,-2.4897492E-2,-2.6666958E-2,-2.212489E-3,-8.457889E-3,7.971852E-3,1.1954415E-2,3.3166062E-2],"split_indices":[0,1,0,0,0,1,1,0,0,0,0,0,0,0,0],"split_type":[0,0,0,0,0,0,0,0,0,0,0,0,0,0,0],"sum_hessian":[1E3,3.5E2,6.5E2,2.52E2,9.8E1,3.77E2,2.73E2,5.7E1,1.95E2,2.1E1,7.7E1,1.14E2,2.63E2,8.5E1,1.88E2],"tree_param":{"num_deleted":"0","num_feature":"2","num_nodes":"15","size_leaf_vector":"1"}},{"base_weights":[-6.5854797E-6,-1.4306174E-1,1.7905349E-1,-2.940687E-1,-7.311336E-2,1.298258E-1,3.717868E-1,-4.213913E-2,-2.2112666E-2,-1.292484E-2,5.357222E-3,7.4819654E-5,1.8237224E-2,2.4881048E-2,4.3218438E-2],"categories":[],"categories_nodes":[],"categories_segments":[],"categories_sizes":[],"default_left":[0,0,0,0,0,0,0,0,0,0,0,0,0,0,0],"id":23,"left_children":[1,3,5,7,9,11,13,-1,-1,-1,-1,-1,-1,-1,-1],"loss_changes":[2.5666698E1,5.8619194E0,4.17381E0,1.5413628E0,2.7235165E0,2.4144568E0,5.6094074E-1,0E0,0E0,0E0,0E0,0E0,0E0,0E0,0E0],"parents":[2147483647,0,0,1,1,2,2,3,3,4,4,5,5,6,6],"right_children":[2,4,6,8,10,12,14,-1,-1,-1,-1,-1,-1,-1,-1],"split_conditions":[6E0,2E0,1E1,1E0,2E0,1E0,1E0,-4.213913E-2,-2.2112666E-2,-1.292484E-2,5.357222E-3,7.4819654E-5,1.8237224E-2,2.4881048E-2,4.3218438E-2],"split_indices":[0,0,0,1,1,1,1,0,0,0,0,0,0,0,0],"split_type":[0,0,0,0,0,0,0,0,0,0,0,0,0,0,0],"sum_hessian":[1E3,5.56E2,4.44E2,1.75E2,3.81E2,3.55E2,8.9E1,6.2E1,1.13E2,2.64E2,1.17E2,1.03E2,2.52E2,3.1E1,5.8E1],"tree_param":{"num_deleted":"0","num_feature":"2","num_nodes":"15","size_leaf_vector":"1"}},{"base_weights":[8.667831E-6,-1.0990479E-1,1.9265915E-1,-1.9785635E-1,-2.3322005E-3,1.4525492E-1,3.3536473E-1,-3.102175E-2,-1.3116804E-2,-9.193632E-3,3.8203995E-3,8.00006E-3,2.534466E-2,2.2470713E-2,3.8969826E-2],"categories":[],"categories_nodes":[],"categories_segments":[],"categories_sizes":[],"default_left":[0,0,0,0,0,0,0,0,0,0,0,0,0,0,0],"id":24,"left_children":[1,3,5,7,9,11,13,-1,-1,-1,-1,-1,-1,-1,-1],"loss_changes":[2.121723E1,6.0357695E0,2.4136906E0,2.5894146E0,1.0495888E0,1.9212174E0,4.535513E-1,0E0,0E0,0E0,0E0,0E0,0E0,0E0,0E0],"parents":[2147483647,0,0,1,1,2,2,3,3,4,4,5,5,6,6],"right_children":[2,4,6,8,10,12,14,-1,-1,-1,-1,-1,-1,-1,-1],"split_conditions":[7E0,4E0,1E1,1E0,1E0,2E0,1E0,-3.102175E-2,-1.3116804E-2,-9.193632E-3,3.8203995E-3,8.00006E-3,2.534466E-2,2.2470713E-2,3.8969826E-2],"split_indices":[0,0,0,1,1,1,1,0,0,0,0,0,0,0,0],"split_type":[0,0,0,0,0,0,0,0,0,0,0,0,0,0,0],"sum_hessian":[1E3,6.37E2,3.63E2,3.5E2,2.87E2,2.74E2,8.9E1,1.29E2,2.21E2,8.9E1,1.98E2,1.72E2,1.02E2,3.1E1,5.8E1],"tree_param":{"num_deleted":"0","num_feature":"2","num_nodes":"15","size_leaf_vector":"1"}},{"base_weights":[5.302342E-5,-9.899191E-2,1.7365362E-1,-2.456772E-1,-4.3018688E-2,1.3085072E-1,3.0251074E-1,-3.3619393E-2,-1.7020272E-2,-9.002319E-3,5.863739E-3,7.204695E-3,2.2834783E-2,2.4947269E-2,4.0027108E-2],"categories":[],"categories_nodes":[],"categories_segments":[],"categories_sizes":[],"default_left":[0,0,0,0,0,0,0,0,0,0,0,0,0,0,0],"id":25,"left_children":[1,3,5,7,9,11,13,-1,-1,-1,-1,-1,-1,-1,-1],"loss_changes":[1.7228643E1,5.2276974E0,1.9680424E0,1.1451588E0,2.2176282E0,1.5601778E0,3.6679554E-1,0E0,0E0,0E0,0E0,0E0,0E0,0E0,0E0],"parents":[2147483647,0,0,1,1,2,2,3,3,4,4,5,5,6,6],"right_children":[2,4,6,8,10,12,14,-1,-1,-1,-1,-1,-1,-1,-1],"split_conditions":[7E0,2E0,1E1,1E0,2E0,2E0,2E0,-3.3619393E-2,-1.7020272E-2,-9.002319E-3,5.863739E-3,7.204695E-3,2.2834783E-2,2.4947269E-2,4.0027108E-2],"split_indices":[0,0,0,0,1,1,1,0,0,0,0,0,0,0,0],"split_type":[0,0,0,0,0,0,0,0,0,0,0,0,0,0,0],"sum_hessian":[1E3,6.37E2,3.63E2,1.75E2,4.62E2,2.74E2,8.9E1,7.8E1,9.7E1,3.16E2,1.46E2,1.72E2,1.02E2,6E1,2.9E1],"tree_param":{"num_deleted":"0","num_feature":"2","num_nodes":"15","size_leaf_vector":"1"}},{"base_weights":[8.893284E-5,-1.6365123E-1,8.8372655E-2,-2.1158433E-1,-3.950244E-2,3.4931842E-2,2.1594767E-1,-3.4613978E-2,-1.706874E-2,-1.7549537E-2,-6.390153E-5,-6.092379E-3,7.620203E-3,1.7045502E-2,3.0221095E-2],"categories":[],"categories_nodes":[],"categories_segments":[],"categories_sizes":[],"default_left":[0,0,0,0,0,0,0,0,0,0,0,0,0,0,0],"id":26,"left_children":[1,3,5,7,9,11,13,-1,-1,-1,-1,-1,-1,-1,-1],"loss_changes":[1.44845085E1,2.0803862E0,4.430787E0,1.3331537E0,5.231178E-1,1.8243933E0,7.019615E-1,0E0,0E0,0E0,0E0,0E0,0E0,0E0,0E0],"parents":[2147483647,0,0,1,1,2,2,3,3,4,4,5,5,6,6],"right_children":[2,4,6,8,10,12,14,-1,-1,-1,-1,-1,-1,-1,-1],"split_conditions":[4E0,2E0,9E0,1E0,1E0,1E0,2E0,-3.4613978E-2,-1.706874E-2,-1.7549537E-2,-6.390153E-5,-6.092379E-3,7.620203E-3,1.7045502E-2,3.0221095E-2],"split_indices":[0,1,0,0,0,1,1,0,0,0,0,0,0,0,0],"split_type":[0,0,0,0,0,0,0,0,0,0,0,0,0,0,0],"sum_hessian":[1E3,3.5E2,6.5E2,2.52E2,9.8E1,4.59E2,1.91E2,5.7E1,1.95E2,2.1E1,7.7E1,1.38E2,3.21E2,1.27E2,6.4E1],"tree_param":{"num_deleted":"0","num_feature":"2","num_nodes":"15","size_leaf_vector":"1"}},{"base_weights":[5.955552E-5,-1.1738411E-1,1.0094334E-1,-2.7336037E-1,-8.50737E-2,4.8981115E-2,1.9459912E-1,-3.1212261E-2,-1.5874356E-2,-1.6745491E-2,-3.7315232E-3,4.5502133E-5,1.2838401E-2,1.5354267E-2,2.7245492E-2],"categories":[],"categories_nodes":[],"categories_segments":[],"categories_sizes":[],"default_left":[0,0,0,0,0,0,0,0,0,0,0,0,0,0,0],"id":27,"left_children":[1,3,5,7,9,11,13,-1,-1,-1,-1,-1,-1,-1,-1],"loss_changes":[1.187186E1,2.3101048E0,2.613546E0,3.0143404E-1,1.5084958E0,1.3408246E0,5.718913E-1,0E0,0E0,0E0,0E0,0E0,0E0,0E0,0E0],"parents":[2147483647,0,0,1,1,2,2,3,3,4,4,5,5,6,6],"right_children":[2,4,6,8,10,12,14,-1,-1,-1,-1,-1,-1,-1,-1],"split_conditions":[5E0,1E0,9E0,2E0,1E0,2E0,2E0,-3.1212261E-2,-1.5874356E-2,-1.6745491E-2,-3.7315232E-3,4.5502133E-5,1.2838401E-2,1.5354267E-2,2.7245492E-2],"split_indices":[0,0,0,1,1,1,1,0,0,0,0,0,0,0,0],"split_type":[0,0,0,0,0,0,0,0,0,0,0,0,0,0,0],"sum_hessian":[1E3,4.62E2,5.38E2,7.8E1,3.84E2,3.47E2,1.91E2,5.7E1,2.1E1,1.4E2,2.44E2,2.16E2,1.31E2,1.27E2,6.4E1],"tree_param":{"num_deleted":"0","num_feature":"2","num_nodes":"15","size_leaf_vector":"1"}},{"base_weights":[4.156647E-5,-1.348658E-1,7.277957E-2,-2.2227925E-1,-8.307024E-2,2.9804703E-2,1.7536116E-1,-3.2600705E-2,-1.8926824E-2,-1.9405596E-2,-5.0513274E-3,-5.008838E-3,6.420015E-3,1.2341262E-2,2.328649E-2],"categories":[],"categories_nodes":[],"categories_segments":[],"categories_sizes":[],"default_left":[0,0,0,0,0,0,0,0,0,0,0,0,0,0,0],"id":28,"left_children":[1,3,5,7,9,11,13,-1,-1,-1,-1,-1,-1,-1,-1],"loss_changes":[9.832521E0,1.5707331E0,2.8646617E0,3.8343763E-1,7.9236317E-1,1.2672765E0,5.448108E-1,0E0,0E0,0E0,0E0,0E0,0E0,0E0,0E0],"parents":[2147483647,0,0,1,1,2,2,3,3,4,4,5,5,6,6],"right_children":[2,4,6,8,10,12,14,-1,-1,-1,-1,-1,-1,-1,-1],"split_conditions":[4E0,1E0,9E0,1E0,1E0,1E0,1E1,-3.2600705E-2,-1.8926824E-2,-1.9405596E-2,-5.0513274E-3,-5.008838E-3,6.420015E-3,1.2341262E-2,2.328649E-2],"split_indices":[0,1,0,0,0,1,0,0,0,0,0,0,0,0,0],"split_type":[0,0,0,0,0,0,0,0,0,0,0,0,0,0,0],"sum_hessian":[1E3,3.5E2,6.5E2,1.29E2,2.21E2,4.59E2,1.91E2,2.9E1,1E2,4.9E1,1.72E2,1.38E2,3.21E2,1.02E2,8.9E1],"tree_param":{"num_deleted":"0","num_feature":"2","num_nodes":"15","size_leaf_vector":"1"}},{"base_weights":[-1.5010576E-6,-6.867336E-2,1.2036291E-1,-1.6863517E-1,-3.0526588E-2,3.2791015E-2,1.5815865E-1,-2.520668E-2,-1.2104897E-2,-6.4005195E-3,4.1876435E-3,-4.4324758E-4,1.2482502E-2,1.2898642E-2,2.523891E-2],"categories":[],"categories_nodes":[],"categories_segments":[],"categories_sizes":[],"default_left":[0,0,0,0,0,0,0,0,0,0,0,0,0,0,0],"id":29,"left_children":[1,3,5,7,9,11,13,-1,-1,-1,-1,-1,-1,-1,-1],"loss_changes":[8.282178E0,2.4276865E0,1.1995974E0,6.68242E-1,1.1249702E0,3.8082004E-1,6.6566896E-1,0E0,0E0,0E0,0E0,0E0,0E0,0E0,0E0],"parents":[2147483647,0,0,1,1,2,2,3,3,4,4,5,5,6,6],"right_children":[2,4,6,8,10,12,14,-1,-1,-1,-1,-1,-1,-1,-1],"split_conditions":[7E0,2E0,1E0,1E0,2E0,1E1,1E1,-2.520668E-2,-1.2104897E-2,-6.4005195E-3,4.1876435E-3,-4.4324758E-4,1.2482502E-2,1.2898642E-2,2.523891E-2],"split_indices":[0,0,1,1,1,0,0,0,0,0,0,0,0,0,0],"split_type":[0,0,0,0,0,0,0,0,0,0,0,0,0,0,0],"sum_hessian":[1E3,6.37E2,3.63E2,1.75E2,4.62E2,1.1E2,2.53E2,6.2E1,1.13E2,3.16E2,1.46E2,7.9E1,3.1E1,1.95E2,5.8E1],"tree_param":{"num_deleted":"0","num_feature":"2","num_nodes":"15","size_leaf_vector":"1"}},{"base_weights":[9.3490125E-6,-1.11563355E-1,6.0166046E-2,-1.4786667E-1,-1.7661305E-2,-1.0868609E-3,1.0846459E-1,-2.3733286E-2,-1.2063757E-2,-1.1351256E-2,9.600091E-4,-2.41193E-3,4.4514327E-3,6.899851E-3,1.7730651E-2],"categories":[],"categories_nodes":[],"categories_segments":[],"categories_sizes":[],"default_left":[0,0,0,0,0,0,0,0,0,0,0,0,0,0,0],"id":30,"left_children":[1,3,5,7,9,11,13,-1,-1,-1,-1,-1,-1,-1,-1],"loss_changes":[6.7252693E0,1.193932E0,1.9260535E0,5.87698E-1,2.597806E-1,3.0356193E-1,9.767246E-1,0E0,0E0,0E0,0E0,0E0,0E0,0E0,0E0],"parents":[2147483647,0,0,1,1,2,2,3,3,4,4,5,5,6,6],"right_children":[2,4,6,8,10,12,14,-1,-1,-1,-1,-1,-1,-1,-1],"split_conditions":[4E0,2E0,7E0,1E0,1E0,2E0,2E0,-2.3733286E-2,-1.2063757E-2,-1.1351256E-2,9.600091E-4,-2.41193E-3,4.4514327E-3,6.899851E-3,1.7730651E-2],"split_indices":[0,1,0,0,0,1,1,0,0,0,0,0,0,0,0],"split_type":[0,0,0,0,0,0,0,0,0,0,0,0,0,0,0],"sum_hessian":[1E3,3.5E2,6.5E2,2.52E2,9.8E1,2.87E2,3.63E2,5.7E1,1.95E2,2.1E1,7.7E1,1.91E2,9.6E1,2.32E2,1.31E2],"tree_param":{"num_deleted":"0","num_feature":"2","num_nodes":"15","size_leaf_vector":"1"}},{"base_weights":[-1.1112783E-5,-6.613696E-2,8.2757674E-2,-1.382921E-1,-3.271957E-2,5.8204524E-2,1.7895947E-1,-2.1001628E-2,-9.744198E-3,-9.392789E-3,-2.5870324E-6,-1.4692878E-3,8.79402E-3,1.0604824E-2,2.1547135E-2],"categories":[],"categories_nodes":[],"categories_segments":[],"categories_sizes":[],"default_left":[0,0,0,0,0,0,0,0,0,0,0,0,0,0,0],"id":31,"left_children":[1,3,5,7,9,11,13,-1,-1,-1,-1,-1,-1,-1,-1],"loss_changes":[5.4841027E0,1.3385339E0,1.0406992E0,4.9520516E-1,7.644278E-1,7.7297676E-1,2.1674061E-1,0E0,0E0,0E0,0E0,0E0,0E0,0E0,0E0],"parents":[2147483647,0,0,1,1,2,2,3,3,4,4,5,5,6,6],"right_children":[2,4,6,8,10,12,14,-1,-1,-1,-1,-1,-1,-1,-1],"split_conditions":[6E0,2E0,1E1,1E0,1E0,1E0,1E0,-2.1001628E-2,-9.744198E-3,-9.392789E-3,-2.5870324E-6,-1.4692878E-3,8.79402E-3,1.0604824E-2,2.1547135E-2],"split_indices":[0,0,0,1,1,1,1,0,0,0,0,0,0,0,0],"split_type":[0,0,0,0,0,0,0,0,0,0,0,0,0,0,0],"sum_hessian":[1E3,5.56E2,4.44E2,1.75E2,3.81E2,3.55E2,8.9E1,6.2E1,1.13E2,1.32E2,2.49E2,1.03E2,2.52E2,3.1E1,5.8E1],"tree_param":{"num_deleted":"0","num_feature":"2","num_nodes":"15","size_leaf_vector":"1"}},{"base_weights":[-1.0637181E-5,-9.1898195E-2,4.953244E-2,-1.23083405E-1,-1.12743825E-2,1.9244399E-2,1.2183955E-1,-1.9880384E-2,-1.0004836E-2,-9.337599E-3,1.2027024E-3,-9.210009E-4,7.0657292E-3,9.207338E-3,1.7858157E-2],"categories":[],"categories_nodes":[],"categories_segments":[],"categories_sizes":[],"default_left":[0,0,0,0,0,0,0,0,0,0,0,0,0,0,0],"id":32,"left_children":[1,3,5,7,9,11,13,-1,-1,-1,-1,-1,-1,-1,-1],"loss_changes":[4.5614967E0,8.8112116E-1,1.423372E0,4.2139888E-1,1.9051823E-1,6.735955E-1,3.078437E-1,0E0,0E0,0E0,0E0,0E0,0E0,0E0,0E0],"parents":[2147483647,0,0,1,1,2,2,3,3,4,4,5,5,6,6],"right_children":[2,4,6,8,10,12,14,-1,-1,-1,-1,-1,-1,-1,-1],"split_conditions":[4E0,2E0,9E0,1E0,1E0,2E0,2E0,-1.9880384E-2,-1.0004836E-2,-9.337599E-3,1.2027024E-3,-9.210009E-4,7.0657292E-3,9.207338E-3,1.7858157E-2],"split_indices":[0,1,0,0,0,1,1,0,0,0,0,0,0,0,0],"split_type":[0,0,0,0,0,0,0,0,0,0,0,0,0,0,0],"sum_hessian":[1E3,3.5E2,6.5E2,2.52E2,9.8E1,4.59E2,1.91E2,5.7E1,1.95E2,2.1E1,7.7E1,2.96E2,1.63E2,1.27E2,6.4E1],"tree_param":{"num_deleted":"0","num_feature":"2","num_nodes":"15","size_leaf_vector":"1"}},{"base_weights":[-1.438888E-5,-4.6560876E-2,8.156988E-2,-1.1329022E-1,-2.1094516E-2,1.6213322E-2,1.0981007E-1,-1.7495608E-2,-7.821794E-3,-7.0881615E-3,4.4353507E-4,-1.224612E-3,8.685526E-3,8.782442E-3,1.8098596E-2],"categories":[],"categories_nodes":[],"categories_segments":[],"categories_sizes":[],"default_left":[0,0,0,0,0,0,0,0,0,0,0,0,0,0,0],"id":33,"left_children":[1,3,5,7,9,11,13,-1,-1,-1,-1,-1,-1,-1,-1],"loss_changes":[3.8050563E0,1.0817977E0,6.70048E-1,3.6696148E-1,5.888142E-1,2.2422141E-1,3.815763E-1,0E0,0E0,0E0,0E0,0E0,0E0,0E0,0E0],"parents":[2147483647,0,0,1,1,2,2,3,3,4,4,5,5,6,6],"right_children":[2,4,6,8,10,12,14,-1,-1,-1,-1,-1,-1,-1,-1],"split_conditions":[7E0,2E0,1E0,1E0,1E0,1E1,1E1,-1.7495608E-2,-7.821794E-3,-7.0881615E-3,4.4353507E-4,-1.224612E-3,8.685526E-3,8.782442E-3,1.8098596E-2],"split_indices":[0,0,1,1,1,0,0,0,0,0,0,0,0,0,0],"split_type":[0,0,0,0,0,0,0,0,0,0,0,0,0,0,0],"sum_hessian":[1E3,6.37E2,3.63E2,1.75E2,4.62E2,1.1E2,2.53E2,6.2E1,1.13E2,1.56E2,3.06E2,7.9E1,3.1E1,1.95E2,5.8E1],"tree_param":{"num_deleted":"0","num_feature":"2","num_nodes":"15","size_leaf_vector":"1"}},{"base_weights":[-1.0563159E-5,-7.599161E-2,4.095619E-2,-1.0282073E-1,-6.660686E-3,8.465871E-3,8.562913E-2,-1.6674241E-2,-8.338055E-3,-7.699656E-3,1.326303E-3,-7.9478056E-4,3.8761348E-3,5.128446E-3,1.4877565E-2],"categories":[],"categories_nodes":[],"categories_segments":[],"categories_sizes":[],"default_left":[0,0,0,0,0,0,0,0,0,0,0,0,0,0,0],"id":34,"left_children":[1,3,5,7,9,11,13,-1,-1,-1,-1,-1,-1,-1,-1],"loss_changes":[3.1189218E0,6.522062E-1,9.441612E-1,3.0048704E-1,1.3975506E-1,1.882724E-1,5.866065E-1,0E0,0E0,0E0,0E0,0E0,0E0,0E0,0E0],"parents":[2147483647,0,0,1,1,2,2,3,3,4,4,5,5,6,6],"right_children":[2,4,6,8,10,12,14,-1,-1,-1,-1,-1,-1,-1,-1],"split_conditions":[4E0,2E0,8E0,1E0,1E0,2E0,2E0,-1.6674241E-2,-8.338055E-3,-7.699656E-3,1.326303E-3,-7.9478056E-4,3.8761348E-3,5.128446E-3,1.4877565E-2],"split_indices":[0,1,0,0,0,1,1,0,0,0,0,0,0,0,0],"split_type":[0,0,0,0,0,0,0,0,0,0,0,0,0,0,0],"sum_hessian":[1E3,3.5E2,6.5E2,2.52E2,9.8E1,3.77E2,2.73E2,5.7E1,1.95E2,2.1E1,7.7E1,2.45E2,1.32E2,1.78E2,9.5E1],"tree_param":{"num_deleted":"0","num_feature":"2","num_nodes":"15","size_leaf_vector":"1"}},{"base_weights":[-1.779041E-5,-3.81686E-2,6.685099E-2,-1.2978302E-1,-2.5176264E-2,1.0911009E-2,9.1034E-2,-1.5035565E-2,-6.9646873E-3,-7.017384E-3,-2.0638263E-4,-1.4250166E-3,7.347298E-3,7.180805E-3,1.5336034E-2],"categories":[],"categories_nodes":[],"categories_segments":[],"categories_sizes":[],"default_left":[0,0,0,0,0,0,0,0,0,0,0,0,0,0,0],"id":35,"left_children":[1,3,5,7,9,11,13,-1,-1,-1,-1,-1,-1,-1,-1],"loss_changes":[2.5562007E0,7.561345E-1,4.9142516E-1,8.726382E-2,5.8225715E-1,1.7577572E-1,2.933514E-1,0E0,0E0,0E0,0E0,0E0,0E0,0E0,0E0],"parents":[2147483647,0,0,1,1,2,2,3,3,4,4,5,5,6,6],"right_children":[2,4,6,8,10,12,14,-1,-1,-1,-1,-1,-1,-1,-1],"split_conditions":[7E0,1E0,1E0,2E0,1E0,1E1,1E1,-1.5035565E-2,-6.9646873E-3,-7.017384E-3,-2.0638263E-4,-1.4250166E-3,7.347298E-3,7.180805E-3,1.5336034E-2],"split_indices":[0,0,1,1,1,0,0,0,0,0,0,0,0,0,0],"split_type":[0,0,0,0,0,0,0,0,0,0,0,0,0,0,0],"sum_hessian":[1E3,6.37E2,3.63E2,7.8E1,5.59E2,1.1E2,2.53E2,5.7E1,2.1E1,1.89E2,3.7E2,7.9E1,3.1E1,1.95E2,5.8E1],"tree_param":{"num_deleted":"0","num_feature":"2","num_nodes":"15","size_leaf_vector":"1"}},{"base_weights":[-1.6768689E-5,-6.352311E-2,3.4224004E-2,-1.12682424E-1,-3.444998E-2,2.1348186E-2,1.14246055E-1,-1.6009986E-2,-9.748237E-3,-8.893155E-3,-1.8504728E-3,9.8333054E-5,5.8491197E-3,6.6355467E-3,1.3828424E-2],"categories":[],"categories_nodes":[],"categories_segments":[],"categories_sizes":[],"default_left":[0,0,0,0,0,0,0,0,0,0,0,0,0,0,0],"id":36,"left_children":[1,3,5,7,9,11,13,-1,-1,-1,-1,-1,-1,-1,-1],"loss_changes":[2.1788547E0,4.977727E-1,6.683184E-1,7.809019E-2,1.9121069E-1,4.2504606E-1,9.4432235E-2,0E0,0E0,0E0,0E0,0E0,0E0,0E0,0E0],"parents":[2147483647,0,0,1,1,2,2,3,3,4,4,5,5,6,6],"right_children":[2,4,6,8,10,12,14,-1,-1,-1,-1,-1,-1,-1,-1],"split_conditions":[4E0,1E0,1E1,1E0,1E0,2E0,1E0,-1.6009986E-2,-9.748237E-3,-8.893155E-3,-1.8504728E-3,9.8333054E-5,5.8491197E-3,6.6355467E-3,1.3828424E-2],"split_indices":[0,1,0,0,0,1,1,0,0,0,0,0,0,0,0],"split_type":[0,0,0,0,0,0,0,0,0,0,0,0,0,0,0],"sum_hessian":[1E3,3.5E2,6.5E2,1.29E2,2.21E2,5.61E2,8.9E1,2.9E1,1E2,4.9E1,1.72E2,3.63E2,1.98E2,3.1E1,5.8E1],"tree_param":{"num_deleted":"0","num_feature":"2","num_nodes":"15","size_leaf_vector":"1"}},{"base_weights":[-2.5105055E-5,-3.7806988E-2,4.726598E-2,-5.7078682E-2,7.929829E-3,3.3030793E-2,1.0304888E-1,-7.903165E-3,-1.6998835E-3,-5.450987E-3,1.734875E-3,-1.2365385E-3,5.1561114E-3,5.9927166E-3,1.2469034E-2],"categories":[],"categories_nodes":[],"categories_segments":[],"categories_sizes":[],"default_left":[0,0,0,0,0,0,0,0,0,0,0,0,0,0,0],"id":37,"left_children":[1,3,5,7,9,11,13,-1,-1,-1,-1,-1,-1,-1,-1],"loss_changes":[1.79032E0,4.9140686E-1,3.4996188E-1,3.435663E-1,9.857269E-2,3.001068E-1,7.6517165E-2,0E0,0E0,0E0,0E0,0E0,0E0,0E0,0E0],"parents":[2147483647,0,0,1,1,2,2,3,3,4,4,5,5,6,6],"right_children":[2,4,6,8,10,12,14,-1,-1,-1,-1,-1,-1,-1,-1],"split_conditions":[6E0,2E0,1E1,4E0,1E0,1E0,1E0,-7.903165E-3,-1.6998835E-3,-5.450987E-3,1.734875E-3,-1.2365385E-3,5.1561114E-3,5.9927166E-3,1.2469034E-2],"split_indices":[0,1,0,0,0,1,1,0,0,0,0,0,0,0,0],"split_type":[0,0,0,0,0,0,0,0,0,0,0,0,0,0,0],"sum_hessian":[1E3,5.56E2,4.44E2,3.91E2,1.65E2,3.55E2,8.9E1,2.52E2,1.39E2,2.1E1,1.44E2,1.03E2,2.52E2,3.1E1,5.8E1],"tree_param":{"num_deleted":"0","num_feature":"2","num_nodes":"15","size_leaf_vector":"1"}},{"base_weights":[-1.3524248E-5,-2.9003797E-2,5.0799135E-2,-7.188031E-2,-1.2642524E-2,2.8254123E-2,9.0209655E-2,-1.1484469E-2,-4.750631E-3,-4.4487105E-3,3.6839955E-4,-8.43534E-5,5.2129887E-3,3.9086873E-3,1.0897354E-2],"categories":[],"categories_nodes":[],"categories_segments":[],"categories_sizes":[],"default_left":[0,0,0,0,0,0,0,0,0,0,0,0,0,0,0],"id":38,"left_children":[1,3,5,7,9,11,13,-1,-1,-1,-1,-1,-1,-1,-1],"loss_changes":[1.4760193E0,4.4665742E-1,3.2086903E-1,1.7885381E-1,2.4088275E-1,1.6191581E-1,1.2236321E-1,0E0,0E0,0E0,0E0,0E0,0E0,0E0,0E0],"parents":[2147483647,0,0,1,1,2,2,3,3,4,4,5,5,6,6],"right_children":[2,4,6,8,10,12,14,-1,-1,-1,-1,-1,-1,-1,-1],"split_conditions":[7E0,2E0,2E0,1E0,1E0,9E0,8E0,-1.1484469E-2,-4.750631E-3,-4.4487105E-3,3.6839955E-4,-8.43534E-5,5.2129887E-3,3.9086873E-3,1.0897354E-2],"split_indices":[0,0,1,1,1,0,0,0,0,0,0,0,0,0,0],"split_type":[0,0,0,0,0,0,0,0,0,0,0,0,0,0,0],"sum_hessian":[1E3,6.37E2,3.63E2,1.75E2,4.62E2,2.32E2,1.31E2,6.2E1,1.13E2,1.56E2,3.06E2,1.05E2,1.27E2,3.6E1,9.5E1],"tree_param":{"num_deleted":"0","num_feature":"2","num_nodes":"15","size_leaf_vector":"1"}},{"base_weights":[-1.2512666E-5,-4.7361363E-2,2.551661E-2,-6.603115E-2,8.287213E-4,9.698972E-3,6.3280135E-2,-1.0747853E-2,-5.342922E-3,-4.4772006E-3,1.3679839E-3,-6.164647E-4,3.836846E-3,3.0081933E-3,7.850921E-3],"categories":[],"categories_nodes":[],"categories_segments":[],"categories_sizes":[],"default_left":[0,0,0,0,0,0,0,0,0,0,0,0,0,0,0],"id":39,"left_children":[1,3,5,7,9,11,13,-1,-1,-1,-1,-1,-1,-1,-1],"loss_changes":[1.211192E0,3.158489E-1,3.8824794E-1,1.2640381E-1,5.862848E-2,2.0944536E-1,9.470922E-2,0E0,0E0,0E0,0E0,0E0,0E0,0E0,0E0],"parents":[2147483647,0,0,1,1,2,2,3,3,4,4,5,5,6,6],"right_children":[2,4,6,8,10,12,14,-1,-1,-1,-1,-1,-1,-1,-1],"split_conditions":[4E0,2E0,9E0,1E0,1E0,2E0,1E0,-1.0747853E-2,-5.342922E-3,-4.4772006E-3,1.3679839E-3,-6.164647E-4,3.836846E-3,3.0081933E-3,7.850921E-3],"split_indices":[0,1,0,0,0,1,1,0,0,0,0,0,0,0,0],"split_type":[0,0,0,0,0,0,0,0,0,0,0,0,0,0,0],"sum_hessian":[1E3,3.5E2,6.5E2,2.52E2,9.8E1,4.59E2,1.91E2,5.7E1,1.95E2,2.1E1,7.7E1,2.96E2,1.63E2,6.1E1,1.3E2],"tree_param":{"num_deleted":"0","num_feature":"2","num_nodes":"15","size_leaf_vector":"1"}},{"base_weights":[-1.6363038E-5,-2.3952492E-2,4.1937664E-2,-5.439639E-2,-8.021141E-3,2.9478373E-3,5.8811415E-2,-8.975402E-3,-2.1042842E-3,-6.0946248E-3,-8.667568E-5,-1.4372802E-3,4.6157315E-3,4.7077117E-3,9.679636E-3],"categories":[],"categories_nodes":[],"categories_segments":[],"categories_sizes":[],"default_left":[0,0,0,0,0,0,0,0,0,0,0,0,0,0,0],"id":40,"left_children":[1,3,5,7,9,11,13,-1,-1,-1,-1,-1,-1,-1,-1],"loss_changes":[1.0062257E0,3.090016E-1,2.3930395E-1,2.5637853E-1,1.5897873E-1,8.373756E-2,1.0865772E-1,0E0,0E0,0E0,0E0,0E0,0E0,0E0,0E0],"parents":[2147483647,0,0,1,1,2,2,3,3,4,4,5,5,6,6],"right_children":[2,4,6,8,10,12,14,-1,-1,-1,-1,-1,-1,-1,-1],"split_conditions":[7E0,1E0,1E0,3E0,1E0,1E1,1E1,-8.975402E-3,-2.1042842E-3,-6.0946248E-3,-8.667568E-5,-1.4372802E-3,4.6157315E-3,4.7077117E-3,9.679636E-3],"split_indices":[0,1,1,0,0,0,0,0,0,0,0,0,0,0,0],"split_type":[0,0,0,0,0,0,0,0,0,0,0,0,0,0,0],"sum_hessian":[1E3,6.37E2,3.63E2,2.18E2,4.19E2,1.1E2,2.53E2,1.05E2,1.13E2,4.9E1,3.7E2,7.9E1,3.1E1,1.95E2,5.8E1],"tree_param":{"num_deleted":"0","num_feature":"2","num_nodes":"15","size_leaf_vector":"1"}},{"base_weights":[-1.4434998E-5,-3.107371E-2,2.6665451E-2,-7.5356536E-2,-2.1906395E-2,1.0762861E-2,5.4440074E-2,-1.0681637E-2,-5.497351E-3,-3.3634969E-3,7.7208097E-4,1.2234559E-4,5.499939E-3,2.432536E-3,8.555617E-3],"categories":[],"categories_nodes":[],"categories_segments":[],"categories_sizes":[],"default_left":[0,0,0,0,0,0,0,0,0,0,0,0,0,0,0],"id":41,"left_children":[1,3,5,7,9,11,13,-1,-1,-1,-1,-1,-1,-1,-1],"loss_changes":[8.3031523E-1,1.8630621E-1,2.3748413E-1,4.4786394E-2,1.3404134E-1,1.4509733E-1,1.8158114E-1,0E0,0E0,0E0,0E0,0E0,0E0,0E0,0E0],"parents":[2147483647,0,0,1,1,2,2,3,3,4,4,5,5,6,6],"right_children":[2,4,6,8,10,12,14,-1,-1,-1,-1,-1,-1,-1,-1],"split_conditions":[5E0,1E0,2E0,1E0,2E0,1E1,8E0,-1.0681637E-2,-5.497351E-3,-3.3634969E-3,7.7208097E-4,1.2234559E-4,5.499939E-3,2.432536E-3,8.555617E-3],"split_indices":[0,0,1,1,1,0,0,0,0,0,0,0,0,0,0],"split_type":[0,0,0,0,0,0,0,0,0,0,0,0,0,0,0],"sum_hessian":[1E3,4.62E2,5.38E2,7.8E1,3.84E2,3.43E2,1.95E2,2.9E1,4.9E1,2.75E2,1.09E2,2.83E2,6E1,1E2,9.5E1],"tree_param":{"num_deleted":"0","num_feature":"2","num_nodes":"15","size_leaf_vector":"1"}},{"base_weights":[-1.5137239E-5,-3.560857E-2,1.9175816E-2,-6.688446E-2,-1.7133467E-2,1.1704719E-2,6.561561E-2,-7.5529413E-3,-2.755448E-3,-3.278241E-3,2.6402957E-4,-1.3662311E-3,2.2555792E-3,4.9589714E-3,9.60144E-3],"categories":[],"categories_nodes":[],"categories_segments":[],"categories_sizes":[],"default_left":[0,0,0,0,0,0,0,0,0,0,0,0,0,0,0],"id":42,"left_children":[1,3,5,7,9,11,13,-1,-1,-1,-1,-1,-1,-1,-1],"loss_changes":[6.844379E-1,2.0167065E-1,2.2510047E-1,4.2119622E-2,6.8781905E-2,1.55004E-1,3.908381E-2,0E0,0E0,0E0,0E0,0E0,0E0,0E0,0E0],"parents":[2147483647,0,0,1,1,2,2,3,3,4,4,5,5,6,6],"right_children":[2,4,6,8,10,12,14,-1,-1,-1,-1,-1,-1,-1,-1],"split_conditions":[4E0,1E0,1E1,3E0,2E0,1E0,2E0,-7.5529413E-3,-2.755448E-3,-3.278241E-3,2.6402957E-4,-1.3662311E-3,2.2555792E-3,4.9589714E-3,9.60144E-3],"split_indices":[0,1,0,0,1,1,1,0,0,0,0,0,0,0,0],"split_type":[0,0,0,0,0,0,0,0,0,0,0,0,0,0,0],"sum_hessian":[1E3,3.5E2,6.5E2,1.29E2,2.21E2,5.61E2,8.9E1,1.05E2,2.4E1,1.23E2,9.8E1,1.68E2,3.93E2,6E1,2.9E1],"tree_param":{"num_deleted":"0","num_feature":"2","num_nodes":"15","size_leaf_vector":"1"}},{"base_weights":[-1.1501899E-5,-1.819521E-2,3.1859975E-2,-6.416137E-2,-1.1678209E-2,6.457191E-4,4.5375418E-2,-7.613227E-3,-2.968529E-3,-3.3165675E-3,-6.423677E-5,-2.446003E-3,2.0881877E-3,1.7979399E-3,5.47022E-3],"categories":[],"categories_nodes":[],"categories_segments":[],"categories_sizes":[],"default_left":[0,0,0,0,0,0,0,0,0,0,0,0,0,0,0],"id":43,"left_children":[1,3,5,7,9,11,13,-1,-1,-1,-1,-1,-1,-1,-1],"loss_changes":[5.8070093E-1,1.9037095E-1,1.5353292E-1,3.0344069E-2,1.3277277E-1,5.6903638E-2,6.3917756E-2,0E0,0E0,0E0,0E0,0E0,0E0,0E0,0E0],"parents":[2147483647,0,0,1,1,2,2,3,3,4,4,5,5,6,6],"right_children":[2,4,6,8,10,12,14,-1,-1,-1,-1,-1,-1,-1,-1],"split_conditions":[7E0,1E0,1E0,2E0,1E0,9E0,8E0,-7.613227E-3,-2.968529E-3,-3.3165675E-3,-6.423677E-5,-2.446003E-3,2.0881877E-3,1.7979399E-3,5.47022E-3],"split_indices":[0,0,1,1,1,0,0,0,0,0,0,0,0,0,0],"split_type":[0,0,0,0,0,0,0,0,0,0,0,0,0,0,0],"sum_hessian":[1E3,6.37E2,3.63E2,7.8E1,5.59E2,1.1E2,2.53E2,5.7E1,2.1E1,1.89E2,3.7E2,4.9E1,6.1E1,6.5E1,1.88E2],"tree_param":{"num_deleted":"0","num_feature":"2","num_nodes":"15","size_leaf_vector":"1"}},{"base_weights":[-1.741094E-5,-1.9561565E-2,2.444576E-2,-3.0547287E-2,6.498468E-3,1.2235551E-2,4.5908265E-2,-4.239476E-3,-8.919025E-4,-2.6851676E-3,1.1513673E-3,4.369219E-4,4.105013E-3,1.420581E-3,6.7225494E-3],"categories":[],"categories_nodes":[],"categories_segments":[],"categories_sizes":[],"default_left":[0,0,0,0,0,0,0,0,0,0,0,0,0,0,0],"id":44,"left_children":[1,3,5,7,9,11,13,-1,-1,-1,-1,-1,-1,-1,-1],"loss_changes":[4.7906822E-1,1.596611E-1,1.1605573E-1,1.00068E-1,2.8073955E-2,6.442019E-2,1.07850164E-1,0E0,0E0,0E0,0E0,0E0,0E0,0E0,0E0],"parents":[2147483647,0,0,1,1,2,2,3,3,4,4,5,5,6,6],"right_children":[2,4,6,8,10,12,14,-1,-1,-1,-1,-1,-1,-1,-1],"split_conditions":[6E0,2E0,2E0,4E0,1E0,1E1,8E0,-4.239476E-3,-8.919025E-4,-2.6851676E-3,1.1513673E-3,4.369219E-4,4.105013E-3,1.420581E-3,6.7225494E-3],"split_indices":[0,1,1,0,0,0,0,0,0,0,0,0,0,0,0],"split_type":[0,0,0,0,0,0,0,0,0,0,0,0,0,0,0],"sum_hessian":[1E3,5.56E2,4.44E2,3.91E2,1.65E2,2.84E2,1.6E2,2.52E2,1.39E2,2.1E1,1.44E2,2.24E2,6E1,6.5E1,9.5E1],"tree_param":{"num_deleted":"0","num_feature":"2","num_nodes":"15","size_leaf_vector":"1"}},{"base_weights":[-9.612864E-6,-1.761736E-2,2.2029769E-2,-3.8897898E-2,-6.137133E-3,-3.5317562E-4,3.1675003E-2,-5.9387474E-3,-1.4333536E-3,-3.8849104E-3,-9.086753E-5,-1.4521912E-3,1.6563593E-3,1.078257E-3,4.5104073E-3],"categories":[],"categories_nodes":[],"categories_segments":[],"categories_sizes":[],"default_left":[0,0,0,0,0,0,0,0,0,0,0,0,0,0,0],"id":45,"left_children":[1,3,5,7,9,11,13,-1,-1,-1,-1,-1,-1,-1,-1],"loss_changes":[3.8884002E-1,1.3583939E-1,9.608166E-2,9.729484E-2,6.204974E-2,3.2598577E-2,8.676967E-2,0E0,0E0,0E0,0E0,0E0,0E0,0E0,0E0],"parents":[2147483647,0,0,1,1,2,2,3,3,4,4,5,5,6,6],"right_children":[2,4,6,8,10,12,14,-1,-1,-1,-1,-1,-1,-1,-1],"split_conditions":[6E0,1E0,1E0,3E0,1E0,9E0,8E0,-5.9387474E-3,-1.4333536E-3,-3.8849104E-3,-9.086753E-5,-1.4521912E-3,1.6563593E-3,1.078257E-3,4.5104073E-3],"split_indices":[0,1,1,0,0,0,0,0,0,0,0,0,0,0,0],"split_type":[0,0,0,0,0,0,0,0,0,0,0,0,0,0,0],"sum_hessian":[1E3,5.56E2,4.44E2,1.94E2,3.62E2,1.34E2,3.1E2,1.05E2,8.9E1,4.9E1,3.13E2,7.3E1,6.1E1,1.22E2,1.88E2],"tree_param":{"num_deleted":"0","num_feature":"2","num_nodes":"15","size_leaf_vector":"1"}},{"base_weights":[-1.4211726E-5,-2.4282152E-2,1.3070367E-2,-3.510731E-2,3.6274171E-3,7.6790317E-3,4.659104E-2,-5.9639066E-3,-2.7668795E-3,-1.0264203E-3,1.6903142E-3,-1.190608E-4,2.386431E-3,3.4026203E-3,7.058651E-3],"categories":[],"categories_nodes":[],"categories_segments":[],"categories_sizes":[],"default_left":[0,0,0,0,0,0,0,0,0,0,0,0,0,0,0],"id":46,"left_children":[1,3,5,7,9,11,13,-1,-1,-1,-1,-1,-1,-1,-1],"loss_changes":[3.1817067E-1,1.0617341E-1,1.1729171E-1,4.451728E-2,1.8431205E-2,8.070777E-2,2.4733156E-2,0E0,0E0,0E0,0E0,0E0,0E0,0E0,0E0],"parents":[2147483647,0,0,1,1,2,2,3,3,4,4,5,5,6,6],"right_children":[2,4,6,8,10,12,14,-1,-1,-1,-1,-1,-1,-1,-1],"split_conditions":[4E0,2E0,1E1,1E0,2E0,2E0,2E0,-5.9639066E-3,-2.7668795E-3,-1.0264203E-3,1.6903142E-3,-1.190608E-4,2.386431E-3,3.4026203E-3,7.058651E-3],"split_indices":[0,1,0,0,0,1,1,0,0,0,0,0,0,0,0],"split_type":[0,0,0,0,0,0,0,0,0,0,0,0,0,0,0],"sum_hessian":[1E3,3.5E2,6.5E2,2.52E2,9.8E1,5.61E2,8.9E1,5.7E1,1.95E2,4.8E1,5E1,3.63E2,1.98E2,6E1,2.9E1],"tree_param":{"num_deleted":"0","num_feature":"2","num_nodes":"15","size_leaf_vector":"1"}},{"base_weights":[-8.141668E-6,-1.4617692E-2,1.8278437E-2,-3.2700393E-2,-4.863574E-3,-1.0069547E-3,2.6591137E-2,-4.9889307E-3,-1.209234E-3,-2.0616855E-3,2.339376E-4,-1.2971965E-3,1.3290106E-3,8.507254E-4,3.8219318E-3],"categories":[],"categories_nodes":[],"categories_segments":[],"categories_sizes":[],"default_left":[0,0,0,0,0,0,0,0,0,0,0,0,0,0,0],"id":47,"left_children":[1,3,5,7,9,11,13,-1,-1,-1,-1,-1,-1,-1,-1],"loss_changes":[2.6769304E-1,9.8085076E-2,7.136637E-2,6.8471566E-2,4.1237876E-2,2.3266103E-2,6.5072745E-2,0E0,0E0,0E0,0E0,0E0,0E0,0E0,0E0],"parents":[2147483647,0,0,1,1,2,2,3,3,4,4,5,5,6,6],"right_children":[2,4,6,8,10,12,14,-1,-1,-1,-1,-1,-1,-1,-1],"split_conditions":[6E0,1E0,1E0,3E0,2E0,9E0,8E0,-4.9889307E-3,-1.209234E-3,-2.0616855E-3,2.339376E-4,-1.2971965E-3,1.3290106E-3,8.507254E-4,3.8219318E-3],"split_indices":[0,1,1,0,0,0,0,0,0,0,0,0,0,0,0],"split_type":[0,0,0,0,0,0,0,0,0,0,0,0,0,0,0],"sum_hessian":[1E3,5.56E2,4.44E2,1.94E2,3.62E2,1.34E2,3.1E2,1.05E2,8.9E1,1.13E2,2.49E2,7.3E1,6.1E1,1.22E2,1.88E2],"tree_param":{"num_deleted":"0","num_feature":"2","num_nodes":"15","size_leaf_vector":"1"}},{"base_weights":[-1.06141115E-5,-1.3170305E-2,1.6461203E-2,-2.1113086E-2,5.665483E-3,7.365777E-3,3.2459557E-2,-5.028823E-3,-1.5998845E-3,6.0636714E-5,2.3917668E-3,1.6881859E-4,2.8186962E-3,8.556843E-4,4.8554554E-3],"categories":[],"categories_nodes":[],"categories_segments":[],"categories_sizes":[],"default_left":[0,0,0,0,0,0,0,0,0,0,0,0,0,0,0],"id":48,"left_children":[1,3,5,7,9,11,13,-1,-1,-1,-1,-1,-1,-1,-1],"loss_changes":[2.1719755E-1,8.345159E-2,6.451366E-2,5.768527E-2,1.5313923E-2,3.3643454E-2,6.1523497E-2,0E0,0E0,0E0,0E0,0E0,0E0,0E0,0E0],"parents":[2147483647,0,0,1,1,2,2,3,3,4,4,5,5,6,6],"right_children":[2,4,6,8,10,12,14,-1,-1,-1,-1,-1,-1,-1,-1],"split_conditions":[6E0,2E0,2E0,1E0,5E0,1E1,8E0,-5.028823E-3,-1.5998845E-3,6.0636714E-5,2.3917668E-3,1.6881859E-4,2.8186962E-3,8.556843E-4,4.8554554E-3],"split_indices":[0,1,1,0,0,0,0,0,0,0,0,0,0,0,0],"split_type":[0,0,0,0,0,0,0,0,0,0,0,0,0,0,0],"sum_hessian":[1E3,5.56E2,4.44E2,3.91E2,1.65E2,2.84E2,1.6E2,5.7E1,3.34E2,1.3E2,3.5E1,2.24E2,6E1,6.5E1,9.5E1],"tree_param":{"num_deleted":"0","num_feature":"2","num_nodes":"15","size_leaf_vector":"1"}},{"base_weights":[-5.066875E-6,-1.1860791E-2,1.4834581E-2,-2.7360532E-2,-3.5018087E-3,-1.6820783E-3,2.1956492E-2,-4.242454E-3,-9.314472E-4,-2.6459906E-3,1.6509102E-5,-1.1858938E-3,1.0491626E-3,7.1329507E-4,3.1487388E-3],"categories":[],"categories_nodes":[],"categories_segments":[],"categories_sizes":[],"default_left":[0,0,0,0,0,0,0,0,0,0,0,0,0,0,0],"id":49,"left_children":[1,3,5,7,9,11,13,-1,-1,-1,-1,-1,-1,-1,-1],"loss_changes":[1.7628664E-1,7.207026E-2,5.238235E-2,5.2614808E-2,3.0563535E-2,1.6849577E-2,4.3713987E-2,0E0,0E0,0E0,0E0,0E0,0E0,0E0,0E0],"parents":[2147483647,0,0,1,1,2,2,3,3,4,4,5,5,6,6],"right_children":[2,4,6,8,10,12,14,-1,-1,-1,-1,-1,-1,-1,-1],"split_conditions":[6E0,1E0,1E0,3E0,1E0,9E0,8E0,-4.242454E-3,-9.314472E-4,-2.6459906E-3,1.6509102E-5,-1.1858938E-3,1.0491626E-3,7.1329507E-4,3.1487388E-3],"split_indices":[0,1,1,0,0,0,0,0,0,0,0,0,0,0,0],"split_type":[0,0,0,0,0,0,0,0,0,0,0,0,0,0,0],"sum_hessian":[1E3,5.56E2,4.44E2,1.94E2,3.62E2,1.34E2,3.1E2,1.05E2,8.9E1,4.9E1,3.13E2,7.3E1,6.1E1,1.22E2,1.88E2],"tree_param":{"num_deleted":"0","num_feature":"2","num_nodes":"15","size_leaf_vector":"1"}},{"base_weights":[-8.576657E-6,-1.6327402E-2,8.790066E-3,-2.4468008E-2,4.641296E-3,4.8504113E-3,3.3293348E-2,-4.194751E-3,-1.9170666E-3,1.4370637E-3,-1.8215211E-3,-1.4019282E-4,1.6262478E-3,2.338461E-3,5.2331337E-3],"categories":[],"categories_nodes":[],"categories_segments":[],"categories_sizes":[],"default_left":[0,0,0,0,0,0,0,0,0,0,0,0,0,0,0],"id":50,"left_children":[1,3,5,7,9,11,13,-1,-1,-1,-1,-1,-1,-1,-1],"loss_changes":[1.4387059E-1,6.0028523E-2,6.268245E-2,2.2622362E-2,2.2277262E-2,4.012268E-2,1.5754066E-2,0E0,0E0,0E0,0E0,0E0,0E0,0E0,0E0],"parents":[2147483647,0,0,1,1,2,2,3,3,4,4,5,5,6,6],"right_children":[2,4,6,8,10,12,14,-1,-1,-1,-1,-1,-1,-1,-1],"split_conditions":[4E0,2E0,1E1,1E0,3E0,2E0,2E0,-4.194751E-3,-1.9170666E-3,1.4370637E-3,-1.8215211E-3,-1.4019282E-4,1.6262478E-3,2.338461E-3,5.2331337E-3],"split_indices":[0,1,0,0,0,1,1,0,0,0,0,0,0,0,0],"split_type":[0,0,0,0,0,0,0,0,0,0,0,0,0,0,0],"sum_hessian":[1E3,3.5E2,6.5E2,2.52E2,9.8E1,5.61E2,8.9E1,5.7E1,1.95E2,6.9E1,2.9E1,3.63E2,1.98E2,6E1,2.9E1],"tree_param":{"num_deleted":"0","num_feature":"2","num_nodes":"15","size_leaf_vector":"1"}},{"base_weights":[-5.1239635E-6,-9.832072E-3,1.2295134E-2,-2.2997295E-2,-2.732759E-3,5.1667383E-3,2.4837358E-2,-3.5699971E-3,-7.780839E-4,-1.4668852E-3,2.7210303E-4,8.282831E-5,2.1084535E-3,5.409971E-4,3.7934964E-3],"categories":[],"categories_nodes":[],"categories_segments":[],"categories_sizes":[],"default_left":[0,0,0,0,0,0,0,0,0,0,0,0,0,0,0],"id":51,"left_children":[1,3,5,7,9,11,13,-1,-1,-1,-1,-1,-1,-1,-1],"loss_changes":[1.2111576E-1,5.1996622E-2,3.965731E-2,3.741371E-2,2.3670103E-2,1.9664248E-2,4.0761583E-2,0E0,0E0,0E0,0E0,0E0,0E0,0E0,0E0],"parents":[2147483647,0,0,1,1,2,2,3,3,4,4,5,5,6,6],"right_children":[2,4,6,8,10,12,14,-1,-1,-1,-1,-1,-1,-1,-1],"split_conditions":[6E0,1E0,2E0,3E0,2E0,1E1,8E0,-3.5699971E-3,-7.780839E-4,-1.4668852E-3,2.7210303E-4,8.282831E-5,2.1084535E-3,5.409971E-4,3.7934964E-3],"split_indices":[0,1,1,0,0,0,0,0,0,0,0,0,0,0,0],"split_type":[0,0,0,0,0,0,0,0,0,0,0,0,0,0,0],"sum_hessian":[1E3,5.56E2,4.44E2,1.94E2,3.62E2,2.84E2,1.6E2,1.05E2,8.9E1,1.13E2,2.49E2,2.24E2,6E1,6.5E1,9.5E1],"tree_param":{"num_deleted":"0","num_feature":"2","num_nodes":"15","size_leaf_vector":"1"}},{"base_weights":[-3.6814763E-6,-7.4870912E-3,1.3112854E-2,-3.0155051E-2,-4.27592E-3,-4.333423E-3,2.068539E-2,-4.4935294E-3,-2.0683804E-3,-8.814852E-4,5.8438646E-4,-1.8627186E-3,7.263699E-4,1.6062411E-3,3.5692484E-3],"categories":[],"categories_nodes":[],"categories_segments":[],"categories_sizes":[],"default_left":[0,0,0,0,0,0,0,0,0,0,0,0,0,0,0],"id":52,"left_children":[1,3,5,7,9,11,13,-1,-1,-1,-1,-1,-1,-1,-1],"loss_changes":[9.835273E-2,4.6311524E-2,4.8178606E-2,1.0129571E-2,2.5774E-2,1.8535385E-2,1.7048568E-2,0E0,0E0,0E0,0E0,0E0,0E0,0E0,0E0],"parents":[2147483647,0,0,1,1,2,2,3,3,4,4,5,5,6,6],"right_children":[2,4,6,8,10,12,14,-1,-1,-1,-1,-1,-1,-1,-1],"split_conditions":[7E0,1E0,1E0,1E0,2E0,9E0,1E1,-4.4935294E-3,-2.0683804E-3,-8.814852E-4,5.8438646E-4,-1.8627186E-3,7.263699E-4,1.6062411E-3,3.5692484E-3],"split_indices":[0,0,1,1,1,0,0,0,0,0,0,0,0,0,0],"split_type":[0,0,0,0,0,0,0,0,0,0,0,0,0,0,0],"sum_hessian":[1E3,6.37E2,3.63E2,7.8E1,5.59E2,1.1E2,2.53E2,2.9E1,4.9E1,3.86E2,1.73E2,4.9E1,6.1E1,1.95E2,5.8E1],"tree_param":{"num_deleted":"0","num_feature":"2","num_nodes":"15","size_leaf_vector":"1"}},{"base_weights":[-6.1815144E-6,-8.0654025E-3,1.0081441E-2,-1.9305723E-2,-2.0049948E-3,-1.9877064E-3,1.5288044E-2,-3.030231E-3,-6.13968E-4,-1.2178122E-3,2.6419718E-4,1.4062753E-3,-1.1296256E-3,4.5205659E-4,2.2214563E-3],"categories":[],"categories_nodes":[],"categories_segments":[],"categories_sizes":[],"default_left":[0,0,0,0,0,0,0,0,0,0,0,0,0,0,0],"id":53,"left_children":[1,3,5,7,9,11,13,-1,-1,-1,-1,-1,-1,-1,-1],"loss_changes":[8.146099E-2,3.790465E-2,2.799385E-2,2.8046355E-2,1.7192703E-2,2.0328732E-2,2.3094311E-2,0E0,0E0,0E0,0E0,0E0,0E0,0E0,0E0],"parents":[2147483647,0,0,1,1,2,2,3,3,4,4,5,5,6,6],"right_children":[2,4,6,8,10,12,14,-1,-1,-1,-1,-1,-1,-1,-1],"split_conditions":[6E0,1E0,1E0,3E0,2E0,8E0,8E0,-3.030231E-3,-6.13968E-4,-1.2178122E-3,2.6419718E-4,1.4062753E-3,-1.1296256E-3,4.5205659E-4,2.2214563E-3],"split_indices":[0,1,1,0,0,0,0,0,0,0,0,0,0,0,0],"split_type":[0,0,0,0,0,0,0,0,0,0,0,0,0,0,0],"sum_hessian":[1E3,5.56E2,4.44E2,1.94E2,3.62E2,1.34E2,3.1E2,1.05E2,8.9E1,1.13E2,2.49E2,4.9E1,8.5E1,1.22E2,1.88E2],"tree_param":{"num_deleted":"0","num_feature":"2","num_nodes":"15","size_leaf_vector":"1"}},{"base_weights":[-7.224313E-6,-5.7069664E-3,1.1811894E-2,-1.7183905E-2,1.1547619E-3,4.2853076E-3,2.9799705E-2,-2.9983616E-3,-1.3308565E-3,-3.0095674E-4,1.0808286E-3,1.4853943E-3,-3.0783962E-5,4.5061335E-3,2.182783E-3],"categories":[],"categories_nodes":[],"categories_segments":[],"categories_sizes":[],"default_left":[0,0,0,0,0,0,0,0,0,0,0,0,0,0,0],"id":54,"left_children":[1,3,5,7,9,11,13,-1,-1,-1,-1,-1,-1,-1,-1],"loss_changes":[6.750071E-2,5.3255953E-2,4.40084E-2,1.2150578E-2,1.7077519E-2,1.1218075E-2,1.0696143E-2,0E0,0E0,0E0,0E0,0E0,0E0,0E0,0E0],"parents":[2147483647,0,0,1,1,2,2,3,3,4,4,5,5,6,6],"right_children":[2,4,6,8,10,12,14,-1,-1,-1,-1,-1,-1,-1,-1],"split_conditions":[2E0,4E0,8E0,1E0,9E0,3E0,9E0,-2.9983616E-3,-1.3308565E-3,-3.0095674E-4,1.0808286E-3,1.4853943E-3,-3.0783962E-5,4.5061335E-3,2.182783E-3],"split_indices":[1,0,0,0,0,0,0,0,0,0,0,0,0,0,0],"split_type":[0,0,0,0,0,0,0,0,0,0,0,0,0,0,0],"sum_hessian":[1E3,6.75E2,3.25E2,2.52E2,4.23E2,2.3E2,9.5E1,5.7E1,1.95E2,2.96E2,1.27E2,6.9E1,1.61E2,3.1E1,6.4E1],"tree_param":{"num_deleted":"0","num_feature":"2","num_nodes":"15","size_leaf_vector":"1"}},{"base_weights":[-1.9528597E-6,-1.6463244E-2,3.5055403E-3,-2.7122803E-2,-1.0428022E-2,-1.5745735E-3,1.3525241E-2,-3.4763913E-3,-1.9582917E-3,-1.6408138E-3,-5.6675E-4,-5.001459E-4,9.7357406E-4,5.561578E-3,9.869533E-4],"categories":[],"categories_nodes":[],"categories_segments":[],"categories_sizes":[],"default_left":[0,0,0,0,0,0,0,0,0,0,0,0,0,0,0],"id":55,"left_children":[1,3,5,7,9,11,13,-1,-1,-1,-1,-1,-1,-1,-1],"loss_changes":[5.785332E-2,1.1039738E-2,4.2065702E-2,2.9488467E-3,3.1524133E-3,2.1327466E-2,4.2227156E-2,0E0,0E0,0E0,0E0,0E0,0E0,0E0,0E0],"parents":[2147483647,0,0,1,1,2,2,3,3,4,4,5,5,6,6],"right_children":[2,4,6,8,10,12,14,-1,-1,-1,-1,-1,-1,-1,-1],"split_conditions":[2E0,1E0,2E0,1E0,1E0,9E0,3E0,-3.4763913E-3,-1.9582917E-3,-1.6408138E-3,-5.6675E-4,-5.001459E-4,9.7357406E-4,5.561578E-3,9.869533E-4],"split_indices":[0,1,1,0,0,0,0,0,0,0,0,0,0,0,0],"split_type":[0,0,0,0,0,0,0,0,0,0,0,0,0,0,0],"sum_hessian":[1E3,1.75E2,8.25E2,6.2E1,1.13E2,5.48E2,2.77E2,2.9E1,3.3E1,4.9E1,6.4E1,4.21E2,1.27E2,2.1E1,2.56E2],"tree_param":{"num_deleted":"0","num_feature":"2","num_nodes":"15","size_leaf_vector":"1"}},{"base_weights":[-2.3966866E-6,-6.2342198E-3,7.7978903E-3,-1.4978167E-2,-1.5198841E-3,4.328173E-3,2.1435907E-2,-2.3762516E-3,-4.4657296E-4,-4.3960856E-4,1.0581876E-3,-5.9503387E-4,8.536225E-4,1.4441569E-3,3.4943202E-3],"categories":[],"categories_nodes":[],"categories_segments":[],"categories_sizes":[],"default_left":[0,0,0,0,0,0,0,0,0,0,0,0,0,0,0],"id":56,"left_children":[1,3,5,7,9,11,13,-1,-1,-1,-1,-1,-1,-1,-1],"loss_changes":[4.8707232E-2,2.2937836E-2,2.096465E-2,1.7901141E-2,1.26814945E-2,1.5448686E-2,7.998075E-3,0E0,0E0,0E0,0E0,0E0,0E0,0E0,0E0],"parents":[2147483647,0,0,1,1,2,2,3,3,4,4,5,5,6,6],"right_children":[2,4,6,8,10,12,14,-1,-1,-1,-1,-1,-1,-1,-1],"split_conditions":[6E0,1E0,1E1,3E0,5E0,1E0,2E0,-2.3762516E-3,-4.4657296E-4,-4.3960856E-4,1.0581876E-3,-5.9503387E-4,8.536225E-4,1.4441569E-3,3.4943202E-3],"split_indices":[0,1,0,0,0,1,1,0,0,0,0,0,0,0,0],"split_type":[0,0,0,0,0,0,0,0,0,0,0,0,0,0,0],"sum_hessian":[1E3,5.56E2,4.44E2,1.94E2,3.62E2,3.55E2,8.9E1,1.05E2,8.9E1,2.93E2,6.9E1,1.03E2,2.52E2,6E1,2.9E1],"tree_param":{"num_deleted":"0","num_feature":"2","num_nodes":"15","size_leaf_vector":"1"}},{"base_weights":[8.6144826E-7,-1.3741E-2,2.9289082E-3,-2.215824E-2,-8.968831E-3,-1.3791074E-3,1.1425928E-2,-2.910636E-3,-1.5375837E-3,-1.4369332E-3,-4.6766183E-4,-4.216247E-4,7.985361E-4,5.072665E-3,8.017206E-4],"categories":[],"categories_nodes":[],"categories_segments":[],"categories_sizes":[],"default_left":[0,0,0,0,0,0,0,0,0,0,0,0,0,0,0],"id":57,"left_children":[1,3,5,7,9,11,13,-1,-1,-1,-1,-1,-1,-1,-1],"loss_changes":[4.0317297E-2,6.8709217E-3,3.025173E-2,2.521336E-3,2.5753323E-3,1.4619665E-2,3.683565E-2,0E0,0E0,0E0,0E0,0E0,0E0,0E0,0E0],"parents":[2147483647,0,0,1,1,2,2,3,3,4,4,5,5,6,6],"right_children":[2,4,6,8,10,12,14,-1,-1,-1,-1,-1,-1,-1,-1],"split_conditions":[2E0,1E0,2E0,1E0,1E0,9E0,3E0,-2.910636E-3,-1.5375837E-3,-1.4369332E-3,-4.6766183E-4,-4.216247E-4,7.985361E-4,5.072665E-3,8.017206E-4],"split_indices":[0,1,1,0,0,0,0,0,0,0,0,0,0,0,0],"split_type":[0,0,0,0,0,0,0,0,0,0,0,0,0,0,0],"sum_hessian":[1E3,1.75E2,8.25E2,6.2E1,1.13E2,5.48E2,2.77E2,2.9E1,3.3E1,4.9E1,6.4E1,4.21E2,1.27E2,2.1E1,2.56E2],"tree_param":{"num_deleted":"0","num_feature":"2","num_nodes":"15","size_leaf_vector":"1"}},{"base_weights":[6.377448E-7,-5.32159E-3,6.662391E-3,-1.2516396E-2,-1.4419516E-3,3.6367807E-3,1.8556336E-2,-1.9962678E-3,-3.6072612E-4,5.0568226E-4,-7.0049724E-4,-5.2954856E-4,7.294168E-4,1.2235298E-3,3.0790567E-3],"categories":[],"categories_nodes":[],"categories_segments":[],"categories_sizes":[],"default_left":[0,0,0,0,0,0,0,0,0,0,0,0,0,0,0],"id":58,"left_children":[1,3,5,7,9,11,13,-1,-1,-1,-1,-1,-1,-1,-1],"loss_changes":[3.5526283E-2,1.5529629E-2,1.594648E-2,1.2864271E-2,1.3158895E-2,1.1668702E-2,6.58324E-3,0E0,0E0,0E0,0E0,0E0,0E0,0E0,0E0],"parents":[2147483647,0,0,1,1,2,2,3,3,4,4,5,5,6,6],"right_children":[2,4,6,8,10,12,14,-1,-1,-1,-1,-1,-1,-1,-1],"split_conditions":[6E0,1E0,1E1,3E0,3E0,1E0,2E0,-1.9962678E-3,-3.6072612E-4,5.0568226E-4,-7.0049724E-4,-5.2954856E-4,7.294168E-4,1.2235298E-3,3.0790567E-3],"split_indices":[0,1,0,0,0,1,1,0,0,0,0,0,0,0,0],"split_type":[0,0,0,0,0,0,0,0,0,0,0,0,0,0,0],"sum_hessian":[1E3,5.56E2,4.44E2,1.94E2,3.62E2,3.55E2,8.9E1,1.05E2,8.9E1,1.67E2,1.95E2,1.03E2,2.52E2,6E1,2.9E1],"tree_param":{"num_deleted":"0","num_feature":"2","num_nodes":"15","size_leaf_vector":"1"}},{"base_weights":[2.5002298E-6,-1.2024442E-2,2.5651385E-3,-1.7768685E-2,-7.2711804E-3,-5.074208E-3,6.202889E-3,-2.4363017E-3,-1.3456711E-3,-1.0530148E-3,1.252315E-4,-1.7485969E-3,-2.6135313E-4,3.1715387E-3,3.4175333E-4],"categories":[],"categories_nodes":[],"categories_segments":[],"categories_sizes":[],"default_left":[0,0,0,0,0,0,0,0,0,0,0,0,0,0,0],"id":59,"left_children":[1,3,5,7,9,11,13,-1,-1,-1,-1,-1,-1,-1,-1],"loss_changes":[3.0882368E-2,4.6762843E-3,2.2986047E-2,1.9184873E-3,2.7354104E-3,8.108836E-3,3.9685987E-2,0E0,0E0,0E0,0E0,0E0,0E0,0E0,0E0],"parents":[2147483647,0,0,1,1,2,2,3,3,4,4,5,5,6,6],"right_children":[2,4,6,8,10,12,14,-1,-1,-1,-1,-1,-1,-1,-1],"split_conditions":[2E0,1E0,1E0,1E0,2E0,3E0,3E0,-2.4363017E-3,-1.3456711E-3,-1.0530148E-3,1.252315E-4,-1.7485969E-3,-2.6135313E-4,3.1715387E-3,3.4175333E-4],"split_indices":[0,0,1,1,1,0,0,0,0,0,0,0,0,0,0],"split_type":[0,0,0,0,0,0,0,0,0,0,0,0,0,0,0],"sum_hessian":[1E3,1.75E2,8.25E2,7.8E1,9.7E1,2.66E2,5.59E2,2.9E1,4.9E1,7E1,2.7E1,4.3E1,2.23E2,5.4E1,5.05E2],"tree_param":{"num_deleted":"0","num_feature":"2","num_nodes":"15","size_leaf_vector":"1"}},{"base_weights":[-9.917925E-7,-7.1787494E-3,3.869045E-3,-3.7747107E-3,-1.8851204E-2,1.8204811E-3,1.66182E-2,-1.6281545E-3,4.1389745E-4,-2.8209353E-4,-2.5794941E-3,-9.791648E-5,6.932294E-4,1.1002048E-3,2.7483765E-3],"categories":[],"categories_nodes":[],"categories_segments":[],"categories_sizes":[],"default_left":[0,0,0,0,0,0,0,0,0,0,0,0,0,0,0],"id":60,"left_children":[1,3,5,7,9,11,13,-1,-1,-1,-1,-1,-1,-1,-1],"loss_changes":[2.7833736E-2,1.3875296E-2,1.6972214E-2,2.7087605E-2,8.72072E-3,8.049718E-3,5.189661E-3,0E0,0E0,0E0,0E0,0E0,0E0,0E0,0E0],"parents":[2147483647,0,0,1,1,2,2,3,3,4,4,5,5,6,6],"right_children":[2,4,6,8,10,12,14,-1,-1,-1,-1,-1,-1,-1,-1],"split_conditions":[4E0,3E0,1E1,1E0,1E0,2E0,2E0,-1.6281545E-3,4.1389745E-4,-2.8209353E-4,-2.5794941E-3,-9.791648E-5,6.932294E-4,1.1002048E-3,2.7483765E-3],"split_indices":[0,0,0,1,1,1,1,0,0,0,0,0,0,0,0],"split_type":[0,0,0,0,0,0,0,0,0,0,0,0,0,0,0],"sum_hessian":[1E3,3.5E2,6.5E2,2.72E2,7.8E1,5.61E2,8.9E1,1.05E2,1.67E2,2.4E1,5.4E1,3.63E2,1.98E2,6E1,2.9E1],"tree_param":{"num_deleted":"0","num_feature":"2","num_nodes":"15","size_leaf_vector":"1"}},{"base_weights":[-5.613856E-7,-1.0540953E-2,2.2453337E-3,-1.5698727E-2,-6.275594E-3,-1.0506392E-3,8.746211E-3,-2.0434044E-3,-1.2543563E-3,-8.950916E-4,7.3238785E-5,-3.1917007E-4,6.016381E-4,4.197933E-3,5.8673206E-4],"categories":[],"categories_nodes":[],"categories_segments":[],"categories_sizes":[],"default_left":[0,0,0,0,0,0,0,0,0,0,0,0,0,0,0],"id":61,"left_children":[1,3,5,7,9,11,13,-1,-1,-1,-1,-1,-1,-1,-1],"loss_changes":[2.3719955E-2,3.7734378E-3,1.7707657E-2,9.240005E-4,1.8439193E-3,8.326081E-3,2.6351202E-2,0E0,0E0,0E0,0E0,0E0,0E0,0E0,0E0],"parents":[2147483647,0,0,1,1,2,2,3,3,4,4,5,5,6,6],"right_children":[2,4,6,8,10,12,14,-1,-1,-1,-1,-1,-1,-1,-1],"split_conditions":[2E0,1E0,2E0,1E0,2E0,9E0,3E0,-2.0434044E-3,-1.2543563E-3,-8.950916E-4,7.3238785E-5,-3.1917007E-4,6.016381E-4,4.197933E-3,5.8673206E-4],"split_indices":[0,0,1,1,1,0,0,0,0,0,0,0,0,0,0],"split_type":[0,0,0,0,0,0,0,0,0,0,0,0,0,0,0],"sum_hessian":[1E3,1.75E2,8.25E2,7.8E1,9.7E1,5.48E2,2.77E2,2.9E1,4.9E1,7E1,2.7E1,4.21E2,1.27E2,2.1E1,2.56E2],"tree_param":{"num_deleted":"0","num_feature":"2","num_nodes":"15","size_leaf_vector":"1"}},{"base_weights":[4.4827598E-7,-3.4778663E-3,6.0970536E-3,-1.4170595E-2,-1.9632173E-3,6.265845E-4,1.570707E-2,-1.8458754E-3,-1.1314289E-3,1.5811168E-4,-3.846228E-4,1.3203977E-3,-3.2414778E-4,4.6121623E-4,1.9819618E-3],"categories":[],"categories_nodes":[],"categories_segments":[],"categories_sizes":[],"default_left":[0,0,0,0,0,0,0,0,0,0,0,0,0,0,0],"id":62,"left_children":[1,3,5,7,9,11,13,-1,-1,-1,-1,-1,-1,-1,-1],"loss_changes":[2.1248322E-2,1.0305056E-2,1.9126112E-2,7.58769E-4,3.7435323E-3,1.1378282E-2,5.9315264E-3,0E0,0E0,0E0,0E0,0E0,0E0,0E0,0E0],"parents":[2147483647,0,0,1,1,2,2,3,3,4,4,5,5,6,6],"right_children":[2,4,6,8,10,12,14,-1,-1,-1,-1,-1,-1,-1,-1],"split_conditions":[7E0,1E0,2E0,1E0,3E0,8E0,8E0,-1.8458754E-3,-1.1314289E-3,1.5811168E-4,-3.846228E-4,1.3203977E-3,-3.2414778E-4,4.6121623E-4,1.9819618E-3],"split_indices":[0,0,1,1,0,0,0,0,0,0,0,0,0,0,0],"split_type":[0,0,0,0,0,0,0,0,0,0,0,0,0,0,0],"sum_hessian":[1E3,6.37E2,3.63E2,7.8E1,5.59E2,2.32E2,1.31E2,2.9E1,4.9E1,1.94E2,3.65E2,5.4E1,1.78E2,3.6E1,9.5E1],"tree_param":{"num_deleted":"0","num_feature":"2","num_nodes":"15","size_leaf_vector":"1"}},{"base_weights":[6.8353864E-7,-1.3795104E-3,1.3986641E-2,-6.928129E-3,1.3113319E-3,5.27136E-4,1.847651E-2,-3.4658174E-4,-2.2162239E-3,-3.9092507E-4,6.0738786E-4,1.3992882E-3,2.2344256E-3],"categories":[],"categories_nodes":[],"categories_segments":[],"categories_sizes":[],"default_left":[0,0,0,0,0,0,0,0,0,0,0,0,0],"id":63,"left_children":[1,3,5,7,9,-1,11,-1,-1,-1,-1,-1,-1],"loss_changes":[1.934193E-2,1.3625662E-2,3.4243464E-3,1.5641274E-2,1.5314655E-2,0E0,7.104911E-4,0E0,0E0,0E0,0E0,0E0,0E0],"parents":[2147483647,0,0,1,1,2,2,3,3,4,4,6,6],"right_children":[2,4,6,8,10,-1,12,-1,-1,-1,-1,-1,-1],"split_conditions":[1E1,1E0,1E0,8E0,5E0,5.27136E-4,2E0,-3.4658174E-4,-2.2162239E-3,-3.9092507E-4,6.0738786E-4,1.3992882E-3,2.2344256E-3],"split_indices":[0,1,1,0,0,0,1,0,0,0,0,0,0],"split_type":[0,0,0,0,0,0,0,0,0,0,0,0,0],"sum_hessian":[1E3,9.11E2,8.9E1,2.97E2,6.14E2,3.1E1,5.8E1,2.43E2,5.4E1,2.93E2,3.21E2,2.9E1,2.9E1],"tree_param":{"num_deleted":"0","num_feature":"2","num_nodes":"13","size_leaf_vector":"1"}},{"base_weights":[2.4136773E-6,-5.459603E-3,2.9473682E-3,-2.3120407E-3,-1.6267512E-2,1.3908512E-3,1.2634203E-2,-1.2966635E-3,4.424264E-4,-1.5419435E-4,-2.266518E-3,-2.648887E-4,3.1201023E-4,4.760921E-4,1.6690319E-3],"categories":[],"categories_nodes":[],"categories_segments":[],"categories_sizes":[],"default_left":[0,0,0,0,0,0,0,0,0,0,0,0,0,0,0],"id":64,"left_children":[1,3,5,7,9,11,13,-1,-1,-1,-1,-1,-1,-1,-1],"loss_changes":[1.6117567E-2,1.1902906E-2,9.798026E-3,1.9651286E-2,7.407585E-3,3.93424E-3,2.794684E-3,0E0,0E0,0E0,0E0,0E0,0E0,0E0,0E0],"parents":[2147483647,0,0,1,1,2,2,3,3,4,4,5,5,6,6],"right_children":[2,4,6,8,10,12,14,-1,-1,-1,-1,-1,-1,-1,-1],"split_conditions":[4E0,3E0,1E1,1E0,1E0,1E0,1E0,-1.2966635E-3,4.424264E-4,-1.5419435E-4,-2.266518E-3,-2.648887E-4,3.1201023E-4,4.760921E-4,1.6690319E-3],"split_indices":[0,0,0,1,1,1,1,0,0,0,0,0,0,0,0],"split_type":[0,0,0,0,0,0,0,0,0,0,0,0,0,0,0],"sum_hessian":[1E3,3.5E2,6.5E2,2.72E2,7.8E1,5.61E2,8.9E1,1.05E2,1.67E2,2.4E1,5.4E1,1.68E2,3.93E2,3.1E1,5.8E1],"tree_param":{"num_deleted":"0","num_feature":"2","num_nodes":"15","size_leaf_vector":"1"}},{"base_weights":[1.1451062E-6,-8.432426E-3,1.7981274E-3,-1.2219958E-2,-5.2931663E-3,-6.56562E-4,6.639229E-3,-1.3828072E-3,-7.4249314E-4,-7.487359E-4,4.597221E-5,-2.40678E-4,5.118817E-4,3.7772146E-3,3.948321E-4],"categories":[],"categories_nodes":[],"categories_segments":[],"categories_sizes":[],"default_left":[0,0,0,0,0,0,0,0,0,0,0,0,0,0,0],"id":65,"left_children":[1,3,5,7,9,11,13,-1,-1,-1,-1,-1,-1,-1,-1],"loss_changes":[1.5185296E-2,2.0279652E-3,9.820049E-3,5.0649326E-4,1.2404905E-3,5.561706E-3,2.3140542E-2,0E0,0E0,0E0,0E0,0E0,0E0,0E0,0E0],"parents":[2147483647,0,0,1,1,2,2,3,3,4,4,5,5,6,6],"right_children":[2,4,6,8,10,12,14,-1,-1,-1,-1,-1,-1,-1,-1],"split_conditions":[2E0,1E0,2E0,2E0,2E0,9E0,3E0,-1.3828072E-3,-7.4249314E-4,-7.487359E-4,4.597221E-5,-2.40678E-4,5.118817E-4,3.7772146E-3,3.948321E-4],"split_indices":[0,0,1,1,1,0,0,0,0,0,0,0,0,0,0],"split_type":[0,0,0,0,0,0,0,0,0,0,0,0,0,0,0],"sum_hessian":[1E3,1.75E2,8.25E2,7.8E1,9.7E1,5.48E2,2.77E2,5.7E1,2.1E1,7E1,2.7E1,4.21E2,1.27E2,2.1E1,2.56E2],"tree_param":{"num_deleted":"0","num_feature":"2","num_nodes":"15","size_leaf_vector":"1"}},{"base_weights":[2.6713885E-6,-7.605253E-3,1.623727E-3,-1.1024868E-2,-4.77102E-3,-3.1043875E-3,3.8751252E-3,-1.2469112E-3,-6.716186E-4,-6.7491515E-4,4.1535073E-5,7.9058686E-5,-1.1311143E-3,2.5280158E-3,1.5408329E-4],"categories":[],"categories_nodes":[],"categories_segments":[],"categories_sizes":[],"default_left":[0,0,0,0,0,0,0,0,0,0,0,0,0,0,0],"id":66,"left_children":[1,3,5,7,9,11,13,-1,-1,-1,-1,-1,-1,-1,-1],"loss_changes":[1.235755E-2,1.6531898E-3,8.804691E-3,4.0785596E-4,1.008217E-3,8.5436255E-3,2.7941784E-2,0E0,0E0,0E0,0E0,0E0,0E0,0E0,0E0],"parents":[2147483647,0,0,1,1,2,2,3,3,4,4,5,5,6,6],"right_children":[2,4,6,8,10,12,14,-1,-1,-1,-1,-1,-1,-1,-1],"split_conditions":[2E0,1E0,1E0,2E0,2E0,8E0,3E0,-1.2469112E-3,-6.716186E-4,-6.7491515E-4,4.1535073E-5,7.9058686E-5,-1.1311143E-3,2.5280158E-3,1.5408329E-4],"split_indices":[0,0,1,1,1,0,0,0,0,0,0,0,0,0,0],"split_type":[0,0,0,0,0,0,0,0,0,0,0,0,0,0,0],"sum_hessian":[1E3,1.75E2,8.25E2,7.8E1,9.7E1,2.66E2,5.59E2,5.7E1,2.1E1,7E1,2.7E1,1.81E2,8.5E1,5.4E1,5.05E2],"tree_param":{"num_deleted":"0","num_feature":"2","num_nodes":"15","size_leaf_vector":"1"}},{"base_weights":[1.5013162E-6,-2.664431E-3,4.6742028E-3,-9.946669E-3,-1.6323574E-3,4.7987213E-4,1.2042421E-2,-1.1243705E-3,-6.07509E-4,1.501577E-4,-3.2976165E-4,1.1820196E-3,-3.0072656E-4,2.735022E-4,1.5504207E-3],"categories":[],"categories_nodes":[],"categories_segments":[],"categories_sizes":[],"default_left":[0,0,0,0,0,0,0,0,0,0,0,0,0,0,0],"id":67,"left_children":[1,3,5,7,9,11,13,-1,-1,-1,-1,-1,-1,-1,-1],"loss_changes":[1.2482017E-2,4.7788476E-3,1.1243548E-2,3.283983E-4,2.9274873E-3,9.249594E-3,4.210664E-3,0E0,0E0,0E0,0E0,0E0,0E0,0E0,0E0],"parents":[2147483647,0,0,1,1,2,2,3,3,4,4,5,5,6,6],"right_children":[2,4,6,8,10,12,14,-1,-1,-1,-1,-1,-1,-1,-1],"split_conditions":[7E0,1E0,2E0,2E0,3E0,8E0,8E0,-1.1243705E-3,-6.07509E-4,1.501577E-4,-3.2976165E-4,1.1820196E-3,-3.0072656E-4,2.735022E-4,1.5504207E-3],"split_indices":[0,0,1,1,0,0,0,0,0,0,0,0,0,0,0],"split_type":[0,0,0,0,0,0,0,0,0,0,0,0,0,0,0],"sum_hessian":[1E3,6.37E2,3.63E2,7.8E1,5.59E2,2.32E2,1.31E2,5.7E1,2.1E1,1.94E2,3.65E2,5.4E1,1.78E2,3.6E1,9.5E1],"tree_param":{"num_deleted":"0","num_feature":"2","num_nodes":"15","size_leaf_vector":"1"}},{"base_weights":[2.1789208E-6,-1.0750277E-3,1.0917849E-2,-4.5255623E-3,1.0819342E-3,5.191445E-4,1.3838647E-2,-1.6310262E-4,-1.4470913E-3,-1.8768465E-4,2.34831E-4,1.0674095E-3,1.654191E-3],"categories":[],"categories_nodes":[],"categories_segments":[],"categories_sizes":[],"default_left":[0,0,0,0,0,0,0,0,0,0,0,0,0],"id":68,"left_children":[1,3,5,7,9,-1,11,-1,-1,-1,-1,-1,-1],"loss_changes":[1.1781928E-2,6.7926133E-3,1.4334675E-3,1.0080697E-2,2.110181E-3,0E0,3.2815244E-4,0E0,0E0,0E0,0E0,0E0,0E0],"parents":[2147483647,0,0,1,1,2,2,3,3,4,4,6,6],"right_children":[2,4,6,8,10,-1,12,-1,-1,-1,-1,-1,-1],"split_conditions":[1E1,4E0,1E0,3E0,1E0,5.191445E-4,2E0,-1.6310262E-4,-1.4470913E-3,-1.8768465E-4,2.34831E-4,1.0674095E-3,1.654191E-3],"split_indices":[0,0,1,0,1,0,1,0,0,0,0,0,0],"split_type":[0,0,0,0,0,0,0,0,0,0,0,0,0],"sum_hessian":[1E3,9.11E2,8.9E1,3.5E2,5.61E2,3.1E1,5.8E1,2.72E2,7.8E1,1.68E2,3.93E2,2.9E1,2.9E1],"tree_param":{"num_deleted":"0","num_feature":"2","num_nodes":"13","size_leaf_vector":"1"}},{"base_weights":[3.694377E-6,-9.691655E-4,9.8619675E-3,-2.814404E-3,2.8612586E-3,4.6883972E-4,1.250082E-2,-6.526205E-4,-2.267662E-5,8.831138E-6,1.2379013E-3,9.642045E-4,1.4942901E-3],"categories":[],"categories_nodes":[],"categories_segments":[],"categories_sizes":[],"default_left":[0,0,0,0,0,0,0,0,0,0,0,0,0],"id":69,"left_children":[1,3,5,7,9,-1,11,-1,-1,-1,-1,-1,-1],"loss_changes":[9.609867E-3,6.45411E-3,1.1700969E-3,5.915075E-3,7.837398E-3,0E0,2.6782043E-4,0E0,0E0,0E0,0E0,0E0,0E0],"parents":[2147483647,0,0,1,1,2,2,3,3,4,4,6,6],"right_children":[2,4,6,8,10,-1,12,-1,-1,-1,-1,-1,-1],"split_conditions":[1E1,2E0,1E0,4E0,8E0,4.6883972E-4,2E0,-6.526205E-4,-2.267662E-5,8.831138E-6,1.2379013E-3,9.642045E-4,1.4942901E-3],"split_indices":[0,1,1,0,0,0,1,0,0,0,0,0,0],"split_type":[0,0,0,0,0,0,0,0,0,0,0,0,0],"sum_hessian":[1E3,9.11E2,8.9E1,6.15E2,2.96E2,3.1E1,5.8E1,2.52E2,3.63E2,2.3E2,6.6E1,2.9E1,2.9E1],"tree_param":{"num_deleted":"0","num_feature":"2","num_nodes":"13","size_leaf_vector":"1"}},{"base_weights":[6.852634E-6,-8.7158807E-4,8.908309E-3,-5.874668E-3,3.243599E-4,4.234314E-4,1.1292369E-2,-7.241449E-4,-2.1844106E-4,7.8051904E-4,-8.216491E-5,8.7100186E-4,1.3498307E-3],"categories":[],"categories_nodes":[],"categories_segments":[],"categories_sizes":[],"default_left":[0,0,0,0,0,0,0,0,0,0,0,0,0],"id":70,"left_children":[1,3,5,7,9,-1,11,-1,-1,-1,-1,-1,-1],"loss_changes":[7.834986E-3,5.4587875E-3,9.550615E-4,8.7188557E-4,6.324787E-3,0E0,2.1852367E-4,0E0,0E0,0E0,0E0,0E0,0E0],"parents":[2147483647,0,0,1,1,2,2,3,3,4,4,6,6],"right_children":[2,4,6,8,10,-1,12,-1,-1,-1,-1,-1,-1],"split_conditions":[1E1,2E0,1E0,2E0,3E0,4.234314E-4,2E0,-7.241449E-4,-2.1844106E-4,7.8051904E-4,-8.216491E-5,8.7100186E-4,1.3498307E-3],"split_indices":[0,0,1,1,0,0,1,0,0,0,0,0,0],"split_type":[0,0,0,0,0,0,0,0,0,0,0,0,0],"sum_hessian":[1E3,9.11E2,8.9E1,1.75E2,7.36E2,3.1E1,5.8E1,1.27E2,4.8E1,9.7E1,6.39E2,2.9E1,2.9E1],"tree_param":{"num_deleted":"0","num_feature":"2","num_nodes":"13","size_leaf_vector":"1"}},{"base_weights":[8.538148E-6,-3.517021E-3,1.9094024E-3,-8.874945E-4,-1.2559346E-2,9.231525E-4,8.0467705E-3,-9.33907E-4,4.4503296E-4,1.1723661E-4,-1.8572683E-3,-1.5859265E-4,1.9970388E-4,3.824115E-4,1.0200639E-3],"categories":[],"categories_nodes":[],"categories_segments":[],"categories_sizes":[],"default_left":[0,0,0,0,0,0,0,0,0,0,0,0,0,0,0],"id":71,"left_children":[1,3,5,7,9,11,13,-1,-1,-1,-1,-1,-1,-1,-1],"loss_changes":[6.715026E-3,8.334592E-3,3.933061E-3,1.2357417E-2,6.5450715E-3,1.5174568E-3,7.795454E-4,0E0,0E0,0E0,0E0,0E0,0E0,0E0,0E0],"parents":[2147483647,0,0,1,1,2,2,3,3,4,4,5,5,6,6],"right_children":[2,4,6,8,10,12,14,-1,-1,-1,-1,-1,-1,-1,-1],"split_conditions":[4E0,3E0,1E1,1E0,1E0,1E0,1E0,-9.33907E-4,4.4503296E-4,1.1723661E-4,-1.8572683E-3,-1.5859265E-4,1.9970388E-4,3.824115E-4,1.0200639E-3],"split_indices":[0,0,0,1,1,1,1,0,0,0,0,0,0,0,0],"split_type":[0,0,0,0,0,0,0,0,0,0,0,0,0,0,0],"sum_hessian":[1E3,3.5E2,6.5E2,2.72E2,7.8E1,5.61E2,8.9E1,1.05E2,1.67E2,2.4E1,5.4E1,1.68E2,3.93E2,3.1E1,5.8E1],"tree_param":{"num_deleted":"0","num_feature":"2","num_nodes":"15","size_leaf_vector":"1"}},{"base_weights":[6.8851164E-6,-5.2492893E-3,1.1268365E-3,-7.6970127E-3,-3.2225605E-3,-2.2801063E-3,2.7492058E-3,-8.373294E-4,-5.5642263E-4,-4.5114287E-4,1.6073243E-5,1.5026376E-4,-1.0258936E-3,2.1995734E-3,6.517587E-5],"categories":[],"categories_nodes":[],"categories_segments":[],"categories_sizes":[],"default_left":[0,0,0,0,0,0,0,0,0,0,0,0,0,0,0],"id":72,"left_children":[1,3,5,7,9,11,13,-1,-1,-1,-1,-1,-1,-1,-1],"loss_changes":[5.8984617E-3,8.483096E-4,4.5718346E-3,6.735558E-5,4.2806577E-4,8.073974E-3,2.2592071E-2,0E0,0E0,0E0,0E0,0E0,0E0,0E0,0E0],"parents":[2147483647,0,0,1,1,2,2,3,3,4,4,5,5,6,6],"right_children":[2,4,6,8,10,12,14,-1,-1,-1,-1,-1,-1,-1,-1],"split_conditions":[2E0,1E0,1E0,2E0,2E0,8E0,3E0,-8.373294E-4,-5.5642263E-4,-4.5114287E-4,1.6073243E-5,1.5026376E-4,-1.0258936E-3,2.1995734E-3,6.517587E-5],"split_indices":[0,0,1,1,1,0,0,0,0,0,0,0,0,0,0],"split_type":[0,0,0,0,0,0,0,0,0,0,0,0,0,0,0],"sum_hessian":[1E3,1.75E2,8.25E2,7.8E1,9.7E1,2.66E2,5.59E2,5.7E1,2.1E1,7E1,2.7E1,1.81E2,8.5E1,5.4E1,5.05E2],"tree_param":{"num_deleted":"0","num_feature":"2","num_nodes":"15","size_leaf_vector":"1"}},{"base_weights":[5.711691E-6,-3.2907615E-3,1.7830641E-3,-9.2757226E-4,-1.1415571E-2,8.5332897E-4,7.5689317E-3,-8.1054366E-4,3.6068392E-4,9.1556074E-5,-1.6813076E-3,-1.2017947E-4,1.7326756E-4,5.686486E-4,1.1144272E-3],"categories":[],"categories_nodes":[],"categories_segments":[],"categories_sizes":[],"default_left":[0,0,0,0,0,0,0,0,0,0,0,0,0,0,0],"id":73,"left_children":[1,3,5,7,9,11,13,-1,-1,-1,-1,-1,-1,-1,-1],"loss_changes":[5.8707213E-3,6.728774E-3,3.495481E-3,8.914671E-3,5.273422E-3,1.0177095E-3,5.4236315E-4,0E0,0E0,0E0,0E0,0E0,0E0,0E0,0E0],"parents":[2147483647,0,0,1,1,2,2,3,3,4,4,5,5,6,6],"right_children":[2,4,6,8,10,12,14,-1,-1,-1,-1,-1,-1,-1,-1],"split_conditions":[4E0,3E0,1E1,1E0,1E0,1E0,2E0,-8.1054366E-4,3.6068392E-4,9.1556074E-5,-1.6813076E-3,-1.2017947E-4,1.7326756E-4,5.686486E-4,1.1144272E-3],"split_indices":[0,0,0,1,1,1,1,0,0,0,0,0,0,0,0],"split_type":[0,0,0,0,0,0,0,0,0,0,0,0,0,0,0],"sum_hessian":[1E3,3.5E2,6.5E2,2.72E2,7.8E1,5.61E2,8.9E1,1.05E2,1.67E2,2.4E1,5.4E1,1.68E2,3.93E2,6E1,2.9E1],"tree_param":{"num_deleted":"0","num_feature":"2","num_nodes":"15","size_leaf_vector":"1"}},{"base_weights":[4.853616E-6,-1.6661409E-3,2.9336712E-3,-6.871133E-3,-9.2888984E-4,-1.20549754E-4,8.302609E-3,-7.319261E-4,-5.377382E-4,1.61261E-4,-2.2804298E-4,1.0551765E-3,-3.399079E-4,1.4787233E-3,1.3909633E-4],"categories":[],"categories_nodes":[],"categories_segments":[],"categories_sizes":[],"default_left":[0,0,0,0,0,0,0,0,0,0,0,0,0,0,0],"id":74,"left_children":[1,3,5,7,9,11,13,-1,-1,-1,-1,-1,-1,-1,-1],"loss_changes":[4.90382E-3,2.4418696E-3,5.9698457E-3,1.3523502E-5,1.9272431E-3,8.188419E-3,5.895594E-3,0E0,0E0,0E0,0E0,0E0,0E0,0E0,0E0],"parents":[2147483647,0,0,1,1,2,2,3,3,4,4,5,5,6,6],"right_children":[2,4,6,8,10,12,14,-1,-1,-1,-1,-1,-1,-1,-1],"split_conditions":[7E0,1E0,2E0,2E0,3E0,8E0,9E0,-7.319261E-4,-5.377382E-4,1.61261E-4,-2.2804298E-4,1.0551765E-3,-3.399079E-4,1.4787233E-3,1.3909633E-4],"split_indices":[0,0,1,1,0,0,0,0,0,0,0,0,0,0,0],"split_type":[0,0,0,0,0,0,0,0,0,0,0,0,0,0,0],"sum_hessian":[1E3,6.37E2,3.63E2,7.8E1,5.59E2,2.32E2,1.31E2,5.7E1,2.1E1,1.94E2,3.65E2,5.4E1,1.78E2,6.7E1,6.4E1],"tree_param":{"num_deleted":"0","num_feature":"2","num_nodes":"15","size_leaf_vector":"1"}},{"base_weights":[5.323929E-6,-6.861701E-4,7.0124045E-3,-2.0391247E-3,2.1222683E-3,5.4613566E-3,9.932455E-4,-7.530928E-5,-7.4038707E-4,-1.8683837E-5,1.0051841E-3,4.225537E-4,6.597519E-4],"categories":[],"categories_nodes":[],"categories_segments":[],"categories_sizes":[],"default_left":[0,0,0,0,0,0,0,0,0,0,0,0,0],"id":75,"left_children":[1,3,5,7,9,11,-1,-1,-1,-1,-1,-1,-1],"loss_changes":[4.855011E-3,3.4696446E-3,3.5337778E-4,4.244352E-3,5.4400163E-3,5.777157E-5,0E0,0E0,0E0,0E0,0E0,0E0,0E0],"parents":[2147483647,0,0,1,1,2,2,3,3,4,4,5,5],"right_children":[2,4,6,8,10,12,-1,-1,-1,-1,-1,-1,-1],"split_conditions":[1E1,2E0,2E0,8E0,8E0,1E0,9.932455E-4,-7.530928E-5,-7.4038707E-4,-1.8683837E-5,1.0051841E-3,4.225537E-4,6.597519E-4],"split_indices":[0,1,1,0,0,1,0,0,0,0,0,0,0],"split_type":[0,0,0,0,0,0,0,0,0,0,0,0,0],"sum_hessian":[1E3,9.11E2,8.9E1,6.15E2,2.96E2,6E1,2.9E1,4.97E2,1.18E2,2.3E2,6.6E1,3.1E1,2.9E1],"tree_param":{"num_deleted":"0","num_feature":"2","num_nodes":"13","size_leaf_vector":"1"}},{"base_weights":[7.0482847E-6,-2.7956737E-3,1.5181825E-3,-6.9618336E-4,-1.0015486E-2,7.442346E-4,6.3341884E-3,-7.143345E-4,3.3758124E-4,1.1189223E-4,-1.4894481E-3,1.6000164E-4,-1.0083586E-4,4.932912E-4,8.9723116E-4],"categories":[],"categories_nodes":[],"categories_segments":[],"categories_sizes":[],"default_left":[0,0,0,0,0,0,0,0,0,0,0,0,0,0,0],"id":76,"left_children":[1,3,5,7,9,11,13,-1,-1,-1,-1,-1,-1,-1,-1],"loss_changes":[4.2437688E-3,5.313459E-3,2.4217824E-3,7.1911328E-3,4.3083197E-3,8.445219E-4,2.8844713E-4,0E0,0E0,0E0,0E0,0E0,0E0,0E0,0E0],"parents":[2147483647,0,0,1,1,2,2,3,3,4,4,5,5,6,6],"right_children":[2,4,6,8,10,12,14,-1,-1,-1,-1,-1,-1,-1,-1],"split_conditions":[4E0,3E0,1E1,1E0,1E0,8E0,2E0,-7.143345E-4,3.3758124E-4,1.1189223E-4,-1.4894481E-3,1.6000164E-4,-1.0083586E-4,4.932912E-4,8.9723116E-4],"split_indices":[0,0,0,1,1,0,1,0,0,0,0,0,0,0,0],"split_type":[0,0,0,0,0,0,0,0,0,0,0,0,0,0,0],"sum_hessian":[1E3,3.5E2,6.5E2,2.72E2,7.8E1,5.61E2,8.9E1,1.05E2,1.67E2,2.4E1,5.4E1,3.77E2,1.84E2,6E1,2.9E1],"tree_param":{"num_deleted":"0","num_feature":"2","num_nodes":"15","size_leaf_vector":"1"}},{"base_weights":[5.94588E-6,-4.374173E-3,9.392328E-4,-6.087959E-4,-2.9480178E-3,6.1063524E-3,2.433248E-4,-3.8065828E-4,-6.656562E-5,-1.0205185E-3,1.9044558E-3,-9.031421E-4,1.3684579E-4],"categories":[],"categories_nodes":[],"categories_segments":[],"categories_sizes":[],"default_left":[0,0,0,0,0,0,0,0,0,0,0,0,0],"id":77,"left_children":[1,3,5,-1,7,9,11,-1,-1,-1,-1,-1,-1],"loss_changes":[4.0961043E-3,4.122185E-4,2.968678E-3,0E0,1.8950249E-4,2.0876471E-2,7.6197092E-3,0E0,0E0,0E0,0E0,0E0,0E0],"parents":[2147483647,0,0,1,1,2,2,4,4,5,5,6,6],"right_children":[2,4,6,-1,8,10,12,-1,-1,-1,-1,-1,-1],"split_conditions":[2E0,1E0,3E0,-6.087959E-4,2E0,1E0,4E0,-3.8065828E-4,-6.656562E-5,-1.0205185E-3,1.9044558E-3,-9.031421E-4,1.3684579E-4],"split_indices":[0,0,0,0,1,1,0,0,0,0,0,0,0],"split_type":[0,0,0,0,0,0,0,0,0,0,0,0,0],"sum_hessian":[1E3,1.75E2,8.25E2,7.8E1,9.7E1,9.7E1,7.28E2,7E1,2.7E1,4.3E1,5.4E1,7.8E1,6.5E2],"tree_param":{"num_deleted":"0","num_feature":"2","num_nodes":"13","size_leaf_vector":"1"}},{"base_weights":[4.4057624E-6,-3.9427704E-3,8.4544526E-4,-5.4868654E-4,-2.6578088E-3,-3.7512928E-4,3.2528192E-3,-3.4313087E-4,-6.0151302E-5,-1.8171292E-4,4.381895E-4,2.5867366E-3,1.3042869E-4],"categories":[],"categories_nodes":[],"categories_segments":[],"categories_sizes":[],"default_left":[0,0,0,0,0,0,0,0,0,0,0,0,0],"id":78,"left_children":[1,3,5,-1,7,9,11,-1,-1,-1,-1,-1,-1],"loss_changes":[3.3263846E-3,3.3461908E-4,2.4283216E-3,0E0,1.5380932E-4,3.7738988E-3,1.221638E-2,0E0,0E0,0E0,0E0,0E0,0E0],"parents":[2147483647,0,0,1,1,2,2,4,4,5,5,6,6],"right_children":[2,4,6,-1,8,10,12,-1,-1,-1,-1,-1,-1],"split_conditions":[2E0,1E0,2E0,-5.4868654E-4,2E0,9E0,3E0,-3.4313087E-4,-6.0151302E-5,-1.8171292E-4,4.381895E-4,2.5867366E-3,1.3042869E-4],"split_indices":[0,0,1,0,1,0,0,0,0,0,0,0,0],"split_type":[0,0,0,0,0,0,0,0,0,0,0,0,0],"sum_hessian":[1E3,1.75E2,8.25E2,7.8E1,9.7E1,5.48E2,2.77E2,7E1,2.7E1,4.21E2,1.27E2,2.1E1,2.56E2],"tree_param":{"num_deleted":"0","num_feature":"2","num_nodes":"13","size_leaf_vector":"1"}},{"base_weights":[5.9311888E-6,-5.112301E-4,5.2464325E-3,-3.5539046E-3,2.1607241E-4,3.8818375E-3,7.846228E-4,-4.945129E-4,-2.3961427E-4,5.091327E-4,-5.307885E-5,2.7810634E-4,4.926602E-4],"categories":[],"categories_nodes":[],"categories_segments":[],"categories_sizes":[],"default_left":[0,0,0,0,0,0,0,0,0,0,0,0,0],"id":79,"left_children":[1,3,5,7,9,11,-1,-1,-1,-1,-1,-1,-1],"loss_changes":[2.7155767E-3,2.0189735E-3,2.8883223E-4,2.7163513E-4,2.68622E-3,5.6451885E-5,0E0,0E0,0E0,0E0,0E0,0E0,0E0],"parents":[2147483647,0,0,1,1,2,2,3,3,4,4,5,5],"right_children":[2,4,6,8,10,12,-1,-1,-1,-1,-1,-1,-1],"split_conditions":[1E1,2E0,2E0,1E0,3E0,1E0,7.846228E-4,-4.945129E-4,-2.3961427E-4,5.091327E-4,-5.307885E-5,2.7810634E-4,4.926602E-4],"split_indices":[0,0,1,0,0,1,0,0,0,0,0,0,0],"split_type":[0,0,0,0,0,0,0,0,0,0,0,0,0],"sum_hessian":[1E3,9.11E2,8.9E1,1.75E2,7.36E2,6E1,2.9E1,7.8E1,9.7E1,9.7E1,6.39E2,3.1E1,2.9E1],"tree_param":{"num_deleted":"0","num_feature":"2","num_nodes":"13","size_leaf_vector":"1"}},{"base_weights":[6.6005314E-6,-1.3991231E-3,1.7661095E-3,-2.5234853E-3,1.2644257E-3,1.0095219E-3,4.7392105E-3,-1.2575353E-4,-9.5074496E-4,-2.1989108E-4,1.3831999E-3,3.3231586E-4,-1.14699185E-4,3.506387E-4,7.087978E-4],"categories":[],"categories_nodes":[],"categories_segments":[],"categories_sizes":[],"default_left":[0,0,0,0,0,0,0,0,0,0,0,0,0,0,0],"id":80,"left_children":[1,3,5,7,9,11,13,-1,-1,-1,-1,-1,-1,-1,-1],"loss_changes":[2.4783278E-3,1.6712907E-3,9.962039E-4,3.4538528E-3,7.255688E-3,1.780034E-3,2.3575197E-4,0E0,0E0,0E0,0E0,0E0,0E0,0E0,0E0],"parents":[2147483647,0,0,1,1,2,2,3,3,4,4,5,5,6,6],"right_children":[2,4,6,8,10,12,14,-1,-1,-1,-1,-1,-1,-1,-1],"split_conditions":[6E0,2E0,1E1,5E0,5E0,8E0,2E0,-1.2575353E-4,-9.5074496E-4,-2.1989108E-4,1.3831999E-3,3.3231586E-4,-1.14699185E-4,3.506387E-4,7.087978E-4],"split_indices":[0,1,0,0,0,0,1,0,0,0,0,0,0,0,0],"split_type":[0,0,0,0,0,0,0,0,0,0,0,0,0,0,0],"sum_hessian":[1E3,5.56E2,4.44E2,3.91E2,1.65E2,3.55E2,8.9E1,3.32E2,5.9E1,1.3E2,3.5E1,1.71E2,1.84E2,6E1,2.9E1],"tree_param":{"num_deleted":"0","num_feature":"2","num_nodes":"15","size_leaf_vector":"1"}},{"base_weights":[7.3420542E-6,-1.979043E-3,1.078331E-3,-2.6888103E-4,-7.863792E-3,5.641314E-4,4.27724E-3,-5.2781374E-4,2.8933218E-4,2.224536E-4,-1.2306417E-3,1.3441547E-4,-1.0326953E-4,3.161657E-4,6.403017E-4],"categories":[],"categories_nodes":[],"categories_segments":[],"categories_sizes":[],"default_left":[0,0,0,0,0,0,0,0,0,0,0,0,0,0,0],"id":81,"left_children":[1,3,5,7,9,11,13,-1,-1,-1,-1,-1,-1,-1,-1],"loss_changes":[2.1316577E-3,3.5303049E-3,1.0684023E-3,4.3396684E-3,3.5680505E-3,7.0139393E-4,1.9318913E-4,0E0,0E0,0E0,0E0,0E0,0E0,0E0,0E0],"parents":[2147483647,0,0,1,1,2,2,3,3,4,4,5,5,6,6],"right_children":[2,4,6,8,10,12,14,-1,-1,-1,-1,-1,-1,-1,-1],"split_conditions":[4E0,3E0,1E1,1E0,1E0,8E0,2E0,-5.2781374E-4,2.8933218E-4,2.224536E-4,-1.2306417E-3,1.3441547E-4,-1.0326953E-4,3.161657E-4,6.403017E-4],"split_indices":[0,0,0,1,1,0,1,0,0,0,0,0,0,0,0],"split_type":[0,0,0,0,0,0,0,0,0,0,0,0,0,0,0],"sum_hessian":[1E3,3.5E2,6.5E2,2.72E2,7.8E1,5.61E2,8.9E1,1.05E2,1.67E2,2.4E1,5.4E1,3.77E2,1.84E2,6E1,2.9E1],"tree_param":{"num_deleted":"0","num_feature":"2","num_nodes":"15","size_leaf_vector":"1"}},{"base_weights":[6.3730918E-6,-3.0517837E-3,6.579823E-4,-4.2933805E-4,-2.0197642E-3,4.8042317E-3,9.9696415E-5,7.473371E-7,-3.0490922E-4,-8.8890846E-4,1.5671535E-3,-7.090121E-4,9.720402E-5],"categories":[],"categories_nodes":[],"categories_segments":[],"categories_sizes":[],"default_left":[0,0,0,0,0,0,0,0,0,0,0,0,0],"id":82,"left_children":[1,3,5,-1,7,9,11,-1,-1,-1,-1,-1,-1],"loss_changes":[1.996724E-3,2.1684624E-4,1.9115396E-3,0E0,2.0451864E-4,1.47226285E-2,4.579175E-3,0E0,0E0,0E0,0E0,0E0,0E0],"parents":[2147483647,0,0,1,1,2,2,4,4,5,5,6,6],"right_children":[2,4,6,-1,8,10,12,-1,-1,-1,-1,-1,-1],"split_conditions":[2E0,1E0,3E0,-4.2933805E-4,1E0,1E0,4E0,7.473371E-7,-3.0490922E-4,-8.8890846E-4,1.5671535E-3,-7.090121E-4,9.720402E-5],"split_indices":[0,0,0,0,1,1,0,0,0,0,0,0,0],"split_type":[0,0,0,0,0,0,0,0,0,0,0,0,0],"sum_hessian":[1E3,1.75E2,8.25E2,7.8E1,9.7E1,9.7E1,7.28E2,3.3E1,6.4E1,4.3E1,5.4E1,7.8E1,6.5E2],"tree_param":{"num_deleted":"0","num_feature":"2","num_nodes":"13","size_leaf_vector":"1"}},{"base_weights":[5.030573E-6,-9.127152E-4,1.9080709E-3,-1.9401638E-3,3.5012066E-3,-6.764983E-4,8.107315E-3,2.5021193E-6,-2.072328E-3,4.5350366E-4,2.4922713E-4,5.655103E-4,-3.4081994E-4,2.6843965E-3,-1.2416106E-4],"categories":[],"categories_nodes":[],"categories_segments":[],"categories_sizes":[],"default_left":[0,0,0,0,0,0,0,0,0,0,0,0,0,0,0],"id":83,"left_children":[1,3,5,7,9,11,13,-1,-1,-1,-1,-1,-1,-1,-1],"loss_changes":[1.7499952E-3,3.0725056E-3,5.228779E-3,2.0265369E-2,1.2221013E-4,4.0146597E-3,1.6849414E-2,0E0,0E0,0E0,0E0,0E0,0E0,0E0,0E0],"parents":[2147483647,0,0,1,1,2,2,3,3,4,4,5,5,6,6],"right_children":[2,4,6,8,10,12,14,-1,-1,-1,-1,-1,-1,-1,-1],"split_conditions":[2E0,9E0,8E0,8E0,1E0,3E0,9E0,2.5021193E-6,-2.072328E-3,4.5350366E-4,2.4922713E-4,5.655103E-4,-3.4081994E-4,2.6843965E-3,-1.2416106E-4],"split_indices":[1,0,0,0,1,0,0,0,0,0,0,0,0,0,0],"split_type":[0,0,0,0,0,0,0,0,0,0,0,0,0,0,0],"sum_hessian":[1E3,6.75E2,3.25E2,5.48E2,1.27E2,2.3E2,9.5E1,4.97E2,5.1E1,6.1E1,6.6E1,6.9E1,1.61E2,3.1E1,6.4E1],"tree_param":{"num_deleted":"0","num_feature":"2","num_nodes":"15","size_leaf_vector":"1"}},{"base_weights":[5.9672693E-6,-2.9068107E-3,6.266004E-4,-4.0216167E-3,-1.9784796E-3,-1.3171497E-3,1.5522337E-3,-3.360559E-4,-4.3378188E-4,4.2915346E-7,-2.985183E-4,2.4365823E-4,-9.245779E-4,1.3915471E-3,2.0533587E-5],"categories":[],"categories_nodes":[],"categories_segments":[],"categories_sizes":[],"default_left":[0,0,0,0,0,0,0,0,0,0,0,0,0,0,0],"id":84,"left_children":[1,3,5,7,9,11,13,-1,-1,-1,-1,-1,-1,-1,-1],"loss_changes":[1.8113959E-3,1.7418724E-4,1.4881836E-3,1.9356376E-6,1.9562704E-4,7.968968E-3,9.322274E-3,0E0,0E0,0E0,0E0,0E0,0E0,0E0,0E0],"parents":[2147483647,0,0,1,1,2,2,3,3,4,4,5,5,6,6],"right_children":[2,4,6,8,10,12,14,-1,-1,-1,-1,-1,-1,-1,-1],"split_conditions":[2E0,1E0,1E0,1E0,1E0,8E0,3E0,-3.360559E-4,-4.3378188E-4,4.2915346E-7,-2.985183E-4,2.4365823E-4,-9.245779E-4,1.3915471E-3,2.0533587E-5],"split_indices":[0,0,1,1,1,0,0,0,0,0,0,0,0,0,0],"split_type":[0,0,0,0,0,0,0,0,0,0,0,0,0,0,0],"sum_hessian":[1E3,1.75E2,8.25E2,7.8E1,9.7E1,2.66E2,5.59E2,2.9E1,4.9E1,3.3E1,6.4E1,1.81E2,8.5E1,5.4E1,5.05E2],"tree_param":{"num_deleted":"0","num_feature":"2","num_nodes":"15","size_leaf_vector":"1"}},{"base_weights":[5.0491585E-6,-1.0760351E-3,1.8999026E-3,-3.6291974E-3,-7.139353E-4,-1.9606426E-3,3.5795113E-3,-3.0357053E-4,-3.9127088E-4,7.7911405E-5,-1.5074619E-4,1.9189063E-3,-8.3319424E-4,6.726684E-4,5.7318375E-5],"categories":[],"categories_nodes":[],"categories_segments":[],"categories_sizes":[],"default_left":[0,0,0,0,0,0,0,0,0,0,0,0,0,0,0],"id":85,"left_children":[1,3,5,7,9,11,13,-1,-1,-1,-1,-1,-1,-1,-1],"loss_changes":[2.0525889E-3,5.872397E-4,2.3672692E-3,1.4147954E-6,6.64648E-4,1.5117255E-2,2.3993484E-3,0E0,0E0,0E0,0E0,0E0,0E0,0E0,0E0],"parents":[2147483647,0,0,1,1,2,2,3,3,4,4,5,5,6,6],"right_children":[2,4,6,8,10,12,14,-1,-1,-1,-1,-1,-1,-1,-1],"split_conditions":[7E0,1E0,1E0,1E0,3E0,8E0,9E0,-3.0357053E-4,-3.9127088E-4,7.7911405E-5,-1.5074619E-4,1.9189063E-3,-8.3319424E-4,6.726684E-4,5.7318375E-5],"split_indices":[0,0,1,1,0,0,0,0,0,0,0,0,0,0,0],"split_type":[0,0,0,0,0,0,0,0,0,0,0,0,0,0,0],"sum_hessian":[1E3,6.37E2,3.63E2,7.8E1,5.59E2,1.1E2,2.53E2,2.9E1,4.9E1,1.94E2,3.65E2,2.5E1,8.5E1,1.23E2,1.3E2],"tree_param":{"num_deleted":"0","num_feature":"2","num_nodes":"15","size_leaf_vector":"1"}},{"base_weights":[5.545411E-6,-4.0075328E-4,4.122644E-3,-1.1579979E-3,1.1711775E-3,3.26227E-4,5.734651E-4,-1.4455496E-5,-5.389398E-4,-6.782157E-5,7.5299636E-4],"categories":[],"categories_nodes":[],"categories_segments":[],"categories_sizes":[],"default_left":[0,0,0,0,0,0,0,0,0,0,0],"id":86,"left_children":[1,3,5,7,9,-1,-1,-1,-1,-1,-1],"loss_changes":[1.6760968E-3,1.0869427E-3,1.0611571E-4,2.6408029E-3,3.4977961E-3,0E0,0E0,0E0,0E0,0E0,0E0],"parents":[2147483647,0,0,1,1,2,2,3,3,4,4],"right_children":[2,4,6,8,10,-1,-1,-1,-1,-1,-1],"split_conditions":[1E1,2E0,2E0,8E0,8E0,3.26227E-4,5.734651E-4,-1.4455496E-5,-5.389398E-4,-6.782157E-5,7.5299636E-4],"split_indices":[0,1,1,0,0,0,0,0,0,0,0],"split_type":[0,0,0,0,0,0,0,0,0,0,0],"sum_hessian":[1E3,9.11E2,8.9E1,6.15E2,2.96E2,6E1,2.9E1,4.97E2,1.18E2,2.3E2,6.6E1],"tree_param":{"num_deleted":"0","num_feature":"2","num_nodes":"11","size_leaf_vector":"1"}},{"base_weights":[5.9954677E-6,-1.7147751E-3,9.33775E-4,-3.3157861E-3,2.3940187E-3,4.8586185E-4,3.7203683E-3,-2.295352E-4,-7.4128417E-4,5.056245E-4,-3.8976432E-4,1.04761064E-4,-6.645538E-5,2.9414598E-4,5.1801366E-4],"categories":[],"categories_nodes":[],"categories_segments":[],"categories_sizes":[],"default_left":[0,0,0,0,0,0,0,0,0,0,0,0,0,0,0],"id":87,"left_children":[1,3,5,7,9,11,13,-1,-1,-1,-1,-1,-1,-1,-1],"loss_changes":[1.5996933E-3,2.316895E-3,8.107391E-4,1.0407211E-3,1.6779401E-3,3.6388563E-4,8.709519E-5,0E0,0E0,0E0,0E0,0E0,0E0,0E0,0E0],"parents":[2147483647,0,0,1,1,2,2,3,3,4,4,5,5,6,6],"right_children":[2,4,6,8,10,12,14,-1,-1,-1,-1,-1,-1,-1,-1],"split_conditions":[4E0,2E0,1E1,3E0,3E0,8E0,2E0,-2.295352E-4,-7.4128417E-4,5.056245E-4,-3.8976432E-4,1.04761064E-4,-6.645538E-5,2.9414598E-4,5.1801366E-4],"split_indices":[0,1,0,0,0,0,1,0,0,0,0,0,0,0,0],"split_type":[0,0,0,0,0,0,0,0,0,0,0,0,0,0,0],"sum_hessian":[1E3,3.5E2,6.5E2,2.52E2,9.8E1,5.61E2,8.9E1,2.03E2,4.9E1,6.9E1,2.9E1,3.77E2,1.84E2,6E1,2.9E1],"tree_param":{"num_deleted":"0","num_feature":"2","num_nodes":"15","size_leaf_vector":"1"}},{"base_weights":[5.357159E-6,-8.9313916E-4,1.5801794E-3,-2.4495476E-3,-2.995732E-4,-1.6541781E-3,2.9873978E-3,-1.1044097E-4,-3.1714264E-4,3.3521396E-4,-1.2765358E-4,1.7256957E-3,-7.352263E-4,5.9874024E-4,1.2489494E-5],"categories":[],"categories_nodes":[],"categories_segments":[],"categories_sizes":[],"default_left":[0,0,0,0,0,0,0,0,0,0,0,0,0,0,0],"id":88,"left_children":[1,3,5,7,9,11,13,-1,-1,-1,-1,-1,-1,-1,-1],"loss_changes":[1.4177982E-3,5.8867043E-4,1.6616688E-3,1.6739813E-4,1.6560717E-3,1.2087934E-2,2.180482E-3,0E0,0E0,0E0,0E0,0E0,0E0,0E0,0E0],"parents":[2147483647,0,0,1,1,2,2,3,3,4,4,5,5,6,6],"right_children":[2,4,6,8,10,12,14,-1,-1,-1,-1,-1,-1,-1,-1],"split_conditions":[7E0,2E0,1E0,1E0,3E0,8E0,9E0,-1.1044097E-4,-3.1714264E-4,3.3521396E-4,-1.2765358E-4,1.7256957E-3,-7.352263E-4,5.9874024E-4,1.2489494E-5],"split_indices":[0,0,1,1,0,0,0,0,0,0,0,0,0,0,0],"split_type":[0,0,0,0,0,0,0,0,0,0,0,0,0,0,0],"sum_hessian":[1E3,6.37E2,3.63E2,1.75E2,4.62E2,1.1E2,2.53E2,6.2E1,1.13E2,9.7E1,3.65E2,2.5E1,8.5E1,1.23E2,1.3E2],"tree_param":{"num_deleted":"0","num_feature":"2","num_nodes":"15","size_leaf_vector":"1"}},{"base_weights":[6.176269E-6,-3.4874494E-4,3.6026426E-3,-2.207034E-3,9.549877E-5,3.019849E-4,4.667568E-4,-9.957181E-5,-2.8570855E-4,3.020344E-4,-3.5251735E-5],"categories":[],"categories_nodes":[],"categories_segments":[],"categories_sizes":[],"default_left":[0,0,0,0,0,0,0,0,0,0,0],"id":89,"left_children":[1,3,5,7,9,-1,-1,-1,-1,-1,-1],"loss_changes":[1.278995E-3,7.530971E-4,4.1761436E-5,1.3574061E-4,9.66813E-4,0E0,0E0,0E0,0E0,0E0,0E0],"parents":[2147483647,0,0,1,1,2,2,3,3,4,4],"right_children":[2,4,6,8,10,-1,-1,-1,-1,-1,-1],"split_conditions":[1E1,2E0,2E0,1E0,3E0,3.019849E-4,4.667568E-4,-9.957181E-5,-2.8570855E-4,3.020344E-4,-3.5251735E-5],"split_indices":[0,0,1,1,0,0,0,0,0,0,0],"split_type":[0,0,0,0,0,0,0,0,0,0,0],"sum_hessian":[1E3,9.11E2,8.9E1,1.75E2,7.36E2,6E1,2.9E1,6.2E1,1.13E2,9.7E1,6.39E2],"tree_param":{"num_deleted":"0","num_feature":"2","num_nodes":"11","size_leaf_vector":"1"}},{"base_weights":[6.235773E-6,-1.4544893E-3,7.9380604E-4,-2.9416145E-3,2.3606336E-3,3.9889337E-4,3.2509963E-3,-2.048477E-4,-6.5267825E-4,4.780072E-4,-3.3634107E-4,8.5808555E-5,-5.41504E-5,2.722959E-4,4.2163054E-4],"categories":[],"categories_nodes":[],"categories_segments":[],"categories_sizes":[],"default_left":[0,0,0,0,0,0,0,0,0,0,0,0,0,0,0],"id":90,"left_children":[1,3,5,7,9,11,13,-1,-1,-1,-1,-1,-1,-1,-1],"loss_changes":[1.1527287E-3,1.9983654E-3,6.304177E-4,7.967481E-4,1.3871256E-3,2.4314923E-4,3.4393976E-5,0E0,0E0,0E0,0E0,0E0,0E0,0E0,0E0],"parents":[2147483647,0,0,1,1,2,2,3,3,4,4,5,5,6,6],"right_children":[2,4,6,8,10,12,14,-1,-1,-1,-1,-1,-1,-1,-1],"split_conditions":[4E0,2E0,1E1,3E0,3E0,8E0,2E0,-2.048477E-4,-6.5267825E-4,4.780072E-4,-3.3634107E-4,8.5808555E-5,-5.41504E-5,2.722959E-4,4.2163054E-4],"split_indices":[0,1,0,0,0,0,1,0,0,0,0,0,