{"learner":{"attributes":{},"feature_names":[],"feature_types":[],"gradient_booster":{"model":{"cats":{"enc":[],"feature_segments":[],"sorted_idx":[]},"gbtree_model_param":{"num_parallel_tree":"1","num_trees":"100"},"iteration_indptr":[0,1,2,3,4,5,6,7,8,9,10,11,12,13,14,15,16,17,18,19,20,21,22,23,24,25,26,27,28,29,30,31,32,33,34,35,36,37,38,39,40,41,42,43,44,45,46,47,48,49,50,51,52,53,54,55,56,57,58,59,60,61,62,63,64,65,66,67,68,69,70,71,72,73,74,75,76,77,78,79,80,81,82,83,84,85,86,87,88,89,90,91,92,93,94,95,96,97,98,99,100],"tree_info":[0,0,0,0,0,0,0,0,0,0,0,0,0,0,0,0,0,0,0,0,0,0,0,0,0,0,0,0,0,0,0,0,0,0,0,0,0,0,0,0,0,0,0,0,0,0,0,0,0,0,0,0,0,0,0,0,0,0,0,0,0,0,0,0,0,0,0,0,0,0,0,0,0,0,0,0,0,0,0,0,0,0,0,0,0,0,0,0,0,0,0,0,0,0,0,0,0,0,0,0],"trees":[{"base_weights":[-8.419677E-8,-1.3999013E0,1.8774375E0,-2.3171904E0,-5.305647E-1,9.624569E-1,2.5004458E0,-2.6122832E-1,-1.7181449E-1,-8.412879E-2,5.9831883E-3,5.682079E-2,1.1632111E-1,2.197802E-1,3.0867752E-1],"categories":[],"categories_nodes":[],"categories_segments":[],"categories_sizes":[],"default_left":[0,0,0,0,0,0,0,0,0,0,0,0,0,0,0],"id":0,"left_children":[1,3,5,7,9,11,13,-1,-1,-1,-1,-1,-1,-1,-1],"loss_changes":[2.6334834E3,4.564972E2,2.4157092E2,4.4831665E1,5.43515E1,1.3189804E1,3.828784E1,0E0,0E0,0E0,0E0,0E0,0E0,0E0,0E0],"parents":[2147483647,0,0,1,1,2,2,3,3,4,4,5,5,6,6],"right_children":[2,4,6,8,10,12,14,-1,-1,-1,-1,-1,-1,-1,-1],"split_conditions":[6E0,3E0,8E0,2E0,5E0,1E0,1E1,-2.6122832E-1,-1.7181449E-1,-8.412879E-2,5.9831883E-3,5.682079E-2,1.1632111E-1,2.197802E-1,3.0867752E-1],"split_indices":[0,0,0,0,0,1,0,0,0,0,0,0,0,0,0],"split_type":[0,0,0,0,0,0,0,0,0,0,0,0,0,0,0],"sum_hessian":[1E3,5.73E2,4.27E2,2.78E2,2.95E2,1.74E2,2.53E2,1.84E2,9.4E1,1.93E2,1.02E2,6E1,1.14E2,1.7E2,8.3E1],"tree_param":{"num_deleted":"0","num_feature":"2","num_nodes":"15","size_leaf_vector":"1"}},{"base_weights":[1.9016823E-4,-1.2608017E0,1.6913329E0,-2.0870235E0,-4.7777218E-1,1.099299E0,2.4931734E0,-2.352467E-1,-1.5481389E-1,-1.0466081E-1,-1.8659778E-2,6.0872585E-2,1.3748866E-1,2.0246811E-1,2.7321374E-1],"categories":[],"categories_nodes":[],"categories_segments":[],"categories_sizes":[],"default_left":[0,0,0,0,0,0,0,0,0,0,0,0,0,0,0],"id":1,"left_children":[1,3,5,7,9,11,13,-1,-1,-1,-1,-1,-1,-1,-1],"loss_changes":[2.1367822E3,3.7035565E2,2.0043799E2,3.6267212E1,4.8831314E1,3.269165E1,1.4731812E1,0E0,0E0,0E0,0E0,0E0,0E0,0E0,0E0],"parents":[2147483647,0,0,1,1,2,2,3,3,4,4,5,5,6,6],"right_children":[2,4,6,8,10,12,14,-1,-1,-1,-1,-1,-1,-1,-1],"split_conditions":[6E0,3E0,9E0,2E0,4E0,7E0,1E0,-2.352467E-1,-1.5481389E-1,-1.0466081E-1,-1.8659778E-2,6.0872585E-2,1.3748866E-1,2.0246811E-1,2.7321374E-1],"split_indices":[0,0,0,0,0,0,1,0,0,0,0,0,0,0,0],"split_type":[0,0,0,0,0,0,0,0,0,0,0,0,0,0,0],"sum_hessian":[1E3,5.73E2,4.27E2,2.78E2,2.95E2,2.47E2,1.8E2,1.84E2,9.4E1,9.9E1,1.96E2,9E1,1.57E2,6.4E1,1.16E2],"tree_param":{"num_deleted":"0","num_feature":"2","num_nodes":"15","size_leaf_vector":"1"}},{"base_weights":[3.3166335E-4,-1.3968204E0,1.2445872E0,-1.8797194E0,-6.951419E-1,5.133149E-1,2.037177E0,-2.398792E-1,-1.6280065E-1,-8.807404E-2,-2.4476027E-2,7.238553E-3,7.6990016E-2,1.7817673E-1,2.532867E-1],"categories":[],"categories_nodes":[],"categories_segments":[],"categories_sizes":[],"default_left":[0,0,0,0,0,0,0,0,0,0,0,0,0,0,0],"id":2,"left_children":[1,3,5,7,9,11,13,-1,-1,-1,-1,-1,-1,-1,-1],"loss_changes":[1.7418912E3,1.5862567E2,3.0614172E2,3.2548096E1,1.6000923E1,3.1282936E1,2.764441E1,0E0,0E0,0E0,0E0,0E0,0E0,0E0,0E0],"parents":[2147483647,0,0,1,1,2,2,3,3,4,4,5,5,6,6],"right_children":[2,4,6,8,10,12,14,-1,-1,-1,-1,-1,-1,-1,-1],"split_conditions":[5E0,3E0,8E0,1E0,2E0,6E0,1E1,-2.398792E-1,-1.6280065E-1,-8.807404E-2,-2.4476027E-2,7.238553E-3,7.6990016E-2,1.7817673E-1,2.532867E-1],"split_indices":[0,0,0,0,1,0,0,0,0,0,0,0,0,0,0],"split_type":[0,0,0,0,0,0,0,0,0,0,0,0,0,0,0],"sum_hessian":[1E3,4.71E2,5.29E2,2.78E2,1.93E2,2.76E2,2.53E2,8.8E1,1.9E2,1.36E2,5.7E1,1.02E2,1.74E2,1.7E2,8.3E1],"tree_param":{"num_deleted":"0","num_feature":"2","num_nodes":"15","size_leaf_vector":"1"}},{"base_weights":[2.9890068E-4,-1.2582301E0,1.1211015E0,-1.919907E0,-8.2882565E-1,4.6228743E-1,1.8351581E0,-2.1253048E-1,-1.4884178E-1,-1.0541993E-1,-3.5986453E-2,2.5753254E-2,9.217628E-2,1.3219255E-1,2.034849E-1],"categories":[],"categories_nodes":[],"categories_segments":[],"categories_sizes":[],"default_left":[0,0,0,0,0,0,0,0,0,0,0,0,0,0,0],"id":3,"left_children":[1,3,5,7,9,11,13,-1,-1,-1,-1,-1,-1,-1,-1],"loss_changes":[1.4133837E3,1.3251666E2,2.484798E2,1.3232544E1,3.0059753E1,2.582272E1,2.3342041E1,0E0,0E0,0E0,0E0,0E0,0E0,0E0,0E0],"parents":[2147483647,0,0,1,1,2,2,3,3,4,4,5,5,6,6],"right_children":[2,4,6,8,10,12,14,-1,-1,-1,-1,-1,-1,-1,-1],"split_conditions":[5E0,2E0,8E0,2E0,4E0,7E0,9E0,-2.1253048E-1,-1.4884178E-1,-1.0541993E-1,-3.5986453E-2,2.5753254E-2,9.217628E-2,1.3219255E-1,2.034849E-1],"split_indices":[0,0,0,1,0,0,0,0,0,0,0,0,0,0,0],"split_type":[0,0,0,0,0,0,0,0,0,0,0,0,0,0,0],"sum_hessian":[1E3,4.71E2,5.29E2,1.84E2,2.87E2,2.76E2,2.53E2,1.22E2,6.2E1,1.93E2,9.4E1,1.92E2,8.4E1,7.3E1,1.8E2],"tree_param":{"num_deleted":"0","num_feature":"2","num_nodes":"15","size_leaf_vector":"1"}},{"base_weights":[2.1987468E-4,-9.249275E-1,1.2409544E0,-1.5316626E0,-3.499139E-1,8.042261E-1,1.8324884E0,-1.9722182E-1,-1.3183585E-1,-7.6860644E-2,-1.356034E-2,5.9581112E-2,1.1572518E-1,1.4206496E-1,2.0456254E-1],"categories":[],"categories_nodes":[],"categories_segments":[],"categories_sizes":[],"default_left":[0,0,0,0,0,0,0,0,0,0,0,0,0,0,0],"id":4,"left_children":[1,3,5,7,9,11,13,-1,-1,-1,-1,-1,-1,-1,-1],"loss_changes":[1.1501581E3,1.9972171E2,1.0909558E2,2.3618225E1,2.645591E1,1.7557312E1,1.29817505E1,0E0,0E0,0E0,0E0,0E0,0E0,0E0,0E0],"parents":[2147483647,0,0,1,1,2,2,3,3,4,4,5,5,6,6],"right_children":[2,4,6,8,10,12,14,-1,-1,-1,-1,-1,-1,-1,-1],"split_conditions":[6E0,3E0,9E0,1E0,4E0,2E0,1E0,-1.9722182E-1,-1.3183585E-1,-7.6860644E-2,-1.356034E-2,5.9581112E-2,1.1572518E-1,1.4206496E-1,2.0456254E-1],"split_indices":[0,0,0,0,0,1,1,0,0,0,0,0,0,0,0],"split_type":[0,0,0,0,0,0,0,0,0,0,0,0,0,0,0],"sum_hessian":[1E3,5.73E2,4.27E2,2.78E2,2.95E2,2.47E2,1.8E2,8.8E1,1.9E2,9.9E1,1.96E2,1.57E2,9E1,6.4E1,1.16E2],"tree_param":{"num_deleted":"0","num_feature":"2","num_nodes":"15","size_leaf_vector":"1"}},{"base_weights":[3.0022996E-4,-1.0248108E0,9.1322875E-1,-1.5676439E0,-6.7255753E-1,3.7148482E-1,1.5004328E0,-1.752374E-1,-1.1820971E-1,-1.02541976E-1,-4.7649067E-2,4.3475744E-4,5.8214683E-2,1.2963594E-1,1.8980056E-1],"categories":[],"categories_nodes":[],"categories_segments":[],"categories_sizes":[],"default_left":[0,0,0,0,0,0,0,0,0,0,0,0,0,0,0],"id":5,"left_children":[1,3,5,7,9,11,13,-1,-1,-1,-1,-1,-1,-1,-1],"loss_changes":[9.377249E2,8.9199036E1,1.6804312E2,1.1104614E1,1.9436554E1,2.142117E1,1.8147583E1,0E0,0E0,0E0,0E0,0E0,0E0,0E0,0E0],"parents":[2147483647,0,0,1,1,2,2,3,3,4,4,5,5,6,6],"right_children":[2,4,6,8,10,12,14,-1,-1,-1,-1,-1,-1,-1,-1],"split_conditions":[5E0,2E0,8E0,2E0,1E0,1E0,1E1,-1.752374E-1,-1.1820971E-1,-1.02541976E-1,-4.7649067E-2,4.3475744E-4,5.8214683E-2,1.2963594E-1,1.8980056E-1],"split_indices":[0,0,0,1,1,1,0,0,0,0,0,0,0,0,0],"split_type":[0,0,0,0,0,0,0,0,0,0,0,0,0,0,0],"sum_hessian":[1E3,4.71E2,5.29E2,1.84E2,2.87E2,2.76E2,2.53E2,1.22E2,6.2E1,1.01E2,1.86E2,1.01E2,1.75E2,1.7E2,8.3E1],"tree_param":{"num_deleted":"0","num_feature":"2","num_nodes":"15","size_leaf_vector":"1"}},{"base_weights":[2.0472296E-4,-7.558859E-1,1.0142136E0,-1.2542332E0,-2.8360614E-1,6.594863E-1,1.4946455E0,-1.6225259E-1,-1.07605375E-1,-4.649451E-2,1.1721913E-2,3.259921E-2,8.473881E-2,1.2703656E-1,1.8321411E-1],"categories":[],"categories_nodes":[],"categories_segments":[],"categories_sizes":[],"default_left":[0,0,0,0,0,0,0,0,0,0,0,0,0,0,0],"id":6,"left_children":[1,3,5,7,9,11,13,-1,-1,-1,-1,-1,-1,-1,-1],"loss_changes":[7.682159E2,1.347406E2,7.195505E1,1.6562683E1,2.1569328E1,1.5264473E1,1.1373016E1,0E0,0E0,0E0,0E0,0E0,0E0,0E0,0E0],"parents":[2147483647,0,0,1,1,2,2,3,3,4,4,5,5,6,6],"right_children":[2,4,6,8,10,12,14,-1,-1,-1,-1,-1,-1,-1,-1],"split_conditions":[6E0,3E0,9E0,1E0,2E0,7E0,2E0,-1.6225259E-1,-1.07605375E-1,-4.649451E-2,1.1721913E-2,3.259921E-2,8.473881E-2,1.2703656E-1,1.8321411E-1],"split_indices":[0,0,0,0,1,0,1,0,0,0,0,0,0,0,0],"split_type":[0,0,0,0,0,0,0,0,0,0,0,0,0,0,0],"sum_hessian":[1E3,5.73E2,4.27E2,2.78E2,2.95E2,2.47E2,1.8E2,8.8E1,1.9E2,2.03E2,9.2E1,9E1,1.57E2,1.11E2,6.9E1],"tree_param":{"num_deleted":"0","num_feature":"2","num_nodes":"15","size_leaf_vector":"1"}},{"base_weights":[3.0709754E-4,-8.3772224E-1,7.46627E-1,-1.2794477E0,-5.510662E-1,3.080241E-1,1.2220064E0,-1.445618E-1,-9.347113E-2,-7.1237944E-2,-2.1584716E-2,-1.241641E-3,4.9198385E-2,8.679342E-2,1.411022E-1],"categories":[],"categories_nodes":[],"categories_segments":[],"categories_sizes":[],"default_left":[0,0,0,0,0,0,0,0,0,0,0,0,0,0,0],"id":7,"left_children":[1,3,5,7,9,11,13,-1,-1,-1,-1,-1,-1,-1,-1],"loss_changes":[6.2668884E2,5.9061127E1,1.10130035E2,9.2464905E0,1.5419899E1,1.6334747E1,1.5774292E1,0E0,0E0,0E0,0E0,0E0,0E0,0E0,0E0],"parents":[2147483647,0,0,1,1,2,2,3,3,4,4,5,5,6,6],"right_children":[2,4,6,8,10,12,14,-1,-1,-1,-1,-1,-1,-1,-1],"split_conditions":[5E0,2E0,8E0,2E0,4E0,1E0,1E0,-1.445618E-1,-9.347113E-2,-7.1237944E-2,-2.1584716E-2,-1.241641E-3,4.9198385E-2,8.679342E-2,1.411022E-1],"split_indices":[0,0,0,1,0,1,1,0,0,0,0,0,0,0,0],"split_type":[0,0,0,0,0,0,0,0,0,0,0,0,0,0,0],"sum_hessian":[1E3,4.71E2,5.29E2,1.84E2,2.87E2,2.76E2,2.53E2,1.22E2,6.2E1,1.93E2,9.4E1,1.01E2,1.75E2,9E1,1.63E2],"tree_param":{"num_deleted":"0","num_feature":"2","num_nodes":"15","size_leaf_vector":"1"}},{"base_weights":[2.2144853E-4,-6.176582E-1,8.288726E-1,-1.0217911E0,-2.3464902E-1,5.358554E-1,1.2257754E0,-1.1874707E-1,-6.883961E-2,-3.9278485E-2,1.1475264E-2,3.6667783E-2,8.237038E-2,1.0356545E-1,1.5124579E-1],"categories":[],"categories_nodes":[],"categories_segments":[],"categories_sizes":[],"default_left":[0,0,0,0,0,0,0,0,0,0,0,0,0,0,0],"id":8,"left_children":[1,3,5,7,9,11,13,-1,-1,-1,-1,-1,-1,-1,-1],"loss_changes":[5.1303064E2,8.860777E1,4.9119263E1,1.4593597E1,1.6399931E1,1.17749405E1,8.29892E0,0E0,0E0,0E0,0E0,0E0,0E0,0E0,0E0],"parents":[2147483647,0,0,1,1,2,2,3,3,4,4,5,5,6,6],"right_children":[2,4,6,8,10,12,14,-1,-1,-1,-1,-1,-1,-1,-1],"split_conditions":[6E0,3E0,9E0,2E0,2E0,2E0,2E0,-1.1874707E-1,-6.883961E-2,-3.9278485E-2,1.1475264E-2,3.6667783E-2,8.237038E-2,1.0356545E-1,1.5124579E-1],"split_indices":[0,0,0,1,1,1,1,0,0,0,0,0,0,0,0],"split_type":[0,0,0,0,0,0,0,0,0,0,0,0,0,0,0],"sum_hessian":[1E3,5.73E2,4.27E2,2.78E2,2.95E2,2.47E2,1.8E2,1.84E2,9.4E1,2.03E2,9.2E1,1.57E2,9E1,1.11E2,6.9E1],"tree_param":{"num_deleted":"0","num_feature":"2","num_nodes":"15","size_leaf_vector":"1"}},{"base_weights":[3.5764044E-4,-6.847184E-1,6.104624E-1,-1.0514101E0,-4.467924E-1,2.5218284E-1,9.987812E-1,-1.321358E-1,-8.9058734E-2,-7.3996775E-2,-2.844893E-2,-1.6967788E-3,4.0673506E-2,8.3707705E-2,1.3160746E-1],"categories":[],"categories_nodes":[],"categories_segments":[],"categories_sizes":[],"default_left":[0,0,0,0,0,0,0,0,0,0,0,0,0,0,0],"id":9,"left_children":[1,3,5,7,9,11,13,-1,-1,-1,-1,-1,-1,-1,-1],"loss_changes":[4.1880414E2,4.0710114E1,7.348526E1,6.854767E0,1.3493465E1,1.1529493E1,1.1930496E1,0E0,0E0,0E0,0E0,0E0,0E0,0E0,0E0],"parents":[2147483647,0,0,1,1,2,2,3,3,4,4,5,5,6,6],"right_children":[2,4,6,8,10,12,14,-1,-1,-1,-1,-1,-1,-1,-1],"split_conditions":[5E0,2E0,8E0,1E0,1E0,1E0,1E1,-1.321358E-1,-8.9058734E-2,-7.3996775E-2,-2.844893E-2,-1.6967788E-3,4.0673506E-2,8.3707705E-2,1.3160746E-1],"split_indices":[0,0,0,1,1,1,0,0,0,0,0,0,0,0,0],"split_type":[0,0,0,0,0,0,0,0,0,0,0,0,0,0,0],"sum_hessian":[1E3,4.71E2,5.29E2,1.84E2,2.87E2,2.76E2,2.53E2,6.6E1,1.18E2,1.01E2,1.86E2,1.01E2,1.75E2,1.7E2,8.3E1],"tree_param":{"num_deleted":"0","num_feature":"2","num_nodes":"15","size_leaf_vector":"1"}},{"base_weights":[2.5254613E-4,-5.047284E-1,6.7749274E-1,-7.385012E-1,-5.3607285E-2,4.3982384E-1,9.9939543E-1,-1.1335292E-1,-6.147219E-2,-1.938122E-2,2.2761477E-2,1.795966E-2,5.869179E-2,8.295251E-2,1.256911E-1],"categories":[],"categories_nodes":[],"categories_segments":[],"categories_sizes":[],"default_left":[0,0,0,0,0,0,0,0,0,0,0,0,0,0,0],"id":10,"left_children":[1,3,5,7,9,11,13,-1,-1,-1,-1,-1,-1,-1,-1],"loss_changes":[3.426773E2,6.049437E1,3.230513E1,1.778601E1,7.81157E0,9.387505E0,6.8750763E0,0E0,0E0,0E0,0E0,0E0,0E0,0E0,0E0],"parents":[2147483647,0,0,1,1,2,2,3,3,4,4,5,5,6,6],"right_children":[2,4,6,8,10,12,14,-1,-1,-1,-1,-1,-1,-1,-1],"split_conditions":[6E0,4E0,9E0,1E0,2E0,7E0,2E0,-1.1335292E-1,-6.147219E-2,-1.938122E-2,2.2761477E-2,1.795966E-2,5.869179E-2,8.295251E-2,1.256911E-1],"split_indices":[0,0,0,0,1,0,1,0,0,0,0,0,0,0,0],"split_type":[0,0,0,0,0,0,0,0,0,0,0,0,0,0,0],"sum_hessian":[1E3,5.73E2,4.27E2,3.77E2,1.96E2,2.47E2,1.8E2,8.8E1,2.89E2,1.31E2,6.5E1,9E1,1.57E2,1.11E2,6.9E1],"tree_param":{"num_deleted":"0","num_feature":"2","num_nodes":"15","size_leaf_vector":"1"}},{"base_weights":[3.4101823E-4,-4.5455423E-1,6.1041003E-1,-7.58772E-1,-1.6627277E-1,3.9615047E-1,9.006087E-1,-1.0306984E-1,-6.0348637E-2,-2.9025128E-2,1.0746798E-2,2.4900226E-2,6.472852E-2,6.349568E-2,1.0404956E-1],"categories":[],"categories_nodes":[],"categories_segments":[],"categories_sizes":[],"default_left":[0,0,0,0,0,0,0,0,0,0,0,0,0,0,0],"id":11,"left_children":[1,3,5,7,9,11,13,-1,-1,-1,-1,-1,-1,-1,-1],"loss_changes":[2.7807245E2,5.021383E1,2.625534E1,1.1159119E1,1.0076832E1,9.003426E0,6.065506E0,0E0,0E0,0E0,0E0,0E0,0E0,0E0,0E0],"parents":[2147483647,0,0,1,1,2,2,3,3,4,4,5,5,6,6],"right_children":[2,4,6,8,10,12,14,-1,-1,-1,-1,-1,-1,-1,-1],"split_conditions":[6E0,3E0,9E0,1E0,2E0,2E0,1E0,-1.0306984E-1,-6.0348637E-2,-2.9025128E-2,1.0746798E-2,2.4900226E-2,6.472852E-2,6.349568E-2,1.0404956E-1],"split_indices":[0,0,0,1,1,1,1,0,0,0,0,0,0,0,0],"split_type":[0,0,0,0,0,0,0,0,0,0,0,0,0,0,0],"sum_hessian":[1E3,5.73E2,4.27E2,2.78E2,2.95E2,2.47E2,1.8E2,9.9E1,1.79E2,2.03E2,9.2E1,1.57E2,9E1,6.4E1,1.16E2],"tree_param":{"num_deleted":"0","num_feature":"2","num_nodes":"15","size_leaf_vector":"1"}},{"base_weights":[3.8228056E-4,-5.0540847E-1,4.5082164E-1,-7.86383E-1,-3.2316646E-1,7.5443745E-2,6.638308E-1,-9.043608E-2,-5.4356318E-2,-5.6757372E-2,-1.8812528E-2,-1.5087964E-2,2.0547234E-2,5.149159E-2,9.19943E-2],"categories":[],"categories_nodes":[],"categories_segments":[],"categories_sizes":[],"default_left":[0,0,0,0,0,0,0,0,0,0,0,0,0,0,0],"id":12,"left_children":[1,3,5,7,9,11,13,-1,-1,-1,-1,-1,-1,-1,-1],"loss_changes":[2.2828372E2,2.3914795E1,4.2328148E1,4.808174E0,9.398678E0,5.7107043E0,1.2417267E1,0E0,0E0,0E0,0E0,0E0,0E0,0E0,0E0],"parents":[2147483647,0,0,1,1,2,2,3,3,4,4,5,5,6,6],"right_children":[2,4,6,8,10,12,14,-1,-1,-1,-1,-1,-1,-1,-1],"split_conditions":[5E0,2E0,7E0,2E0,1E0,1E0,2E0,-9.043608E-2,-5.4356318E-2,-5.6757372E-2,-1.8812528E-2,-1.5087964E-2,2.0547234E-2,5.149159E-2,9.19943E-2],"split_indices":[0,0,0,1,1,1,1,0,0,0,0,0,0,0,0],"split_type":[0,0,0,0,0,0,0,0,0,0,0,0,0,0,0],"sum_hessian":[1E3,4.71E2,5.29E2,1.84E2,2.87E2,1.92E2,3.37E2,1.22E2,6.2E1,1.01E2,1.86E2,7E1,1.22E2,2.15E2,1.22E2],"tree_param":{"num_deleted":"0","num_feature":"2","num_nodes":"15","size_leaf_vector":"1"}},{"base_weights":[2.7268066E-4,-4.553345E-1,4.0602046E-1,-7.085273E-1,-2.9111227E-1,6.792771E-2,5.978722E-1,-9.191149E-2,-5.8400728E-2,-4.008934E-2,-4.5139464E-3,-5.714682E-3,2.743125E-2,4.8685703E-2,9.27765E-2],"categories":[],"categories_nodes":[],"categories_segments":[],"categories_sizes":[],"default_left":[0,0,0,0,0,0,0,0,0,0,0,0,0,0,0],"id":13,"left_children":[1,3,5,7,9,11,13,-1,-1,-1,-1,-1,-1,-1,-1],"loss_changes":[1.8523134E2,1.9419449E1,3.4337135E1,4.314369E0,7.7588177E0,4.9976783E0,1.1926918E1,0E0,0E0,0E0,0E0,0E0,0E0,0E0,0E0],"parents":[2147483647,0,0,1,1,2,2,3,3,4,4,5,5,6,6],"right_children":[2,4,6,8,10,12,14,-1,-1,-1,-1,-1,-1,-1,-1],"split_conditions":[5E0,2E0,7E0,1E0,2E0,2E0,1E1,-9.191149E-2,-5.8400728E-2,-4.008934E-2,-4.5139464E-3,-5.714682E-3,2.743125E-2,4.8685703E-2,9.27765E-2],"split_indices":[0,0,0,1,1,1,0,0,0,0,0,0,0,0,0],"split_type":[0,0,0,0,0,0,0,0,0,0,0,0,0,0,0],"sum_hessian":[1E3,4.71E2,5.29E2,1.84E2,2.87E2,1.92E2,3.37E2,6.6E1,1.18E2,1.98E2,8.9E1,1.2E2,7.2E1,2.54E2,8.3E1],"tree_param":{"num_deleted":"0","num_feature":"2","num_nodes":"15","size_leaf_vector":"1"}},{"base_weights":[2.1375179E-4,-5.012507E-1,3.0398515E-1,-8.032447E-1,-4.0684134E-1,2.6733475E-2,5.3850365E-1,-1.0151396E-1,-6.945947E-2,-6.3210554E-2,-2.7557192E-2,-1.6466698E-2,1.3806159E-2,4.0540446E-2,7.678607E-2],"categories":[],"categories_nodes":[],"categories_segments":[],"categories_sizes":[],"default_left":[0,0,0,0,0,0,0,0,0,0,0,0,0,0,0],"id":14,"left_children":[1,3,5,7,9,11,13,-1,-1,-1,-1,-1,-1,-1,-1],"loss_changes":[1.5263527E2,1.0450394E1,4.055849E1,1.3438797E0,8.401203E0,6.138201E0,1.0006912E1,0E0,0E0,0E0,0E0,0E0,0E0,0E0,0E0],"parents":[2147483647,0,0,1,1,2,2,3,3,4,4,5,5,6,6],"right_children":[2,4,6,8,10,12,14,-1,-1,-1,-1,-1,-1,-1,-1],"split_conditions":[4E0,1E0,7E0,1E0,1E0,1E0,2E0,-1.0151396E-1,-6.945947E-2,-6.3210554E-2,-2.7557192E-2,-1.6466698E-2,1.3806159E-2,4.0540446E-2,7.678607E-2],"split_indices":[0,0,0,1,1,1,1,0,0,0,0,0,0,0,0],"split_type":[0,0,0,0,0,0,0,0,0,0,0,0,0,0,0],"sum_hessian":[1E3,3.77E2,6.23E2,8.8E1,2.89E2,2.86E2,3.37E2,2.7E1,6.1E1,1.05E2,1.84E2,1.05E2,1.81E2,2.15E2,1.22E2],"tree_param":{"num_deleted":"0","num_feature":"2","num_nodes":"15","size_leaf_vector":"1"}},{"base_weights":[4.548287E-5,-4.518181E-1,2.7377048E-1,-7.248413E-1,-3.6647025E-1,8.149076E-2,5.5354214E-1,-9.17251E-2,-6.262556E-2,-5.6949135E-2,-2.4816373E-2,-9.331717E-3,1.830533E-2,3.2466974E-2,6.7716315E-2],"categories":[],"categories_nodes":[],"categories_segments":[],"categories_sizes":[],"default_left":[0,0,0,0,0,0,0,0,0,0,0,0,0,0,0],"id":15,"left_children":[1,3,5,7,9,11,13,-1,-1,-1,-1,-1,-1,-1,-1],"loss_changes":[1.2393374E2,8.542503E0,3.3522606E1,1.1137962E0,6.8240967E0,6.6037917E0,6.966675E0,0E0,0E0,0E0,0E0,0E0,0E0,0E0,0E0],"parents":[2147483647,0,0,1,1,2,2,3,3,4,4,5,5,6,6],"right_children":[2,4,6,8,10,12,14,-1,-1,-1,-1,-1,-1,-1,-1],"split_conditions":[4E0,1E0,8E0,1E0,1E0,1E0,1E0,-9.17251E-2,-6.262556E-2,-5.6949135E-2,-2.4816373E-2,-9.331717E-3,1.830533E-2,3.2466974E-2,6.7716315E-2],"split_indices":[0,0,0,1,1,1,1,0,0,0,0,0,0,0,0],"split_type":[0,0,0,0,0,0,0,0,0,0,0,0,0,0,0],"sum_hessian":[1E3,3.77E2,6.23E2,8.8E1,2.89E2,3.7E2,2.53E2,2.7E1,6.1E1,1.05E2,1.84E2,1.36E2,2.34E2,9E1,1.63E2],"tree_param":{"num_deleted":"0","num_feature":"2","num_nodes":"15","size_leaf_vector":"1"}},{"base_weights":[-8.58632E-5,-3.3704346E-1,2.999973E-1,-4.6442142E-1,-1.5211824E-1,1.6096899E-1,5.671791E-1,-5.676038E-2,-2.5859877E-2,-3.0611983E-2,-6.6576744E-3,-2.0463439E-3,2.6438776E-2,4.265331E-2,7.2451405E-2],"categories":[],"categories_nodes":[],"categories_segments":[],"categories_sizes":[],"default_left":[0,0,0,0,0,0,0,0,0,0,0,0,0,0,0],"id":16,"left_children":[1,3,5,7,9,11,13,-1,-1,-1,-1,-1,-1,-1,-1],"loss_changes":[1.0131753E2,1.1047504E1,1.9595993E1,5.7784157E0,2.5352836E0,6.5726414E0,3.6962318E0,0E0,0E0,0E0,0E0,0E0,0E0,0E0,0E0],"parents":[2147483647,0,0,1,1,2,2,3,3,4,4,5,5,6,6],"right_children":[2,4,6,8,10,12,14,-1,-1,-1,-1,-1,-1,-1,-1],"split_conditions":[5E0,3E0,9E0,2E0,1E0,1E0,1E1,-5.676038E-2,-2.5859877E-2,-3.0611983E-2,-6.6576744E-3,-2.0463439E-3,2.6438776E-2,4.265331E-2,7.2451405E-2],"split_indices":[0,0,0,1,1,1,0,0,0,0,0,0,0,0,0],"split_type":[0,0,0,0,0,0,0,0,0,0,0,0,0,0,0],"sum_hessian":[1E3,4.71E2,5.29E2,2.78E2,1.93E2,3.49E2,1.8E2,1.84E2,9.4E1,6.8E1,1.25E2,1.27E2,2.22E2,9.7E1,8.3E1],"tree_param":{"num_deleted":"0","num_feature":"2","num_nodes":"15","size_leaf_vector":"1"}},{"base_weights":[-5.768902E-5,-2.4980746E-1,3.3488724E-1,-3.693659E-1,-1.9132867E-2,2.564813E-1,6.529249E-1,-6.080376E-2,-2.9484471E-2,-9.713174E-3,1.3715476E-2,1.6254228E-2,4.205136E-2,5.434653E-2,7.837748E-2],"categories":[],"categories_nodes":[],"categories_segments":[],"categories_sizes":[],"default_left":[0,0,0,0,0,0,0,0,0,0,0,0,0,0,0],"id":17,"left_children":[1,3,5,7,9,11,13,-1,-1,-1,-1,-1,-1,-1,-1],"loss_changes":[8.381973E1,1.5823338E1,1.0505165E1,6.543869E0,2.4148028E0,5.2477646E0,7.7716064E-1,0E0,0E0,0E0,0E0,0E0,0E0,0E0,0E0],"parents":[2147483647,0,0,1,1,2,2,3,3,4,4,5,5,6,6],"right_children":[2,4,6,8,10,12,14,-1,-1,-1,-1,-1,-1,-1,-1],"split_conditions":[6E0,4E0,1E1,1E0,2E0,2E0,2E0,-6.080376E-2,-2.9484471E-2,-9.713174E-3,1.3715476E-2,1.6254228E-2,4.205136E-2,5.434653E-2,7.837748E-2],"split_indices":[0,0,0,0,1,1,1,0,0,0,0,0,0,0,0],"split_type":[0,0,0,0,0,0,0,0,0,0,0,0,0,0,0],"sum_hessian":[1E3,5.73E2,4.27E2,3.77E2,1.96E2,3.44E2,8.3E1,8.8E1,2.89E2,1.31E2,6.5E1,2.2E2,1.24E2,4.8E1,3.5E1],"tree_param":{"num_deleted":"0","num_feature":"2","num_nodes":"15","size_leaf_vector":"1"}},{"base_weights":[5.2711228E-5,-1.8800287E-1,3.694872E-1,-3.3266813E-1,3.186913E-3,1.9324787E-1,4.6686834E-1,-4.979385E-2,-2.4196234E-2,-7.4619697E-3,1.429057E-2,1.3177584E-2,4.151532E-2,3.937771E-2,6.5593004E-2],"categories":[],"categories_nodes":[],"categories_segments":[],"categories_sizes":[],"default_left":[0,0,0,0,0,0,0,0,0,0,0,0,0,0,0],"id":18,"left_children":[1,3,5,7,9,11,13,-1,-1,-1,-1,-1,-1,-1,-1],"loss_changes":[6.961316E1,1.8366316E1,5.7106667E0,5.5461082E0,3.1306534E0,1.6094909E0,2.7403793E0,0E0,0E0,0E0,0E0,0E0,0E0,0E0,0E0],"parents":[2147483647,0,0,1,1,2,2,3,3,4,4,5,5,6,6],"right_children":[2,4,6,8,10,12,14,-1,-1,-1,-1,-1,-1,-1,-1],"split_conditions":[7E0,4E0,1E0,1E0,2E0,1E1,1E1,-4.979385E-2,-2.4196234E-2,-7.4619697E-3,1.429057E-2,1.3177584E-2,4.151532E-2,3.937771E-2,6.5593004E-2],"split_indices":[0,0,1,1,1,0,0,0,0,0,0,0,0,0,0],"split_type":[0,0,0,0,0,0,0,0,0,0,0,0,0,0,0],"sum_hessian":[1E3,6.63E2,3.37E2,3.77E2,2.86E2,1.21E2,2.16E2,1.32E2,2.45E2,1.84E2,1.02E2,9.6E1,2.5E1,1.58E2,5.8E1],"tree_param":{"num_deleted":"0","num_feature":"2","num_nodes":"15","size_leaf_vector":"1"}},{"base_weights":[1.3987682E-4,-1.693037E-1,3.3301088E-1,-3.4582555E-1,-4.127546E-2,2.4081182E-1,4.92214E-1,-4.340731E-2,-1.703348E-2,-1.129506E-2,1.0073827E-2,1.8178998E-2,4.382579E-2,4.246068E-2,6.438035E-2],"categories":[],"categories_nodes":[],"categories_segments":[],"categories_sizes":[],"default_left":[0,0,0,0,0,0,0,0,0,0,0,0,0,0,0],"id":19,"left_children":[1,3,5,7,9,11,13,-1,-1,-1,-1,-1,-1,-1,-1],"loss_changes":[5.6515636E1,1.4991983E1,4.842762E0,4.24683E0,3.9404154E0,2.4375153E0,9.872093E-1,0E0,0E0,0E0,0E0,0E0,0E0,0E0,0E0],"parents":[2147483647,0,0,1,1,2,2,3,3,4,4,5,5,6,6],"right_children":[2,4,6,8,10,12,14,-1,-1,-1,-1,-1,-1,-1,-1],"split_conditions":[7E0,3E0,2E0,2E0,2E0,1E1,1E1,-4.340731E-2,-1.703348E-2,-1.129506E-2,1.0073827E-2,1.8178998E-2,4.382579E-2,4.246068E-2,6.438035E-2],"split_indices":[0,0,1,1,1,0,0,0,0,0,0,0,0,0,0],"split_type":[0,0,0,0,0,0,0,0,0,0,0,0,0,0,0],"sum_hessian":[1E3,6.63E2,3.37E2,2.78E2,3.85E2,2.15E2,1.22E2,1.84E2,9.4E1,2.56E2,1.29E2,1.67E2,4.8E1,8.7E1,3.5E1],"tree_param":{"num_deleted":"0","num_feature":"2","num_nodes":"15","size_leaf_vector":"1"}},{"base_weights":[2.3299843E-4,-1.524662E-1,3.002094E-1,-2.7279985E-1,6.5532853E-3,1.5108612E-1,3.8266486E-1,-4.819012E-2,-2.0768669E-2,-1.0655553E-2,7.239384E-3,3.8515092E-3,2.4920974E-2,3.232963E-2,5.3617235E-2],"categories":[],"categories_nodes":[],"categories_segments":[],"categories_sizes":[],"default_left":[0,0,0,0,0,0,0,0,0,0,0,0,0,0,0],"id":20,"left_children":[1,3,5,7,9,11,13,-1,-1,-1,-1,-1,-1,-1,-1],"loss_changes":[4.5897736E1,1.2707689E1,4.0982437E0,5.046482E0,2.1450453E0,1.3379986E0,1.8042946E0,0E0,0E0,0E0,0E0,0E0,0E0,0E0,0E0],"parents":[2147483647,0,0,1,1,2,2,3,3,4,4,5,5,6,6],"right_children":[2,4,6,8,10,12,14,-1,-1,-1,-1,-1,-1,-1,-1],"split_conditions":[7E0,4E0,1E0,1E0,1E0,9E0,1E1,-4.819012E-2,-2.0768669E-2,-1.0655553E-2,7.239384E-3,3.8515092E-3,2.4920974E-2,3.232963E-2,5.3617235E-2],"split_indices":[0,0,1,0,1,0,0,0,0,0,0,0,0,0,0],"split_type":[0,0,0,0,0,0,0,0,0,0,0,0,0,0,0],"sum_hessian":[1E3,6.63E2,3.37E2,3.77E2,2.86E2,1.21E2,2.16E2,8.8E1,2.89E2,1.05E2,1.81E2,5.7E1,6.4E1,1.58E2,5.8E1],"tree_param":{"num_deleted":"0","num_feature":"2","num_nodes":"15","size_leaf_vector":"1"}},{"base_weights":[2.5203603E-4,-1.6628769E-1,2.2360146E-1,-3.337124E-1,-8.6441904E-2,1.296947E-1,3.5103393E-1,-4.3425255E-2,-2.380239E-2,-1.5347636E-2,5.689895E-3,5.894901E-3,2.5110265E-2,2.2467218E-2,4.1823458E-2],"categories":[],"categories_nodes":[],"categories_segments":[],"categories_sizes":[],"default_left":[0,0,0,0,0,0,0,0,0,0,0,0,0,0,0],"id":21,"left_children":[1,3,5,7,9,11,13,-1,-1,-1,-1,-1,-1,-1,-1],"loss_changes":[3.727093E1,7.644475E0,5.076248E0,1.6764355E0,3.7561555E0,2.115292E0,1.4430141E0,0E0,0E0,0E0,0E0,0E0,0E0,0E0,0E0],"parents":[2147483647,0,0,1,1,2,2,3,3,4,4,5,5,6,6],"right_children":[2,4,6,8,10,12,14,-1,-1,-1,-1,-1,-1,-1,-1],"split_conditions":[6E0,2E0,9E0,1E0,2E0,2E0,1E0,-4.3425255E-2,-2.380239E-2,-1.5347636E-2,5.689895E-3,5.894901E-3,2.5110265E-2,2.2467218E-2,4.1823458E-2],"split_indices":[0,0,0,0,1,1,1,0,0,0,0,0,0,0,0],"split_type":[0,0,0,0,0,0,0,0,0,0,0,0,0,0,0],"sum_hessian":[1E3,5.73E2,4.27E2,1.84E2,3.89E2,2.47E2,1.8E2,8.8E1,9.6E1,2.65E2,1.24E2,1.57E2,9E1,6.4E1,1.16E2],"tree_param":{"num_deleted":"0","num_feature":"2","num_nodes":"15","size_leaf_vector":"1"}},{"base_weights":[2.4522882E-4,-1.2493921E-1,2.4616896E-1,-2.2499508E-1,7.2770193E-3,1.736856E-1,3.7145543E-1,-3.638151E-2,-1.4902738E-2,-8.660915E-3,6.191799E-3,1.2812448E-2,3.2635055E-2,3.1938426E-2,4.884224E-2],"categories":[],"categories_nodes":[],"categories_segments":[],"categories_sizes":[],"default_left":[0,0,0,0,0,0,0,0,0,0,0,0,0,0,0],"id":22,"left_children":[1,3,5,7,9,11,13,-1,-1,-1,-1,-1,-1,-1,-1],"loss_changes":[3.0847363E1,8.785699E0,3.0049248E0,3.932108E0,1.4776815E0,1.4605927E0,5.93153E-1,0E0,0E0,0E0,0E0,0E0,0E0,0E0,0E0],"parents":[2147483647,0,0,1,1,2,2,3,3,4,4,5,5,6,6],"right_children":[2,4,6,8,10,12,14,-1,-1,-1,-1,-1,-1,-1,-1],"split_conditions":[7E0,4E0,2E0,1E0,1E0,1E1,1E1,-3.638151E-2,-1.4902738E-2,-8.660915E-3,6.191799E-3,1.2812448E-2,3.2635055E-2,3.1938426E-2,4.884224E-2],"split_indices":[0,0,1,1,1,0,0,0,0,0,0,0,0,0,0],"split_type":[0,0,0,0,0,0,0,0,0,0,0,0,0,0,0],"sum_hessian":[1E3,6.63E2,3.37E2,3.77E2,2.86E2,2.15E2,1.22E2,1.32E2,2.45E2,1.05E2,1.81E2,1.67E2,4.8E1,8.7E1,3.5E1],"tree_param":{"num_deleted":"0","num_feature":"2","num_nodes":"15","size_leaf_vector":"1"}},{"base_weights":[2.9307796E-4,-1.1252621E-1,2.2192536E-1,-2.3500067E-1,-2.37104E-2,1.0490349E-1,2.8669375E-1,-3.0808428E-2,-9.020628E-3,-7.427735E-3,7.6438957E-3,1.6344878E-3,1.8231113E-2,2.4260387E-2,4.0065307E-2],"categories":[],"categories_nodes":[],"categories_segments":[],"categories_sizes":[],"default_left":[0,0,0,0,0,0,0,0,0,0,0,0,0,0,0],"id":23,"left_children":[1,3,5,7,9,11,13,-1,-1,-1,-1,-1,-1,-1,-1],"loss_changes":[2.505437E1,7.2171993E0,2.5317364E0,2.924614E0,1.9604771E0,8.3334386E-1,9.9310684E-1,0E0,0E0,0E0,0E0,0E0,0E0,0E0,0E0],"parents":[2147483647,0,0,1,1,2,2,3,3,4,4,5,5,6,6],"right_children":[2,4,6,8,10,12,14,-1,-1,-1,-1,-1,-1,-1,-1],"split_conditions":[7E0,3E0,1E0,2E0,2E0,9E0,1E1,-3.0808428E-2,-9.020628E-3,-7.427735E-3,7.6438957E-3,1.6344878E-3,1.8231113E-2,2.4260387E-2,4.0065307E-2],"split_indices":[0,0,1,1,1,0,0,0,0,0,0,0,0,0,0],"split_type":[0,0,0,0,0,0,0,0,0,0,0,0,0,0,0],"sum_hessian":[1E3,6.63E2,3.37E2,2.78E2,3.85E2,1.21E2,2.16E2,1.84E2,9.4E1,2.56E2,1.29E2,5.7E1,6.4E1,1.58E2,5.8E1],"tree_param":{"num_deleted":"0","num_feature":"2","num_nodes":"15","size_leaf_vector":"1"}},{"base_weights":[3.0829158E-4,-1.845225E-1,1.12272605E-1,-3.4670103E-1,-1.3411419E-1,3.082695E-2,2.3079254E-1,-4.7243025E-2,-2.8432814E-2,-2.553005E-2,-6.3952766E-3,-4.688488E-3,7.600011E-3,1.150577E-2,2.9360402E-2],"categories":[],"categories_nodes":[],"categories_segments":[],"categories_sizes":[],"default_left":[0,0,0,0,0,0,0,0,0,0,0,0,0,0,0],"id":24,"left_children":[1,3,5,7,9,11,13,-1,-1,-1,-1,-1,-1,-1,-1],"loss_changes":[2.0735863E1,3.0437078E0,6.016317E0,5.636215E-1,2.449428E0,1.3059546E0,1.812664E0,0E0,0E0,0E0,0E0,0E0,0E0,0E0,0E0],"parents":[2147483647,0,0,1,1,2,2,3,3,4,4,5,5,6,6],"right_children":[2,4,6,8,10,12,14,-1,-1,-1,-1,-1,-1,-1,-1],"split_conditions":[4E0,1E0,8E0,1E0,1E0,1E0,1E0,-4.7243025E-2,-2.8432814E-2,-2.553005E-2,-6.3952766E-3,-4.688488E-3,7.600011E-3,1.150577E-2,2.9360402E-2],"split_indices":[0,0,0,1,1,1,1,0,0,0,0,0,0,0,0],"split_type":[0,0,0,0,0,0,0,0,0,0,0,0,0,0,0],"sum_hessian":[1E3,3.77E2,6.23E2,8.8E1,2.89E2,3.7E2,2.53E2,2.7E1,6.1E1,1.05E2,1.84E2,1.36E2,2.34E2,9E1,1.63E2],"tree_param":{"num_deleted":"0","num_feature":"2","num_nodes":"15","size_leaf_vector":"1"}},{"base_weights":[2.1374365E-4,-1.381804E-1,1.23462476E-1,-3.128812E-1,-9.733002E-2,6.39894E-2,2.3778354E-1,-4.2687442E-2,-2.5635391E-2,-1.9837936E-2,-3.8537853E-3,1.5135679E-3,1.5072035E-2,1.8328965E-2,3.2157686E-2],"categories":[],"categories_nodes":[],"categories_segments":[],"categories_sizes":[],"default_left":[0,0,0,0,0,0,0,0,0,0,0,0,0,0,0],"id":25,"left_children":[1,3,5,7,9,11,13,-1,-1,-1,-1,-1,-1,-1,-1],"loss_changes":[1.709102E1,3.3380213E0,3.5882664E0,4.6406078E-1,2.2736642E0,1.480714E0,7.675457E-1,0E0,0E0,0E0,0E0,0E0,0E0,0E0,0E0],"parents":[2147483647,0,0,1,1,2,2,3,3,4,4,5,5,6,6],"right_children":[2,4,6,8,10,12,14,-1,-1,-1,-1,-1,-1,-1,-1],"split_conditions":[5E0,1E0,9E0,1E0,1E0,2E0,2E0,-4.2687442E-2,-2.5635391E-2,-1.9837936E-2,-3.8537853E-3,1.5135679E-3,1.5072035E-2,1.8328965E-2,3.2157686E-2],"split_indices":[0,0,0,1,1,1,1,0,0,0,0,0,0,0,0],"split_type":[0,0,0,0,0,0,0,0,0,0,0,0,0,0,0],"sum_hessian":[1E3,4.71E2,5.29E2,8.8E1,3.83E2,3.49E2,1.8E2,2.7E1,6.1E1,1.4E2,2.43E2,2.24E2,1.25E2,1.11E2,6.9E1],"tree_param":{"num_deleted":"0","num_feature":"2","num_nodes":"15","size_leaf_vector":"1"}},{"base_weights":[1.6744943E-4,-8.454507E-2,1.6658445E-1,-2.1120489E-1,-3.555213E-2,1.1422807E-1,2.57173E-1,-2.8236076E-2,-1.4374017E-2,-8.257763E-3,5.7266927E-3,8.01701E-3,2.2866707E-2,2.1947708E-2,3.42175E-2],"categories":[],"categories_nodes":[],"categories_segments":[],"categories_sizes":[],"default_left":[0,0,0,0,0,0,0,0,0,0,0,0,0,0,0],"id":26,"left_children":[1,3,5,7,9,11,13,-1,-1,-1,-1,-1,-1,-1,-1],"loss_changes":[1.4125785E1,4.112902E0,1.57372E0,8.4750843E-1,2.099863E0,8.2354045E-1,3.1902027E-1,0E0,0E0,0E0,0E0,0E0,0E0,0E0,0E0],"parents":[2147483647,0,0,1,1,2,2,3,3,4,4,5,5,6,6],"right_children":[2,4,6,8,10,12,14,-1,-1,-1,-1,-1,-1,-1,-1],"split_conditions":[7E0,2E0,2E0,1E0,2E0,1E1,1E1,-2.8236076E-2,-1.4374017E-2,-8.257763E-3,5.7266927E-3,8.01701E-3,2.2866707E-2,2.1947708E-2,3.42175E-2],"split_indices":[0,0,1,0,1,0,0,0,0,0,0,0,0,0,0],"split_type":[0,0,0,0,0,0,0,0,0,0,0,0,0,0,0],"sum_hessian":[1E3,6.63E2,3.37E2,1.84E2,4.79E2,2.15E2,1.22E2,8.8E1,9.6E1,3.18E2,1.61E2,1.67E2,4.8E1,8.7E1,3.5E1],"tree_param":{"num_deleted":"0","num_feature":"2","num_nodes":"15","size_leaf_vector":"1"}},{"base_weights":[1.925801E-4,-1.3952486E-1,8.48288E-2,-1.8930115E-1,-3.3524636E-2,2.5332801E-2,1.7139648E-1,-2.95003E-2,-1.563142E-2,-1.6483845E-2,9.195138E-4,-3.3763421E-3,5.967684E-3,7.834673E-3,2.2198264E-2],"categories":[],"categories_nodes":[],"categories_segments":[],"categories_sizes":[],"default_left":[0,0,0,0,0,0,0,0,0,0,0,0,0,0,0],"id":27,"left_children":[1,3,5,7,9,11,13,-1,-1,-1,-1,-1,-1,-1,-1],"loss_changes":[1.1848818E1,1.9880939E0,3.2095265E0,8.4998894E-1,6.8589866E-1,7.549976E-1,1.178194E0,0E0,0E0,0E0,0E0,0E0,0E0,0E0,0E0],"parents":[2147483647,0,0,1,1,2,2,3,3,4,4,5,5,6,6],"right_children":[2,4,6,8,10,12,14,-1,-1,-1,-1,-1,-1,-1,-1],"split_conditions":[4E0,2E0,8E0,1E0,1E0,1E0,1E0,-2.95003E-2,-1.563142E-2,-1.6483845E-2,9.195138E-4,-3.3763421E-3,5.967684E-3,7.834673E-3,2.2198264E-2],"split_indices":[0,1,0,0,0,1,1,0,0,0,0,0,0,0,0],"split_type":[0,0,0,0,0,0,0,0,0,0,0,0,0,0,0],"sum_hessian":[1E3,3.77E2,6.23E2,2.56E2,1.21E2,3.7E2,2.53E2,5.9E1,1.97E2,2.9E1,9.2E1,1.36E2,2.34E2,9E1,1.63E2],"tree_param":{"num_deleted":"0","num_feature":"2","num_nodes":"15","size_leaf_vector":"1"}},{"base_weights":[1.4528213E-4,-1.2573294E-1,7.63982E-2,-2.1648385E-1,-7.615732E-2,5.036656E-3,1.3676615E-1,-3.300372E-2,-1.8444633E-2,-1.8041521E-2,-4.080517E-3,-4.895281E-3,3.6453397E-3,9.261188E-3,2.1319345E-2],"categories":[],"categories_nodes":[],"categories_segments":[],"categories_sizes":[],"default_left":[0,0,0,0,0,0,0,0,0,0,0,0,0,0,0],"id":28,"left_children":[1,3,5,7,9,11,13,-1,-1,-1,-1,-1,-1,-1,-1],"loss_changes":[9.617786E0,1.6841478E0,2.6874714E0,4.2297554E-1,8.993304E-1,4.8858613E-1,1.1208677E0,0E0,0E0,0E0,0E0,0E0,0E0,0E0,0E0],"parents":[2147483647,0,0,1,1,2,2,3,3,4,4,5,5,6,6],"right_children":[2,4,6,8,10,12,14,-1,-1,-1,-1,-1,-1,-1,-1],"split_conditions":[4E0,1E0,7E0,1E0,1E0,1E0,2E0,-3.300372E-2,-1.8444633E-2,-1.8041521E-2,-4.080517E-3,-4.895281E-3,3.6453397E-3,9.261188E-3,2.1319345E-2],"split_indices":[0,1,0,0,0,1,1,0,0,0,0,0,0,0,0],"split_type":[0,0,0,0,0,0,0,0,0,0,0,0,0,0,0],"sum_hessian":[1E3,3.77E2,6.23E2,1.32E2,2.45E2,2.86E2,3.37E2,2.7E1,1.05E2,6.1E1,1.84E2,1.05E2,1.81E2,2.15E2,1.22E2],"tree_param":{"num_deleted":"0","num_feature":"2","num_nodes":"15","size_leaf_vector":"1"}},{"base_weights":[8.654681E-5,-9.361478E-2,8.35336E-2,-1.6834527E-1,-5.2144814E-2,5.7537172E-2,2.208773E-1,-2.1668619E-2,-9.584621E-3,-1.626647E-2,-2.3848182E-3,-2.9360663E-4,9.327202E-3,1.8277792E-2,2.6659934E-2],"categories":[],"categories_nodes":[],"categories_segments":[],"categories_sizes":[],"default_left":[0,0,0,0,0,0,0,0,0,0,0,0,0,0,0],"id":29,"left_children":[1,3,5,7,9,11,13,-1,-1,-1,-1,-1,-1,-1,-1],"loss_changes":[7.8347383E0,1.4539833E0,1.8796277E0,5.680165E-1,9.499597E-1,9.662417E-1,9.7598076E-2,0E0,0E0,0E0,0E0,0E0,0E0,0E0,0E0],"parents":[2147483647,0,0,1,1,2,2,3,3,4,4,5,5,6,6],"right_children":[2,4,6,8,10,12,14,-1,-1,-1,-1,-1,-1,-1,-1],"split_conditions":[5E0,1E0,1E1,3E0,1E0,1E0,2E0,-2.1668619E-2,-9.584621E-3,-1.626647E-2,-2.3848182E-3,-2.9360663E-4,9.327202E-3,1.8277792E-2,2.6659934E-2],"split_indices":[0,1,0,0,0,1,1,0,0,0,0,0,0,0,0],"split_type":[0,0,0,0,0,0,0,0,0,0,0,0,0,0,0],"sum_hessian":[1E3,4.71E2,5.29E2,1.67E2,3.04E2,4.46E2,8.3E1,9.9E1,6.8E1,6.1E1,2.43E2,1.66E2,2.8E2,4.8E1,3.5E1],"tree_param":{"num_deleted":"0","num_feature":"2","num_nodes":"15","size_leaf_vector":"1"}},{"base_weights":[8.193087E-5,-5.767602E-2,1.1354702E-1,-1.4342356E-1,-2.4507336E-2,8.484559E-2,1.9932461E-1,-2.1355575E-2,-1.0273213E-2,-5.9139277E-3,4.3838937E-3,1.9540533E-3,1.2415215E-2,1.6487328E-2,2.4067992E-2],"categories":[],"categories_nodes":[],"categories_segments":[],"categories_sizes":[],"default_left":[0,0,0,0,0,0,0,0,0,0,0,0,0,0,0],"id":30,"left_children":[1,3,5,7,9,11,13,-1,-1,-1,-1,-1,-1,-1,-1],"loss_changes":[6.566613E0,1.8849895E0,8.152242E-1,5.060098E-1,1.1387354E0,6.5213823E-1,7.9996824E-2,0E0,0E0,0E0,0E0,0E0,0E0,0E0,0E0],"parents":[2147483647,0,0,1,1,2,2,3,3,4,4,5,5,6,6],"right_children":[2,4,6,8,10,12,14,-1,-1,-1,-1,-1,-1,-1,-1],"split_conditions":[7E0,2E0,1E1,1E0,2E0,1E0,2E0,-2.1355575E-2,-1.0273213E-2,-5.9139277E-3,4.3838937E-3,1.9540533E-3,1.2415215E-2,1.6487328E-2,2.4067992E-2],"split_indices":[0,0,0,1,1,1,1,0,0,0,0,0,0,0,0],"split_type":[0,0,0,0,0,0,0,0,0,0,0,0,0,0,0],"sum_hessian":[1E3,6.63E2,3.37E2,1.84E2,4.79E2,2.54E2,8.3E1,6.6E1,1.18E2,3.18E2,1.61E2,9.6E1,1.58E2,4.8E1,3.5E1],"tree_param":{"num_deleted":"0","num_feature":"2","num_nodes":"15","size_leaf_vector":"1"}},{"base_weights":[9.547369E-5,-9.470855E-2,5.7524677E-2,-1.3257314E-1,-1.4168306E-2,2.4779262E-2,1.3753264E-1,-2.080052E-2,-1.0904538E-2,-1.0580893E-2,1.5545533E-3,-2.6146052E-3,5.4126945E-3,9.983569E-3,1.7987512E-2],"categories":[],"categories_nodes":[],"categories_segments":[],"categories_sizes":[],"default_left":[0,0,0,0,0,0,0,0,0,0,0,0,0,0,0],"id":31,"left_children":[1,3,5,7,9,11,13,-1,-1,-1,-1,-1,-1,-1,-1],"loss_changes":[5.4554124E0,1.1508789E0,1.6314061E0,4.334283E-1,3.338502E-1,6.649909E-1,2.7095103E-1,0E0,0E0,0E0,0E0,0E0,0E0,0E0,0E0],"parents":[2147483647,0,0,1,1,2,2,3,3,4,4,5,5,6,6],"right_children":[2,4,6,8,10,12,14,-1,-1,-1,-1,-1,-1,-1,-1],"split_conditions":[4E0,2E0,9E0,1E0,1E0,1E0,1E1,-2.080052E-2,-1.0904538E-2,-1.0580893E-2,1.5545533E-3,-2.6146052E-3,5.4126945E-3,9.983569E-3,1.7987512E-2],"split_indices":[0,1,0,0,0,1,0,0,0,0,0,0,0,0,0],"split_type":[0,0,0,0,0,0,0,0,0,0,0,0,0,0,0],"sum_hessian":[1E3,3.77E2,6.23E2,2.56E2,1.21E2,4.43E2,1.8E2,5.9E1,1.97E2,2.9E1,9.2E1,1.62E2,2.81E2,9.7E1,8.3E1],"tree_param":{"num_deleted":"0","num_feature":"2","num_nodes":"15","size_leaf_vector":"1"}},{"base_weights":[7.597516E-5,-4.769012E-2,9.39121E-2,-9.9197194E-2,-1.0337367E-2,6.03863E-2,1.5202318E-1,-1.3964518E-2,-1.9385893E-3,-3.1688977E-3,3.1952646E-3,3.9401446E-3,1.31102E-2,1.3075364E-2,1.9979252E-2],"categories":[],"categories_nodes":[],"categories_segments":[],"categories_sizes":[],"default_left":[0,0,0,0,0,0,0,0,0,0,0,0,0,0,0],"id":32,"left_children":[1,3,5,7,9,11,13,-1,-1,-1,-1,-1,-1,-1,-1],"loss_changes":[4.4911466E0,1.2764647E0,6.493182E-1,8.9796233E-1,3.4955505E-1,3.153695E-1,9.884858E-2,0E0,0E0,0E0,0E0,0E0,0E0,0E0,0E0],"parents":[2147483647,0,0,1,1,2,2,3,3,4,4,5,5,6,6],"right_children":[2,4,6,8,10,12,14,-1,-1,-1,-1,-1,-1,-1,-1],"split_conditions":[7E0,3E0,2E0,2E0,2E0,1E1,1E1,-1.3964518E-2,-1.9385893E-3,-3.1688977E-3,3.1952646E-3,3.9401446E-3,1.31102E-2,1.3075364E-2,1.9979252E-2],"split_indices":[0,0,1,1,1,0,0,0,0,0,0,0,0,0,0],"split_type":[0,0,0,0,0,0,0,0,0,0,0,0,0,0,0],"sum_hessian":[1E3,6.63E2,3.37E2,2.78E2,3.85E2,2.15E2,1.22E2,1.84E2,9.4E1,2.56E2,1.29E2,1.67E2,4.8E1,8.7E1,3.5E1],"tree_param":{"num_deleted":"0","num_feature":"2","num_nodes":"15","size_leaf_vector":"1"}},{"base_weights":[1.0256249E-4,-7.769045E-2,4.7227014E-2,-1.3917014E-1,-4.413562E-2,2.0403134E-2,1.127661E-1,-2.2320116E-2,-1.15660345E-2,-1.1275395E-2,-2.0900636E-3,-2.2884158E-3,4.535145E-3,8.654744E-3,1.5310503E-2],"categories":[],"categories_nodes":[],"categories_segments":[],"categories_sizes":[],"default_left":[0,0,0,0,0,0,0,0,0,0,0,0,0,0,0],"id":33,"left_children":[1,3,5,7,9,11,13,-1,-1,-1,-1,-1,-1,-1,-1],"loss_changes":[3.6732883E0,7.73649E-1,1.0946993E0,2.36933E-1,3.8985237E-1,4.8053342E-1,1.7818046E-1,0E0,0E0,0E0,0E0,0E0,0E0,0E0,0E0],"parents":[2147483647,0,0,1,1,2,2,3,3,4,4,5,5,6,6],"right_children":[2,4,6,8,10,12,14,-1,-1,-1,-1,-1,-1,-1,-1],"split_conditions":[4E0,1E0,9E0,1E0,1E0,1E0,2E0,-2.2320116E-2,-1.15660345E-2,-1.1275395E-2,-2.0900636E-3,-2.2884158E-3,4.535145E-3,8.654744E-3,1.5310503E-2],"split_indices":[0,1,0,0,0,1,1,0,0,0,0,0,0,0,0],"split_type":[0,0,0,0,0,0,0,0,0,0,0,0,0,0,0],"sum_hessian":[1E3,3.77E2,6.23E2,1.32E2,2.45E2,4.43E2,1.8E2,2.7E1,1.05E2,6.1E1,1.84E2,1.62E2,2.81E2,1.11E2,6.9E1],"tree_param":{"num_deleted":"0","num_feature":"2","num_nodes":"15","size_leaf_vector":"1"}},{"base_weights":[7.129226E-5,-3.946785E-2,7.774561E-2,-1.3426891E-1,-2.4751246E-2,4.9596187E-2,1.2654665E-1,-2.0167818E-2,-1.016604E-2,-4.9423655E-3,2.3708295E-3,3.1746947E-3,1.0978143E-2,1.091801E-2,1.6548304E-2],"categories":[],"categories_nodes":[],"categories_segments":[],"categories_sizes":[],"default_left":[0,0,0,0,0,0,0,0,0,0,0,0,0,0,0],"id":34,"left_children":[1,3,5,7,9,11,13,-1,-1,-1,-1,-1,-1,-1,-1],"loss_changes":[3.0773153E0,9.23056E-1,4.5804143E-1,1.7512965E-1,6.898451E-1,2.2855514E-1,6.510401E-2,0E0,0E0,0E0,0E0,0E0,0E0,0E0,0E0],"parents":[2147483647,0,0,1,1,2,2,3,3,4,4,5,5,6,6],"right_children":[2,4,6,8,10,12,14,-1,-1,-1,-1,-1,-1,-1,-1],"split_conditions":[7E0,1E0,2E0,1E0,2E0,1E1,1E1,-2.0167818E-2,-1.016604E-2,-4.9423655E-3,2.3708295E-3,3.1746947E-3,1.0978143E-2,1.091801E-2,1.6548304E-2],"split_indices":[0,0,1,1,1,0,0,0,0,0,0,0,0,0,0],"split_type":[0,0,0,0,0,0,0,0,0,0,0,0,0,0,0],"sum_hessian":[1E3,6.63E2,3.37E2,8.8E1,5.75E2,2.15E2,1.22E2,2.7E1,6.1E1,3.81E2,1.94E2,1.67E2,4.8E1,8.7E1,3.5E1],"tree_param":{"num_deleted":"0","num_feature":"2","num_nodes":"15","size_leaf_vector":"1"}},{"base_weights":[7.286051E-5,-6.496652E-2,3.9471604E-2,-9.215783E-2,-7.1539585E-3,1.7824443E-2,9.235485E-2,-1.4326455E-2,-7.6205507E-3,-7.2980025E-3,1.415718E-3,-1.8536289E-3,3.8778253E-3,6.61805E-3,1.2179213E-2],"categories":[],"categories_nodes":[],"categories_segments":[],"categories_sizes":[],"default_left":[0,0,0,0,0,0,0,0,0,0,0,0,0,0,0],"id":35,"left_children":[1,3,5,7,9,11,13,-1,-1,-1,-1,-1,-1,-1,-1],"loss_changes":[2.5675967E0,5.9355664E-1,7.126915E-1,1.986072E-1,1.7217824E-1,3.3900058E-1,1.3140059E-1,0E0,0E0,0E0,0E0,0E0,0E0,0E0,0E0],"parents":[2147483647,0,0,1,1,2,2,3,3,4,4,5,5,6,6],"right_children":[2,4,6,8,10,12,14,-1,-1,-1,-1,-1,-1,-1,-1],"split_conditions":[4E0,2E0,9E0,1E0,1E0,1E0,1E1,-1.4326455E-2,-7.6205507E-3,-7.2980025E-3,1.415718E-3,-1.8536289E-3,3.8778253E-3,6.61805E-3,1.2179213E-2],"split_indices":[0,1,0,0,0,1,0,0,0,0,0,0,0,0,0],"split_type":[0,0,0,0,0,0,0,0,0,0,0,0,0,0,0],"sum_hessian":[1E3,3.77E2,6.23E2,2.56E2,1.21E2,4.43E2,1.8E2,5.9E1,1.97E2,2.9E1,9.2E1,1.62E2,2.81E2,9.7E1,8.3E1],"tree_param":{"num_deleted":"0","num_feature":"2","num_nodes":"15","size_leaf_vector":"1"}},{"base_weights":[5.85879E-5,-3.969521E-2,5.3373124E-2,-1.09307535E-1,-2.6865598E-2,3.1030854E-2,9.060249E-2,-1.6841585E-2,-8.085044E-3,-6.4832172E-3,-4.1220468E-4,8.5009955E-4,6.2536984E-3,5.0373054E-3,1.1553976E-2],"categories":[],"categories_nodes":[],"categories_segments":[],"categories_sizes":[],"default_left":[0,0,0,0,0,0,0,0,0,0,0,0,0,0,0],"id":36,"left_children":[1,3,5,7,9,11,13,-1,-1,-1,-1,-1,-1,-1,-1],"loss_changes":[2.1236937E0,5.097023E-1,3.5319388E-1,1.3608599E-1,4.1939119E-1,1.9041225E-1,1.5469372E-1,0E0,0E0,0E0,0E0,0E0,0E0,0E0,0E0],"parents":[2147483647,0,0,1,1,2,2,3,3,4,4,5,5,6,6],"right_children":[2,4,6,8,10,12,14,-1,-1,-1,-1,-1,-1,-1,-1],"split_conditions":[6E0,1E0,2E0,1E0,1E0,9E0,8E0,-1.6841585E-2,-8.085044E-3,-6.4832172E-3,-4.1220468E-4,8.5009955E-4,6.2536984E-3,5.0373054E-3,1.1553976E-2],"split_indices":[0,0,1,1,1,0,0,0,0,0,0,0,0,0,0],"split_type":[0,0,0,0,0,0,0,0,0,0,0,0,0,0,0],"sum_hessian":[1E3,5.73E2,4.27E2,8.8E1,4.85E2,2.68E2,1.59E2,2.7E1,6.1E1,1.81E2,3.04E2,1.57E2,1.11E2,6.2E1,9.7E1],"tree_param":{"num_deleted":"0","num_feature":"2","num_nodes":"15","size_leaf_vector":"1"}},{"base_weights":[4.462505E-5,-5.4034237E-2,3.2803863E-2,-7.745504E-2,-4.254069E-3,2.585323E-3,5.836575E-2,-1.0004989E-2,-5.2794474E-3,-3.6418957E-3,2.9589962E-3,-8.3754025E-4,2.2246963E-3,1.6340374E-3,8.172396E-3],"categories":[],"categories_nodes":[],"categories_segments":[],"categories_sizes":[],"default_left":[0,0,0,0,0,0,0,0,0,0,0,0,0,0,0],"id":37,"left_children":[1,3,5,7,9,11,13,-1,-1,-1,-1,-1,-1,-1,-1],"loss_changes":[1.7751263E0,4.403776E-1,4.818536E-1,1.3791871E-1,1.3388555E-1,6.20365E-2,3.3045805E-1,0E0,0E0,0E0,0E0,0E0,0E0,0E0,0E0],"parents":[2147483647,0,0,1,1,2,2,3,3,4,4,5,5,6,6],"right_children":[2,4,6,8,10,12,14,-1,-1,-1,-1,-1,-1,-1,-1],"split_conditions":[4E0,2E0,7E0,1E0,2E0,2E0,1E0,-1.0004989E-2,-5.2794474E-3,-3.6418957E-3,2.9589962E-3,-8.3754025E-4,2.2246963E-3,1.6340374E-3,8.172396E-3],"split_indices":[0,1,0,1,0,1,1,0,0,0,0,0,0,0,0],"split_type":[0,0,0,0,0,0,0,0,0,0,0,0,0,0,0],"sum_hessian":[1E3,3.77E2,6.23E2,2.56E2,1.21E2,2.86E2,3.37E2,1.32E2,1.24E2,6.2E1,5.9E1,1.84E2,1.02E2,1.21E2,2.16E2],"tree_param":{"num_deleted":"0","num_feature":"2","num_nodes":"15","size_leaf_vector":"1"}},{"base_weights":[3.5350036E-5,-4.025958E-2,3.592058E-2,-7.728789E-2,-1.9731661E-2,2.4692787E-2,9.524085E-2,-1.4252809E-2,-6.378425E-3,-6.846744E-3,-7.2671135E-4,-3.6335408E-4,4.143942E-3,7.6300525E-3,1.1837515E-2],"categories":[],"categories_nodes":[],"categories_segments":[],"categories_sizes":[],"default_left":[0,0,0,0,0,0,0,0,0,0,0,0,0,0,0],"id":38,"left_children":[1,3,5,7,9,11,13,-1,-1,-1,-1,-1,-1,-1,-1],"loss_changes":[1.448885E0,3.5724872E-1,3.5064727E-1,1.3891363E-1,1.847806E-1,2.121942E-1,2.7774334E-2,0E0,0E0,0E0,0E0,0E0,0E0,0E0,0E0],"parents":[2147483647,0,0,1,1,2,2,3,3,4,4,5,5,6,6],"right_children":[2,4,6,8,10,12,14,-1,-1,-1,-1,-1,-1,-1,-1],"split_conditions":[5E0,1E0,1E1,1E0,1E0,1E0,2E0,-1.4252809E-2,-6.378425E-3,-6.846744E-3,-7.2671135E-4,-3.6335408E-4,4.143942E-3,7.6300525E-3,1.1837515E-2],"split_indices":[0,1,0,0,0,1,1,0,0,0,0,0,0,0,0],"split_type":[0,0,0,0,0,0,0,0,0,0,0,0,0,0,0],"sum_hessian":[1E3,4.71E2,5.29E2,1.67E2,3.04E2,4.46E2,8.3E1,2.7E1,1.4E2,6.1E1,2.43E2,1.66E2,2.8E2,4.8E1,3.5E1],"tree_param":{"num_deleted":"0","num_feature":"2","num_nodes":"15","size_leaf_vector":"1"}},{"base_weights":[2.6917034E-5,-4.442458E-2,2.6954222E-2,-6.4553E-2,-1.6587763E-3,7.483772E-3,5.5287227E-2,-7.745626E-3,-3.0968655E-3,-2.9302572E-3,2.7394856E-3,-1.779143E-4,2.5082738E-3,1.1349207E-3,7.9330355E-3],"categories":[],"categories_nodes":[],"categories_segments":[],"categories_sizes":[],"default_left":[0,0,0,0,0,0,0,0,0,0,0,0,0,0,0],"id":39,"left_children":[1,3,5,7,9,11,13,-1,-1,-1,-1,-1,-1,-1,-1],"loss_changes":[1.1993535E0,3.2527822E-1,3.4381977E-1,1.08971715E-1,9.878736E-2,6.05242E-2,2.674272E-1,0E0,0E0,0E0,0E0,0E0,0E0,0E0,0E0],"parents":[2147483647,0,0,1,1,2,2,3,3,4,4,5,5,6,6],"right_children":[2,4,6,8,10,12,14,-1,-1,-1,-1,-1,-1,-1,-1],"split_conditions":[4E0,2E0,8E0,3E0,2E0,2E0,1E0,-7.745626E-3,-3.0968655E-3,-2.9302572E-3,2.7394856E-3,-1.779143E-4,2.5082738E-3,1.1349207E-3,7.9330355E-3],"split_indices":[0,1,0,0,0,1,1,0,0,0,0,0,0,0,0],"split_type":[0,0,0,0,0,0,0,0,0,0,0,0,0,0,0],"sum_hessian":[1E3,3.77E2,6.23E2,2.56E2,1.21E2,3.7E2,2.53E2,1.84E2,7.2E1,6.2E1,5.9E1,2.43E2,1.27E2,9E1,1.63E2],"tree_param":{"num_deleted":"0","num_feature":"2","num_nodes":"15","size_leaf_vector":"1"}},{"base_weights":[2.4579294E-5,-2.2428023E-2,4.4132575E-2,-7.743056E-2,-1.38904285E-2,2.5871158E-2,7.5842604E-2,-1.2131531E-2,-5.6362767E-3,-2.8023124E-3,1.3866395E-3,1.4443526E-3,6.452363E-3,6.5444396E-3,9.915372E-3],"categories":[],"categories_nodes":[],"categories_segments":[],"categories_sizes":[],"default_left":[0,0,0,0,0,0,0,0,0,0,0,0,0,0,0],"id":40,"left_children":[1,3,5,7,9,11,13,-1,-1,-1,-1,-1,-1,-1,-1],"loss_changes":[9.923194E-1,3.1073177E-1,1.9376355E-1,7.544774E-2,2.2634114E-1,9.447661E-2,2.3325384E-2,0E0,0E0,0E0,0E0,0E0,0E0,0E0,0E0],"parents":[2147483647,0,0,1,1,2,2,3,3,4,4,5,5,6,6],"right_children":[2,4,6,8,10,12,14,-1,-1,-1,-1,-1,-1,-1,-1],"split_conditions":[7E0,1E0,2E0,1E0,2E0,1E1,1E1,-1.2131531E-2,-5.6362767E-3,-2.8023124E-3,1.3866395E-3,1.4443526E-3,6.452363E-3,6.5444396E-3,9.915372E-3],"split_indices":[0,0,1,1,1,0,0,0,0,0,0,0,0,0,0],"split_type":[0,0,0,0,0,0,0,0,0,0,0,0,0,0,0],"sum_hessian":[1E3,6.63E2,3.37E2,8.8E1,5.75E2,2.15E2,1.22E2,2.7E1,6.1E1,3.81E2,1.94E2,1.67E2,4.8E1,8.7E1,3.5E1],"tree_param":{"num_deleted":"0","num_feature":"2","num_nodes":"15","size_leaf_vector":"1"}},{"base_weights":[2.7278857E-5,-3.711224E-2,2.2525212E-2,-7.098204E-2,-1.8649654E-2,1.4752867E-2,7.231466E-2,-1.0961705E-2,-6.0106926E-3,-5.08174E-3,-7.7683036E-4,-6.017895E-4,2.7049752E-3,5.8202758E-3,8.95138E-3],"categories":[],"categories_nodes":[],"categories_segments":[],"categories_sizes":[],"default_left":[0,0,0,0,0,0,0,0,0,0,0,0,0,0,0],"id":41,"left_children":[1,3,5,7,9,11,13,-1,-1,-1,-1,-1,-1,-1,-1],"loss_changes":[8.3723396E-1,2.3504871E-1,2.4040914E-1,4.9292505E-2,8.571226E-2,1.3834268E-1,1.5177906E-2,0E0,0E0,0E0,0E0,0E0,0E0,0E0,0E0],"parents":[2147483647,0,0,1,1,2,2,3,3,4,4,5,5,6,6],"right_children":[2,4,6,8,10,12,14,-1,-1,-1,-1,-1,-1,-1,-1],"split_conditions":[4E0,1E0,1E1,1E0,1E0,1E0,2E0,-1.0961705E-2,-6.0106926E-3,-5.08174E-3,-7.7683036E-4,-6.017895E-4,2.7049752E-3,5.8202758E-3,8.95138E-3],"split_indices":[0,1,0,0,0,1,1,0,0,0,0,0,0,0,0],"split_type":[0,0,0,0,0,0,0,0,0,0,0,0,0,0,0],"sum_hessian":[1E3,3.77E2,6.23E2,1.32E2,2.45E2,5.4E2,8.3E1,2.7E1,1.05E2,6.1E1,1.84E2,2.01E2,3.39E2,4.8E1,3.5E1],"tree_param":{"num_deleted":"0","num_feature":"2","num_nodes":"15","size_leaf_vector":"1"}},{"base_weights":[1.8590494E-5,-1.8777948E-2,3.6944278E-2,-4.7876585E-2,-7.5237257E-3,9.472124E-3,5.22192E-2,-7.515345E-3,-3.21167E-3,-1.9348763E-3,1.5807822E-3,-1.3398877E-3,2.973437E-3,2.424077E-3,6.1113206E-3],"categories":[],"categories_nodes":[],"categories_segments":[],"categories_sizes":[],"default_left":[0,0,0,0,0,0,0,0,0,0,0,0,0,0,0],"id":42,"left_children":[1,3,5,7,9,11,13,-1,-1,-1,-1,-1,-1,-1,-1],"loss_changes":[6.954628E-1,2.170882E-1,1.4134201E-1,7.7114165E-2,1.3273616E-1,5.6935385E-2,5.2516878E-2,0E0,0E0,0E0,0E0,0E0,0E0,0E0,0E0],"parents":[2147483647,0,0,1,1,2,2,3,3,4,4,5,5,6,6],"right_children":[2,4,6,8,10,12,14,-1,-1,-1,-1,-1,-1,-1,-1],"split_conditions":[7E0,2E0,1E0,1E0,2E0,9E0,8E0,-7.515345E-3,-3.21167E-3,-1.9348763E-3,1.5807822E-3,-1.3398877E-3,2.973437E-3,2.424077E-3,6.1113206E-3],"split_indices":[0,0,1,1,1,0,0,0,0,0,0,0,0,0,0],"split_type":[0,0,0,0,0,0,0,0,0,0,0,0,0,0,0],"sum_hessian":[1E3,6.63E2,3.37E2,1.84E2,4.79E2,1.21E2,2.16E2,6.6E1,1.18E2,3.18E2,1.61E2,5.7E1,6.4E1,5.3E1,1.63E2],"tree_param":{"num_deleted":"0","num_feature":"2","num_nodes":"15","size_leaf_vector":"1"}},{"base_weights":[1.5823001E-5,-3.0707464E-2,1.862702E-2,-4.585867E-2,1.4611267E-3,1.2144692E-2,6.015454E-2,-5.577114E-3,-2.010983E-3,-1.8643852E-3,2.2547003E-3,-4.6094187E-4,2.2062885E-3,4.811564E-3,7.4869855E-3],"categories":[],"categories_nodes":[],"categories_segments":[],"categories_sizes":[],"default_left":[0,0,0,0,0,0,0,0,0,0,0,0,0,0,0],"id":43,"left_children":[1,3,5,7,9,11,13,-1,-1,-1,-1,-1,-1,-1,-1],"loss_changes":[5.7294095E-1,1.8430156E-1,1.6724712E-1,6.447375E-2,5.2139957E-2,8.999994E-2,1.1278689E-2,0E0,0E0,0E0,0E0,0E0,0E0,0E0,0E0],"parents":[2147483647,0,0,1,1,2,2,3,3,4,4,5,5,6,6],"right_children":[2,4,6,8,10,12,14,-1,-1,-1,-1,-1,-1,-1,-1],"split_conditions":[4E0,2E0,1E1,3E0,2E0,1E0,2E0,-5.577114E-3,-2.010983E-3,-1.8643852E-3,2.2547003E-3,-4.6094187E-4,2.2062885E-3,4.811564E-3,7.4869855E-3],"split_indices":[0,1,0,0,0,1,1,0,0,0,0,0,0,0,0],"split_type":[0,0,0,0,0,0,0,0,0,0,0,0,0,0,0],"sum_hessian":[1E3,3.77E2,6.23E2,2.56E2,1.21E2,5.4E2,8.3E1,1.84E2,7.2E1,6.2E1,5.9E1,2.01E2,3.39E2,4.8E1,3.5E1],"tree_param":{"num_deleted":"0","num_feature":"2","num_nodes":"15","size_leaf_vector":"1"}},{"base_weights":[2.1069078E-5,-1.570814E-2,3.0920992E-2,-5.429282E-2,-9.718999E-3,1.7106863E-2,5.492856E-2,-8.642196E-3,-3.89072E-3,-1.9328756E-3,9.156108E-4,2.2457531E-4,3.0886412E-3,4.912428E-3,6.7591006E-3],"categories":[],"categories_nodes":[],"categories_segments":[],"categories_sizes":[],"default_left":[0,0,0,0,0,0,0,0,0,0,0,0,0,0,0],"id":44,"left_children":[1,3,5,7,9,11,13,-1,-1,-1,-1,-1,-1,-1,-1],"loss_changes":[4.8700306E-1,1.5291546E-1,1.111559E-1,4.0632635E-2,1.0465483E-1,4.416298E-2,5.7196915E-3,0E0,0E0,0E0,0E0,0E0,0E0,0E0,0E0],"parents":[2147483647,0,0,1,1,2,2,3,3,4,4,5,5,6,6],"right_children":[2,4,6,8,10,12,14,-1,-1,-1,-1,-1,-1,-1,-1],"split_conditions":[7E0,1E0,2E0,1E0,2E0,9E0,1E1,-8.642196E-3,-3.89072E-3,-1.9328756E-3,9.156108E-4,2.2457531E-4,3.0886412E-3,4.912428E-3,6.7591006E-3],"split_indices":[0,0,1,1,1,0,0,0,0,0,0,0,0,0,0],"split_type":[0,0,0,0,0,0,0,0,0,0,0,0,0,0,0],"sum_hessian":[1E3,6.63E2,3.37E2,8.8E1,5.75E2,2.15E2,1.22E2,2.7E1,6.1E1,3.81E2,1.94E2,1.04E2,1.11E2,8.7E1,3.5E1],"tree_param":{"num_deleted":"0","num_feature":"2","num_nodes":"15","size_leaf_vector":"1"}},{"base_weights":[2.0421763E-5,-2.1251468E-2,1.8964406E-2,-4.365061E-2,-8.843903E-3,1.3145357E-2,4.970429E-2,-5.6528393E-3,-2.435454E-3,-3.5079245E-3,-2.1413004E-4,3.9811488E-4,2.9558775E-3,4.0376633E-3,6.1019594E-3],"categories":[],"categories_nodes":[],"categories_segments":[],"categories_sizes":[],"default_left":[0,0,0,0,0,0,0,0,0,0,0,0,0,0,0],"id":45,"left_children":[1,3,5,7,9,11,13,-1,-1,-1,-1,-1,-1,-1,-1],"loss_changes":[4.0378034E-1,1.307916E-1,9.415138E-2,4.036972E-2,5.3557638E-2,6.7118265E-2,6.4020306E-3,0E0,0E0,0E0,0E0,0E0,0E0,0E0,0E0],"parents":[2147483647,0,0,1,1,2,2,3,3,4,4,5,5,6,6],"right_children":[2,4,6,8,10,12,14,-1,-1,-1,-1,-1,-1,-1,-1],"split_conditions":[5E0,1E0,1E1,3E0,1E0,2E0,2E0,-5.6528393E-3,-2.435454E-3,-3.5079245E-3,-2.1413004E-4,3.9811488E-4,2.9558775E-3,4.0376633E-3,6.1019594E-3],"split_indices":[0,1,0,0,0,1,1,0,0,0,0,0,0,0,0],"split_type":[0,0,0,0,0,0,0,0,0,0,0,0,0,0,0],"sum_hessian":[1E3,4.71E2,5.29E2,1.67E2,3.04E2,4.46E2,8.3E1,9.9E1,6.8E1,6.1E1,2.43E2,2.87E2,1.59E2,4.8E1,3.5E1],"tree_param":{"num_deleted":"0","num_feature":"2","num_nodes":"15","size_leaf_vector":"1"}},{"base_weights":[2.0020272E-5,-1.3057352E-2,2.571042E-2,-4.4885162E-2,-8.116845E-3,5.049217E-3,3.7207916E-2,-7.2637456E-3,-3.1627913E-3,-1.5959209E-3,7.2877714E-4,-1.2240928E-3,2.0399666E-3,1.573032E-3,4.405293E-3],"categories":[],"categories_nodes":[],"categories_segments":[],"categories_sizes":[],"default_left":[0,0,0,0,0,0,0,0,0,0,0,0,0,0,0],"id":46,"left_children":[1,3,5,7,9,11,13,-1,-1,-1,-1,-1,-1,-1,-1],"loss_changes":[3.366346E-1,1.0404672E-1,8.010475E-2,3.0447423E-2,6.970206E-2,3.262991E-2,3.120917E-2,0E0,0E0,0E0,0E0,0E0,0E0,0E0,0E0],"parents":[2147483647,0,0,1,1,2,2,3,3,4,4,5,5,6,6],"right_children":[2,4,6,8,10,12,14,-1,-1,-1,-1,-1,-1,-1,-1],"split_conditions":[7E0,1E0,1E0,1E0,2E0,9E0,8E0,-7.2637456E-3,-3.1627913E-3,-1.5959209E-3,7.2877714E-4,-1.2240928E-3,2.0399666E-3,1.573032E-3,4.405293E-3],"split_indices":[0,0,1,1,1,0,0,0,0,0,0,0,0,0,0],"split_type":[0,0,0,0,0,0,0,0,0,0,0,0,0,0,0],"sum_hessian":[1E3,6.63E2,3.37E2,8.8E1,5.75E2,1.21E2,2.16E2,2.7E1,6.1E1,3.81E2,1.94E2,5.7E1,6.4E1,5.3E1,1.63E2],"tree_param":{"num_deleted":"0","num_feature":"2","num_nodes":"15","size_leaf_vector":"1"}},{"base_weights":[1.3508003E-5,-2.1579053E-2,1.3093595E-2,-3.3044357E-2,2.7501436E-3,8.704528E-3,4.12054E-2,-4.0605245E-3,-1.343054E-3,-1.2696631E-3,1.8923422E-3,-2.929756E-4,1.559106E-3,3.3312526E-3,5.0803884E-3],"categories":[],"categories_nodes":[],"categories_segments":[],"categories_sizes":[],"default_left":[0,0,0,0,0,0,0,0,0,0,0,0,0,0,0],"id":47,"left_children":[1,3,5,7,9,11,13,-1,-1,-1,-1,-1,-1,-1,-1],"loss_changes":[2.8299755E-1,1.0553081E-1,7.663331E-2,3.75672E-2,3.0718911E-2,4.3390535E-2,4.671395E-3,0E0,0E0,0E0,0E0,0E0,0E0,0E0,0E0],"parents":[2147483647,0,0,1,1,2,2,3,3,4,4,5,5,6,6],"right_children":[2,4,6,8,10,12,14,-1,-1,-1,-1,-1,-1,-1,-1],"split_conditions":[4E0,2E0,1E1,3E0,2E0,1E0,2E0,-4.0605245E-3,-1.343054E-3,-1.2696631E-3,1.8923422E-3,-2.929756E-4,1.559106E-3,3.3312526E-3,5.0803884E-3],"split_indices":[0,1,0,0,0,1,1,0,0,0,0,0,0,0,0],"split_type":[0,0,0,0,0,0,0,0,0,0,0,0,0,0,0],"sum_hessian":[1E3,3.77E2,6.23E2,2.56E2,1.21E2,5.4E2,8.3E1,1.84E2,7.2E1,6.2E1,5.9E1,2.01E2,3.39E2,4.8E1,3.5E1],"tree_param":{"num_deleted":"0","num_feature":"2","num_nodes":"15","size_leaf_vector":"1"}},{"base_weights":[1.7017323E-5,-1.0926014E-2,2.151452E-2,-3.7408274E-2,-6.8151685E-3,1.12523325E-2,3.9361008E-2,-6.1717625E-3,-2.5826502E-3,-1.849678E-3,-6.206668E-6,5.3772244E-5,2.1196813E-3,2.8381092E-3,4.1872407E-3],"categories":[],"categories_nodes":[],"categories_segments":[],"categories_sizes":[],"default_left":[0,0,0,0,0,0,0,0,0,0,0,0,0,0,0],"id":48,"left_children":[1,3,5,7,9,11,13,-1,-1,-1,-1,-1,-1,-1,-1],"loss_changes":[2.3571818E-1,7.203107E-2,6.1459765E-2,2.3463584E-2,4.5437828E-2,2.3003668E-2,2.2033453E-3,0E0,0E0,0E0,0E0,0E0,0E0,0E0,0E0],"parents":[2147483647,0,0,1,1,2,2,3,3,4,4,5,5,6,6],"right_children":[2,4,6,8,10,12,14,-1,-1,-1,-1,-1,-1,-1,-1],"split_conditions":[7E0,1E0,2E0,1E0,1E0,9E0,8E0,-6.1717625E-3,-2.5826502E-3,-1.849678E-3,-6.206668E-6,5.3772244E-5,2.1196813E-3,2.8381092E-3,4.1872407E-3],"split_indices":[0,0,1,1,1,0,0,0,0,0,0,0,0,0,0],"split_type":[0,0,0,0,0,0,0,0,0,0,0,0,0,0,0],"sum_hessian":[1E3,6.63E2,3.37E2,8.8E1,5.75E2,2.15E2,1.22E2,2.7E1,6.1E1,2.1E2,3.65E2,1.04E2,1.11E2,2.5E1,9.7E1],"tree_param":{"num_deleted":"0","num_feature":"2","num_nodes":"15","size_leaf_vector":"1"}},{"base_weights":[1.3913646E-5,-1.8059378E-2,1.0962135E-2,-2.8033083E-2,3.0988313E-3,7.3292237E-3,3.4229312E-2,-3.4497567E-3,-1.126647E-3,-1.025502E-3,1.7068727E-3,-2.1012737E-4,1.2910493E-3,2.797304E-3,4.1793985E-3],"categories":[],"categories_nodes":[],"categories_segments":[],"categories_sizes":[],"default_left":[0,0,0,0,0,0,0,0,0,0,0,0,0,0,0],"id":49,"left_children":[1,3,5,7,9,11,13,-1,-1,-1,-1,-1,-1,-1,-1],"loss_changes":[1.9826624E-1,7.985458E-2,5.2494347E-2,2.7466938E-2,2.2934373E-2,2.8502198E-2,2.8063357E-3,0E0,0E0,0E0,0E0,0E0,0E0,0E0,0E0],"parents":[2147483647,0,0,1,1,2,2,3,3,4,4,5,5,6,6],"right_children":[2,4,6,8,10,12,14,-1,-1,-1,-1,-1,-1,-1,-1],"split_conditions":[4E0,2E0,1E1,3E0,2E0,1E0,2E0,-3.4497567E-3,-1.126647E-3,-1.025502E-3,1.7068727E-3,-2.1012737E-4,1.2910493E-3,2.797304E-3,4.1793985E-3],"split_indices":[0,1,0,0,0,1,1,0,0,0,0,0,0,0,0],"split_type":[0,0,0,0,0,0,0,0,0,0,0,0,0,0,0],"sum_hessian":[1E3,3.77E2,6.23E2,2.56E2,1.21E2,5.4E2,8.3E1,1.84E2,7.2E1,6.2E1,5.9E1,2.01E2,3.39E2,4.8E1,3.5E1],"tree_param":{"num_deleted":"0","num_feature":"2","num_nodes":"15","size_leaf_vector":"1"}},{"base_weights":[1.6655296E-5,-9.145907E-3,1.8016433E-2,-3.1144736E-2,-5.730904E-3,9.18461E-3,3.33795E-2,-5.2439733E-3,-2.1025308E-3,-1.0875938E-3,4.377476E-4,2.050854E-6,1.769395E-3,2.4410505E-3,3.541842E-3],"categories":[],"categories_nodes":[],"categories_segments":[],"categories_sizes":[],"default_left":[0,0,0,0,0,0,0,0,0,0,0,0,0,0,0],"id":50,"left_children":[1,3,5,7,9,11,13,-1,-1,-1,-1,-1,-1,-1,-1],"loss_changes":[1.6525379E-1,4.9705215E-2,4.555458E-2,1.8076323E-2,3.0004198E-2,1.6843416E-2,1.3847351E-3,0E0,0E0,0E0,0E0,0E0,0E0,0E0,0E0],"parents":[2147483647,0,0,1,1,2,2,3,3,4,4,5,5,6,6],"right_children":[2,4,6,8,10,12,14,-1,-1,-1,-1,-1,-1,-1,-1],"split_conditions":[7E0,1E0,2E0,1E0,2E0,9E0,8E0,-5.2439733E-3,-2.1025308E-3,-1.0875938E-3,4.377476E-4,2.050854E-6,1.769395E-3,2.4410505E-3,3.541842E-3],"split_indices":[0,0,1,1,1,0,0,0,0,0,0,0,0,0,0],"split_type":[0,0,0,0,0,0,0,0,0,0,0,0,0,0,0],"sum_hessian":[1E3,6.63E2,3.37E2,8.8E1,5.75E2,2.15E2,1.22E2,2.7E1,6.1E1,3.81E2,1.94E2,1.04E2,1.11E2,2.5E1,9.7E1],"tree_param":{"num_deleted":"0","num_feature":"2","num_nodes":"15","size_leaf_vector":"1"}},{"base_weights":[1.4754243E-5,-1.2497243E-2,1.1157487E-2,-2.7538365E-2,-4.1713226E-3,7.891847E-3,2.8402528E-2,-3.3005122E-3,-6.576783E-4,-1.8956682E-3,-3.9729133E-5,2.530016E-4,1.7493818E-3,2.3499567E-3,3.4287043E-3],"categories":[],"categories_nodes":[],"categories_segments":[],"categories_sizes":[],"default_left":[0,0,0,0,0,0,0,0,0,0,0,0,0,0,0],"id":51,"left_children":[1,3,5,7,9,11,13,-1,-1,-1,-1,-1,-1,-1,-1],"loss_changes":[1.3969669E-1,5.8994234E-2,2.9623374E-2,1.903437E-2,1.7011592E-2,2.296915E-2,1.6177967E-3,0E0,0E0,0E0,0E0,0E0,0E0,0E0,0E0],"parents":[2147483647,0,0,1,1,2,2,3,3,4,4,5,5,6,6],"right_children":[2,4,6,8,10,12,14,-1,-1,-1,-1,-1,-1,-1,-1],"split_conditions":[5E0,1E0,1E1,4E0,1E0,2E0,2E0,-3.3005122E-3,-6.576783E-4,-1.8956682E-3,-3.9729133E-5,2.530016E-4,1.7493818E-3,2.3499567E-3,3.4287043E-3],"split_indices":[0,1,0,0,0,1,1,0,0,0,0,0,0,0,0],"split_type":[0,0,0,0,0,0,0,0,0,0,0,0,0,0,0],"sum_hessian":[1E3,4.71E2,5.29E2,1.67E2,3.04E2,4.46E2,8.3E1,1.32E2,3.5E1,6.1E1,2.43E2,2.87E2,1.59E2,4.8E1,3.5E1],"tree_param":{"num_deleted":"0","num_feature":"2","num_nodes":"15","size_leaf_vector":"1"}},{"base_weights":[1.5128067E-5,-7.5992523E-3,1.4973511E-2,-2.5812246E-2,-4.7718985E-3,9.4403204E-4,2.2792049E-2,-4.42004E-3,-1.7091591E-3,-1.2447897E-3,-3.336264E-5,2.0844862E-3,-6.064436E-4,7.9744303E-4,2.7532044E-3],"categories":[],"categories_nodes":[],"categories_segments":[],"categories_sizes":[],"default_left":[0,0,0,0,0,0,0,0,0,0,0,0,0,0,0],"id":52,"left_children":[1,3,5,7,9,11,13,-1,-1,-1,-1,-1,-1,-1,-1],"loss_changes":[1.14126496E-1,3.4069225E-2,3.7053704E-2,1.3516296E-2,1.9619115E-2,1.714228E-2,1.5021548E-2,0E0,0E0,0E0,0E0,0E0,0E0,0E0,0E0],"parents":[2147483647,0,0,1,1,2,2,3,3,4,4,5,5,6,6],"right_children":[2,4,6,8,10,12,14,-1,-1,-1,-1,-1,-1,-1,-1],"split_conditions":[7E0,1E0,1E0,1E0,1E0,8E0,8E0,-4.42004E-3,-1.7091591E-3,-1.2447897E-3,-3.336264E-5,2.0844862E-3,-6.064436E-4,7.9744303E-4,2.7532044E-3],"split_indices":[0,0,1,1,1,0,0,0,0,0,0,0,0,0,0],"split_type":[0,0,0,0,0,0,0,0,0,0,0,0,0,0,0],"sum_hessian":[1E3,6.63E2,3.37E2,8.8E1,5.75E2,1.21E2,2.16E2,2.7E1,6.1E1,2.1E2,3.65E2,3.1E1,9E1,5.3E1,1.63E2],"tree_param":{"num_deleted":"0","num_feature":"2","num_nodes":"15","size_leaf_vector":"1"}},{"base_weights":[1.125972E-5,-1.2658195E-2,7.6860073E-3,-2.0457989E-2,3.8762728E-3,5.152657E-3,2.3910489E-2,-2.5662337E-3,-6.988638E-4,-6.8095734E-4,1.5031806E-3,-1.2406311E-4,8.935868E-4,2.0214783E-3,2.8276576E-3],"categories":[],"categories_nodes":[],"categories_segments":[],"categories_sizes":[],"default_left":[0,0,0,0,0,0,0,0,0,0,0,0,0,0,0],"id":53,"left_children":[1,3,5,7,9,11,13,-1,-1,-1,-1,-1,-1,-1,-1],"loss_changes":[9.7429395E-2,4.8828237E-2,2.5524627E-2,1.7836146E-2,1.4645531E-2,1.3096339E-2,7.8379735E-4,0E0,0E0,0E0,0E0,0E0,0E0,0E0,0E0],"parents":[2147483647,0,0,1,1,2,2,3,3,4,4,5,5,6,6],"right_children":[2,4,6,8,10,12,14,-1,-1,-1,-1,-1,-1,-1,-1],"split_conditions":[4E0,2E0,1E1,3E0,2E0,1E0,2E0,-2.5662337E-3,-6.988638E-4,-6.8095734E-4,1.5031806E-3,-1.2406311E-4,8.935868E-4,2.0214783E-3,2.8276576E-3],"split_indices":[0,1,0,0,0,1,1,0,0,0,0,0,0,0,0],"split_type":[0,0,0,0,0,0,0,0,0,0,0,0,0,0,0],"sum_hessian":[1E3,3.77E2,6.23E2,2.56E2,1.21E2,5.4E2,8.3E1,1.84E2,7.2E1,6.2E1,5.9E1,2.01E2,3.39E2,4.8E1,3.5E1],"tree_param":{"num_deleted":"0","num_feature":"2","num_nodes":"15","size_leaf_vector":"1"}},{"base_weights":[1.328662E-5,-9.4938185E-3,8.479967E-3,-2.138504E-2,-2.912773E-3,4.121604E-3,1.5946275E-2,-2.5765805E-3,-4.6065185E-4,-1.3766956E-3,-1.4280539E-5,-2.9991468E-5,1.2967319E-3,1.9776102E-4,2.4106975E-3],"categories":[],"categories_nodes":[],"categories_segments":[],"categories_sizes":[],"default_left":[0,0,0,0,0,0,0,0,0,0,0,0,0,0,0],"id":54,"left_children":[1,3,5,7,9,11,13,-1,-1,-1,-1,-1,-1,-1,-1],"loss_changes":[8.065462E-2,3.6874864E-2,1.7180946E-2,1.222977E-2,9.168083E-3,1.3145348E-2,2.2181172E-2,0E0,0E0,0E0,0E0,0E0,0E0,0E0,0E0],"parents":[2147483647,0,0,1,1,2,2,3,3,4,4,5,5,6,6],"right_children":[2,4,6,8,10,12,14,-1,-1,-1,-1,-1,-1,-1,-1],"split_conditions":[5E0,1E0,2E0,4E0,1E0,9E0,7E0,-2.5765805E-3,-4.6065185E-4,-1.3766956E-3,-1.4280539E-5,-2.9991468E-5,1.2967319E-3,1.9776102E-4,2.4106975E-3],"split_indices":[0,1,1,0,0,0,0,0,0,0,0,0,0,0,0],"split_type":[0,0,0,0,0,0,0,0,0,0,0,0,0,0,0],"sum_hessian":[1E3,4.71E2,5.29E2,1.67E2,3.04E2,3.35E2,1.94E2,1.32E2,3.5E1,6.1E1,2.43E2,2.24E2,1.11E2,7.2E1,1.22E2],"tree_param":{"num_deleted":"0","num_feature":"2","num_nodes":"15","size_leaf_vector":"1"}},{"base_weights":[1.142148E-5,-8.553807E-3,7.6393015E-3,-1.9264614E-2,-2.6260382E-3,5.330992E-3,1.9831862E-2,-2.320859E-3,-4.1586888E-4,-1.2412472E-3,-1.2855891E-5,1.4458538E-4,1.2290922E-3,1.6964659E-3,2.318356E-3],"categories":[],"categories_nodes":[],"categories_segments":[],"categories_sizes":[],"default_left":[0,0,0,0,0,0,0,0,0,0,0,0,0,0,0],"id":55,"left_children":[1,3,5,7,9,11,13,-1,-1,-1,-1,-1,-1,-1,-1],"loss_changes":[6.546521E-2,2.9917251E-2,1.4810706E-2,9.912487E-3,7.453035E-3,1.2069239E-2,4.1393563E-4,0E0,0E0,0E0,0E0,0E0,0E0,0E0,0E0],"parents":[2147483647,0,0,1,1,2,2,3,3,4,4,5,5,6,6],"right_children":[2,4,6,8,10,12,14,-1,-1,-1,-1,-1,-1,-1,-1],"split_conditions":[5E0,1E0,1E1,4E0,1E0,2E0,2E0,-2.320859E-3,-4.1586888E-4,-1.2412472E-3,-1.2855891E-5,1.4458538E-4,1.2290922E-3,1.6964659E-3,2.318356E-3],"split_indices":[0,1,0,0,0,1,1,0,0,0,0,0,0,0,0],"split_type":[0,0,0,0,0,0,0,0,0,0,0,0,0,0,0],"sum_hessian":[1E3,4.71E2,5.29E2,1.67E2,3.04E2,4.46E2,8.3E1,1.32E2,3.5E1,6.1E1,2.43E2,2.87E2,1.59E2,4.8E1,3.5E1],"tree_param":{"num_deleted":"0","num_feature":"2","num_nodes":"15","size_leaf_vector":"1"}},{"base_weights":[1.1681388E-5,-5.2627157E-3,1.0373184E-2,-1.8096719E-2,-3.2705476E-3,-5.822338E-4,1.648465E-2,-3.2741108E-3,-1.1191241E-3,-5.9714675E-4,2.0372563E-4,1.8834978E-3,-7.4038666E-4,4.5702723E-4,2.030716E-3],"categories":[],"categories_nodes":[],"categories_segments":[],"categories_sizes":[],"default_left":[0,0,0,0,0,0,0,0,0,0,0,0,0,0,0],"id":56,"left_children":[1,3,5,7,9,11,13,-1,-1,-1,-1,-1,-1,-1,-1],"loss_changes":[5.4759923E-2,1.691763E-2,2.2639934E-2,8.633845E-3,8.269673E-3,1.6299214E-2,9.789985E-3,0E0,0E0,0E0,0E0,0E0,0E0,0E0,0E0],"parents":[2147483647,0,0,1,1,2,2,3,3,4,4,5,5,6,6],"right_children":[2,4,6,8,10,12,14,-1,-1,-1,-1,-1,-1,-1,-1],"split_conditions":[7E0,1E0,1E0,1E0,2E0,8E0,8E0,-3.2741108E-3,-1.1191241E-3,-5.9714675E-4,2.0372563E-4,1.8834978E-3,-7.4038666E-4,4.5702723E-4,2.030716E-3],"split_indices":[0,0,1,1,1,0,0,0,0,0,0,0,0,0,0],"split_type":[0,0,0,0,0,0,0,0,0,0,0,0,0,0,0],"sum_hessian":[1E3,6.63E2,3.37E2,8.8E1,5.75E2,1.21E2,2.16E2,2.7E1,6.1E1,3.81E2,1.94E2,3.1E1,9E1,5.3E1,1.63E2],"tree_param":{"num_deleted":"0","num_feature":"2","num_nodes":"15","size_leaf_vector":"1"}},{"base_weights":[9.386811E-6,-5.7845726E-3,7.779768E-3,-1.275999E-2,-1.7855372E-3,3.6916723E-3,1.4604256E-2,-1.976908E-3,-4.8766506E-5,-1.0090155E-3,-9.153125E-6,-1.1188063E-4,1.0444922E-3,1.6356644E-4,1.8492079E-3],"categories":[],"categories_nodes":[],"categories_segments":[],"categories_sizes":[],"default_left":[0,0,0,0,0,0,0,0,0,0,0,0,0,0,0],"id":57,"left_children":[1,3,5,7,9,11,13,-1,-1,-1,-1,-1,-1,-1,-1],"loss_changes":[4.5111295E-2,1.5988916E-2,1.18869245E-2,1.7968088E-2,5.14799E-3,8.750518E-3,8.036885E-3,0E0,0E0,0E0,0E0,0E0,0E0,0E0,0E0],"parents":[2147483647,0,0,1,1,2,2,3,3,4,4,5,5,6,6],"right_children":[2,4,6,8,10,12,14,-1,-1,-1,-1,-1,-1,-1,-1],"split_conditions":[6E0,1E0,2E0,4E0,1E0,9E0,7E0,-1.976908E-3,-4.8766506E-5,-1.0090155E-3,-9.153125E-6,-1.1188063E-4,1.0444922E-3,1.6356644E-4,1.8492079E-3],"split_indices":[0,1,1,0,0,0,0,0,0,0,0,0,0,0,0],"split_type":[0,0,0,0,0,0,0,0,0,0,0,0,0,0,0],"sum_hessian":[1E3,5.73E2,4.27E2,2.08E2,3.65E2,2.68E2,1.59E2,1.32E2,7.6E1,6.1E1,3.04E2,1.57E2,1.11E2,3.7E1,1.22E2],"tree_param":{"num_deleted":"0","num_feature":"2","num_nodes":"15","size_leaf_vector":"1"}},{"base_weights":[8.396338E-6,-6.405786E-3,5.7206335E-3,-1.476713E-2,-1.7791907E-3,3.8987945E-3,1.5347316E-2,-1.7807009E-3,-3.1262703E-4,-9.0974255E-4,8.765254E-6,1.0078723E-4,9.078087E-4,1.37043E-3,1.715733E-3],"categories":[],"categories_nodes":[],"categories_segments":[],"categories_sizes":[],"default_left":[0,0,0,0,0,0,0,0,0,0,0,0,0,0,0],"id":58,"left_children":[1,3,5,7,9,11,13,-1,-1,-1,-1,-1,-1,-1,-1],"loss_changes":[3.6712613E-2,1.8232834E-2,9.235447E-3,5.889315E-3,4.1677067E-3,6.683751E-3,1.4675781E-5,0E0,0E0,0E0,0E0,0E0,0E0,0E0,0E0],"parents":[2147483647,0,0,1,1,2,2,3,3,4,4,5,5,6,6],"right_children":[2,4,6,8,10,12,14,-1,-1,-1,-1,-1,-1,-1,-1],"split_conditions":[5E0,1E0,1E1,4E0,1E0,2E0,2E0,-1.7807009E-3,-3.1262703E-4,-9.0974255E-4,8.765254E-6,1.0078723E-4,9.078087E-4,1.37043E-3,1.715733E-3],"split_indices":[0,1,0,0,0,1,1,0,0,0,0,0,0,0,0],"split_type":[0,0,0,0,0,0,0,0,0,0,0,0,0,0,0],"sum_hessian":[1E3,4.71E2,5.29E2,1.67E2,3.04E2,4.46E2,8.3E1,1.32E2,3.5E1,6.1E1,2.43E2,2.87E2,1.59E2,4.8E1,3.5E1],"tree_param":{"num_deleted":"0","num_feature":"2","num_nodes":"15","size_leaf_vector":"1"}},{"base_weights":[8.660119E-6,-4.7570434E-3,6.400028E-3,-1.03364E-2,-1.5580202E-3,2.9992906E-3,1.2077516E-2,-1.6039675E-3,-3.5104815E-5,-5.9097767E-4,5.3640335E-5,-1.1075222E-4,8.7660505E-4,5.924074E-5,1.552757E-3],"categories":[],"categories_nodes":[],"categories_segments":[],"categories_sizes":[],"default_left":[0,0,0,0,0,0,0,0,0,0,0,0,0,0,0],"id":59,"left_children":[1,3,5,7,9,11,13,-1,-1,-1,-1,-1,-1,-1,-1],"loss_changes":[3.0520268E-2,1.022893E-2,8.227449E-3,1.1896756E-2,3.3390482E-3,6.380437E-3,6.330682E-3,0E0,0E0,0E0,0E0,0E0,0E0,0E0,0E0],"parents":[2147483647,0,0,1,1,2,2,3,3,4,4,5,5,6,6],"right_children":[2,4,6,8,10,12,14,-1,-1,-1,-1,-1,-1,-1,-1],"split_conditions":[6E0,1E0,2E0,4E0,2E0,9E0,7E0,-1.6039675E-3,-3.5104815E-5,-5.9097767E-4,5.3640335E-5,-1.1075222E-4,8.7660505E-4,5.924074E-5,1.552757E-3],"split_indices":[0,1,1,0,0,0,0,0,0,0,0,0,0,0,0],"split_type":[0,0,0,0,0,0,0,0,0,0,0,0,0,0,0],"sum_hessian":[1E3,5.73E2,4.27E2,2.08E2,3.65E2,2.68E2,1.59E2,1.32E2,7.6E1,1.18E2,2.47E2,1.57E2,1.11E2,3.7E1,1.22E2],"tree_param":{"num_deleted":"0","num_feature":"2","num_nodes":"15","size_leaf_vector":"1"}},{"base_weights":[8.020162E-6,-4.285144E-3,5.7656565E-3,-9.310626E-3,-1.4036936E-3,2.7022343E-3,1.0879999E-2,-1.4447774E-3,-3.1645577E-5,-7.620905E-4,-1.3526464E-5,-9.975524E-5,7.8974495E-4,5.3483564E-5,1.3987612E-3],"categories":[],"categories_nodes":[],"categories_segments":[],"categories_sizes":[],"default_left":[0,0,0,0,0,0,0,0,0,0,0,0,0,0,0],"id":60,"left_children":[1,3,5,7,9,11,13,-1,-1,-1,-1,-1,-1,-1,-1],"loss_changes":[2.4767904E-2,8.298841E-3,6.676241E-3,9.652143E-3,2.8852785E-3,5.178378E-3,5.1363204E-3,0E0,0E0,0E0,0E0,0E0,0E0,0E0,0E0],"parents":[2147483647,0,0,1,1,2,2,3,3,4,4,5,5,6,6],"right_children":[2,4,6,8,10,12,14,-1,-1,-1,-1,-1,-1,-1,-1],"split_conditions":[6E0,1E0,2E0,4E0,1E0,9E0,7E0,-1.4447774E-3,-3.1645577E-5,-7.620905E-4,-1.3526464E-5,-9.975524E-5,7.8974495E-4,5.3483564E-5,1.3987612E-3],"split_indices":[0,1,1,0,0,0,0,0,0,0,0,0,0,0,0],"split_type":[0,0,0,0,0,0,0,0,0,0,0,0,0,0,0],"sum_hessian":[1E3,5.73E2,4.27E2,2.08E2,3.65E2,2.68E2,1.59E2,1.32E2,7.6E1,6.1E1,3.04E2,1.57E2,1.11E2,3.7E1,1.22E2],"tree_param":{"num_deleted":"0","num_feature":"2","num_nodes":"15","size_leaf_vector":"1"}},{"base_weights":[7.1458567E-6,-3.8605286E-3,5.1941504E-3,-1.2029058E-2,-2.356702E-3,2.4345622E-3,9.801244E-3,-2.302066E-3,-6.8710925E-4,-6.0891215E-4,-1.2176076E-5,-8.985242E-5,7.1148574E-4,4.8283528E-5,1.2600418E-3],"categories":[],"categories_nodes":[],"categories_segments":[],"categories_sizes":[],"default_left":[0,0,0,0,0,0,0,0,0,0,0,0,0,0,0],"id":61,"left_children":[1,3,5,7,9,11,13,-1,-1,-1,-1,-1,-1,-1,-1],"loss_changes":[2.0101758E-2,7.0226956E-3,5.4175965E-3,4.8876153E-3,4.053344E-3,4.202747E-3,4.1673314E-3,0E0,0E0,0E0,0E0,0E0,0E0,0E0,0E0],"parents":[2147483647,0,0,1,1,2,2,3,3,4,4,5,5,6,6],"right_children":[2,4,6,8,10,12,14,-1,-1,-1,-1,-1,-1,-1,-1],"split_conditions":[6E0,1E0,2E0,1E0,1E0,9E0,7E0,-2.302066E-3,-6.8710925E-4,-6.0891215E-4,-1.2176076E-5,-8.985242E-5,7.1148574E-4,4.8283528E-5,1.2600418E-3],"split_indices":[0,0,1,1,1,0,0,0,0,0,0,0,0,0,0],"split_type":[0,0,0,0,0,0,0,0,0,0,0,0,0,0,0],"sum_hessian":[1E3,5.73E2,4.27E2,8.8E1,4.85E2,2.68E2,1.59E2,2.7E1,6.1E1,1.81E2,3.04E2,1.57E2,1.11E2,3.7E1,1.22E2],"tree_param":{"num_deleted":"0","num_feature":"2","num_nodes":"15","size_leaf_vector":"1"}},{"base_weights":[4.7629046E-6,-4.2745844E-3,3.8157953E-3,-7.2472277E-3,2.0312907E-3,2.5067772E-3,1.0736216E-2,-1.3977865E-3,1.8944898E-4,9.915079E-4,-1.0916833E-3,-1.1021405E-4,4.642658E-4,1.3449999E-3,9.358342E-4],"categories":[],"categories_nodes":[],"categories_segments":[],"categories_sizes":[],"default_left":[0,0,0,0,0,0,0,0,0,0,0,0,0,0,0],"id":62,"left_children":[1,3,5,7,9,11,13,-1,-1,-1,-1,-1,-1,-1,-1],"loss_changes":[1.6341353E-2,8.862414E-3,4.7743325E-3,1.9777479E-2,1.5624443E-2,3.4506905E-3,1.8822774E-4,0E0,0E0,0E0,0E0,0E0,0E0,0E0,0E0],"parents":[2147483647,0,0,1,1,2,2,3,3,4,4,5,5,6,6],"right_children":[2,4,6,8,10,12,14,-1,-1,-1,-1,-1,-1,-1,-1],"split_conditions":[5E0,2E0,1E1,3E0,3E0,1E0,1E0,-1.3977865E-3,1.8944898E-4,9.915079E-4,-1.0916833E-3,-1.1021405E-4,4.642658E-4,1.3449999E-3,9.358342E-4],"split_indices":[0,1,0,0,0,1,1,0,0,0,0,0,0,0,0],"split_type":[0,0,0,0,0,0,0,0,0,0,0,0,0,0,0],"sum_hessian":[1E3,4.71E2,5.29E2,3.2E2,1.51E2,4.46E2,8.3E1,1.84E2,1.36E2,9.4E1,5.7E1,1.66E2,2.8E2,2.5E1,5.8E1],"tree_param":{"num_deleted":"0","num_feature":"2","num_nodes":"15","size_leaf_vector":"1"}},{"base_weights":[5.5438086E-6,-3.173028E-3,4.2683817E-3,-1.0256187E-2,-1.8693773E-3,1.8754564E-3,8.26481E-3,-1.9452944E-3,-5.9373904E-4,-3.5596226E-4,1.6620153E-4,-9.581515E-5,5.8561226E-4,-1.6275206E-6,1.0756E-3],"categories":[],"categories_nodes":[],"categories_segments":[],"categories_sizes":[],"default_left":[0,0,0,0,0,0,0,0,0,0,0,0,0,0,0],"id":63,"left_children":[1,3,5,7,9,11,13,-1,-1,-1,-1,-1,-1,-1,-1],"loss_changes":[1.3576829E-2,5.281123E-3,4.077529E-3,3.419485E-3,2.9068105E-3,3.0398355E-3,3.300937E-3,0E0,0E0,0E0,0E0,0E0,0E0,0E0,0E0],"parents":[2147483647,0,0,1,1,2,2,3,3,4,4,5,5,6,6],"right_children":[2,4,6,8,10,12,14,-1,-1,-1,-1,-1,-1,-1,-1],"split_conditions":[6E0,1E0,2E0,1E0,2E0,9E0,7E0,-1.9452944E-3,-5.9373904E-4,-3.5596226E-4,1.6620153E-4,-9.581515E-5,5.8561226E-4,-1.6275206E-6,1.0756E-3],"split_indices":[0,0,1,1,1,0,0,0,0,0,0,0,0,0,0],"split_type":[0,0,0,0,0,0,0,0,0,0,0,0,0,0,0],"sum_hessian":[1E3,5.73E2,4.27E2,8.8E1,4.85E2,2.68E2,1.59E2,2.7E1,6.1E1,3.28E2,1.57E2,1.57E2,1.11E2,3.7E1,1.22E2],"tree_param":{"num_deleted":"0","num_feature":"2","num_nodes":"15","size_leaf_vector":"1"}},{"base_weights":[3.8140088E-6,-4.288234E-3,2.6037984E-3,-8.604143E-3,4.8386254E-3,1.6203411E-3,8.906733E-3,-1.1960529E-3,1.9633605E-6,-3.1556468E-4,1.3151969E-3,-1.1777476E-4,3.2779694E-4,1.1593545E-3,7.571754E-4],"categories":[],"categories_nodes":[],"categories_segments":[],"categories_sizes":[],"default_left":[0,0,0,0,0,0,0,0,0,0,0,0,0,0,0],"id":64,"left_children":[1,3,5,7,9,11,13,-1,-1,-1,-1,-1,-1,-1,-1],"loss_changes":[1.1181582E-2,1.4931314E-2,3.8535362E-3,7.4390285E-3,8.149515E-3,2.5131218E-3,2.1351082E-4,0E0,0E0,0E0,0E0,0E0,0E0,0E0,0E0],"parents":[2147483647,0,0,1,1,2,2,3,3,4,4,5,5,6,6],"right_children":[2,4,6,8,10,12,14,-1,-1,-1,-1,-1,-1,-1,-1],"split_conditions":[4E0,2E0,1E1,3E0,2E0,1E0,1E0,-1.1960529E-3,1.9633605E-6,-3.1556468E-4,1.3151969E-3,-1.1777476E-4,3.2779694E-4,1.1593545E-3,7.571754E-4],"split_indices":[0,1,0,0,0,1,1,0,0,0,0,0,0,0,0],"split_type":[0,0,0,0,0,0,0,0,0,0,0,0,0,0,0],"sum_hessian":[1E3,3.77E2,6.23E2,2.56E2,1.21E2,5.4E2,8.3E1,1.84E2,7.2E1,6.2E1,5.9E1,2.01E2,3.39E2,2.5E1,5.8E1],"tree_param":{"num_deleted":"0","num_feature":"2","num_nodes":"15","size_leaf_vector":"1"}},{"base_weights":[5.40837E-6,-2.631357E-3,3.5416184E-3,-8.3633885E-3,-1.5762495E-3,1.456336E-3,7.025364E-3,-1.6423789E-3,-4.5883152E-4,-4.1005758E-4,-6.4762303E-6,-9.4601324E-5,4.8323613E-4,-3.3384877E-5,9.2418253E-4],"categories":[],"categories_nodes":[],"categories_segments":[],"categories_sizes":[],"default_left":[0,0,0,0,0,0,0,0,0,0,0,0,0,0,0],"id":65,"left_children":[1,3,5,7,9,11,13,-1,-1,-1,-1,-1,-1,-1,-1],"loss_changes":[9.342799E-3,3.4583174E-3,3.0990145E-3,2.6327884E-3,1.8540607E-3,2.1862667E-3,2.612912E-3,0E0,0E0,0E0,0E0,0E0,0E0,0E0,0E0],"parents":[2147483647,0,0,1,1,2,2,3,3,4,4,5,5,6,6],"right_children":[2,4,6,8,10,12,14,-1,-1,-1,-1,-1,-1,-1,-1],"split_conditions":[6E0,1E0,2E0,1E0,1E0,9E0,7E0,-1.6423789E-3,-4.5883152E-4,-4.1005758E-4,-6.4762303E-6,-9.4601324E-5,4.8323613E-4,-3.3384877E-5,9.2418253E-4],"split_indices":[0,0,1,1,1,0,0,0,0,0,0,0,0,0,0],"split_type":[0,0,0,0,0,0,0,0,0,0,0,0,0,0,0],"sum_hessian":[1E3,5.73E2,4.27E2,8.8E1,4.85E2,2.68E2,1.59E2,2.7E1,6.1E1,1.81E2,3.04E2,1.57E2,1.11E2,3.7E1,1.22E2],"tree_param":{"num_deleted":"0","num_feature":"2","num_nodes":"15","size_leaf_vector":"1"}},{"base_weights":[3.6326892E-6,-3.5515167E-3,2.157227E-3,-7.3488415E-3,4.476877E-3,1.342647E-3,7.377829E-3,-1.0290443E-3,2.065701E-5,8.908954E-4,-1.0720416E-3,-9.592937E-5,2.7063218E-4,1.0014479E-3,6.0908677E-4],"categories":[],"categories_nodes":[],"categories_segments":[],"categories_sizes":[],"default_left":[0,0,0,0,0,0,0,0,0,0,0,0,0,0,0],"id":66,"left_children":[1,3,5,7,9,11,13,-1,-1,-1,-1,-1,-1,-1,-1],"loss_changes":[7.6716673E-3,1.1556767E-2,2.643715E-3,5.7139527E-3,8.312887E-3,1.7008482E-3,2.2403803E-4,0E0,0E0,0E0,0E0,0E0,0E0,0E0,0E0],"parents":[2147483647,0,0,1,1,2,2,3,3,4,4,5,5,6,6],"right_children":[2,4,6,8,10,12,14,-1,-1,-1,-1,-1,-1,-1,-1],"split_conditions":[4E0,2E0,1E1,3E0,3E0,1E0,1E0,-1.0290443E-3,2.065701E-5,8.908954E-4,-1.0720416E-3,-9.592937E-5,2.7063218E-4,1.0014479E-3,6.0908677E-4],"split_indices":[0,1,0,0,0,1,1,0,0,0,0,0,0,0,0],"split_type":[0,0,0,0,0,0,0,0,0,0,0,0,0,0,0],"sum_hessian":[1E3,3.77E2,6.23E2,2.56E2,1.21E2,5.4E2,8.3E1,1.84E2,7.2E1,9.4E1,2.7E1,2.01E2,3.39E2,2.5E1,5.8E1],"tree_param":{"num_deleted":"0","num_feature":"2","num_nodes":"15","size_leaf_vector":"1"}},{"base_weights":[3.8098062E-6,-2.1847037E-3,2.9388634E-3,-7.1587763E-3,-1.2693184E-3,1.1159054E-3,5.9853434E-3,-1.3847772E-3,-4.022476E-4,-3.2493827E-4,-8.3610275E-6,4.5174794E-4,-1.339469E-4,-5.6506462E-5,7.960386E-4],"categories":[],"categories_nodes":[],"categories_segments":[],"categories_sizes":[],"default_left":[0,0,0,0,0,0,0,0,0,0,0,0,0,0,0],"id":67,"left_children":[1,3,5,7,9,11,13,-1,-1,-1,-1,-1,-1,-1,-1],"loss_changes":[6.436248E-3,2.6044461E-3,2.3702637E-3,1.8114019E-3,1.1407486E-3,2.2527757E-3,2.0744712E-3,0E0,0E0,0E0,0E0,0E0,0E0,0E0,0E0],"parents":[2147483647,0,0,1,1,2,2,3,3,4,4,5,5,6,6],"right_children":[2,4,6,8,10,12,14,-1,-1,-1,-1,-1,-1,-1,-1],"split_conditions":[6E0,1E0,2E0,1E0,1E0,8E0,7E0,-1.3847772E-3,-4.022476E-4,-3.2493827E-4,-8.3610275E-6,4.5174794E-4,-1.339469E-4,-5.6506462E-5,7.960386E-4],"split_indices":[0,0,1,1,1,0,0,0,0,0,0,0,0,0,0],"split_type":[0,0,0,0,0,0,0,0,0,0,0,0,0,0,0],"sum_hessian":[1E3,5.73E2,4.27E2,8.8E1,4.85E2,2.68E2,1.59E2,2.7E1,6.1E1,1.81E2,3.04E2,1.12E2,1.56E2,3.7E1,1.22E2],"tree_param":{"num_deleted":"0","num_feature":"2","num_nodes":"15","size_leaf_vector":"1"}},{"base_weights":[2.4204676E-6,-2.4320032E-3,2.170431E-3,-6.2095327E-3,-3.432918E-4,1.3699441E-3,6.4043263E-3,-1.2512453E-3,-4.9138506E-4,-2.9015078E-4,1.2864998E-4,-7.7411656E-5,2.6392972E-4,9.180472E-4,5.072392E-4],"categories":[],"categories_nodes":[],"categories_segments":[],"categories_sizes":[],"default_left":[0,0,0,0,0,0,0,0,0,0,0,0,0,0,0],"id":68,"left_children":[1,3,5,7,9,11,13,-1,-1,-1,-1,-1,-1,-1,-1],"loss_changes":[5.2884123E-3,3.7220279E-3,1.7874904E-3,1.3105022E-3,1.275387E-3,1.2185848E-3,2.6403554E-4,0E0,0E0,0E0,0E0,0E0,0E0,0E0,0E0],"parents":[2147483647,0,0,1,1,2,2,3,3,4,4,5,5,6,6],"right_children":[2,4,6,8,10,12,14,-1,-1,-1,-1,-1,-1,-1,-1],"split_conditions":[5E0,1E0,1E1,1E0,2E0,1E0,1E0,-1.2512453E-3,-4.9138506E-4,-2.9015078E-4,1.2864998E-4,-7.7411656E-5,2.6392972E-4,9.180472E-4,5.072392E-4],"split_indices":[0,1,0,0,0,1,1,0,0,0,0,0,0,0,0],"split_type":[0,0,0,0,0,0,0,0,0,0,0,0,0,0,0],"sum_hessian":[1E3,4.71E2,5.29E2,1.67E2,3.04E2,4.46E2,8.3E1,2.7E1,1.4E2,1.18E2,1.86E2,1.66E2,2.8E2,2.5E1,5.8E1],"tree_param":{"num_deleted":"0","num_feature":"2","num_nodes":"15","size_leaf_vector":"1"}},{"base_weights":[1.809882E-6,-1.7957925E-3,2.4126088E-3,-5.88451E-3,-1.0433405E-3,-4.2486034E-4,3.9451458E-3,-1.1305893E-3,-3.3412324E-4,-2.530763E-4,-1.5234322E-5,1.5212157E-3,-1.0902148E-3,-3.4638593E-4,9.116429E-4],"categories":[],"categories_nodes":[],"categories_segments":[],"categories_sizes":[],"default_left":[0,0,0,0,0,0,0,0,0,0,0,0,0,0,0],"id":69,"left_children":[1,3,5,7,9,11,13,-1,-1,-1,-1,-1,-1,-1,-1],"loss_changes":[4.342324E-3,1.7598078E-3,1.8628454E-3,1.1893637E-3,6.4370513E-4,2.4904707E-2,1.06828865E-2,0E0,0E0,0E0,0E0,0E0,0E0,0E0,0E0],"parents":[2147483647,0,0,1,1,2,2,3,3,4,4,5,5,6,6],"right_children":[2,4,6,8,10,12,14,-1,-1,-1,-1,-1,-1,-1,-1],"split_conditions":[6E0,1E0,1E0,1E0,1E0,8E0,8E0,-1.1305893E-3,-3.3412324E-4,-2.530763E-4,-1.5234322E-5,1.5212157E-3,-1.0902148E-3,-3.4638593E-4,9.116429E-4],"split_indices":[0,0,1,1,1,0,0,0,0,0,0,0,0,0,0],"split_type":[0,0,0,0,0,0,0,0,0,0,0,0,0,0,0],"sum_hessian":[1E3,5.73E2,4.27E2,8.8E1,4.85E2,1.5E2,2.77E2,2.7E1,6.1E1,1.81E2,3.04E2,6E1,9E1,1.14E2,1.63E2],"tree_param":{"num_deleted":"0","num_feature":"2","num_nodes":"15","size_leaf_vector":"1"}},{"base_weights":[8.495144E-7,-2.4557577E-3,1.4889851E-3,-5.6559565E-3,4.3057734E-3,8.672196E-4,5.4757255E-3,-8.099251E-4,6.13433E-5,8.41445E-4,-9.788156E-4,-6.898854E-5,1.7897725E-4,9.3459897E-4,3.6773764E-4],"categories":[],"categories_nodes":[],"categories_segments":[],"categories_sizes":[],"default_left":[0,0,0,0,0,0,0,0,0,0,0,0,0,0,0],"id":70,"left_children":[1,3,5,7,9,11,13,-1,-1,-1,-1,-1,-1,-1,-1],"loss_changes":[3.663077E-3,8.203609E-3,1.5420336E-3,3.941685E-3,7.1470635E-3,7.7838765E-4,5.5027846E-4,0E0,0E0,0E0,0E0,0E0,0E0,0E0,0E0],"parents":[2147483647,0,0,1,1,2,2,3,3,4,4,5,5,6,6],"right_children":[2,4,6,8,10,12,14,-1,-1,-1,-1,-1,-1,-1,-1],"split_conditions":[4E0,2E0,1E1,3E0,3E0,1E0,1E0,-8.099251E-4,6.13433E-5,8.41445E-4,-9.788156E-4,-6.898854E-5,1.7897725E-4,9.3459897E-4,3.6773764E-4],"split_indices":[0,1,0,0,0,1,1,0,0,0,0,0,0,0,0],"split_type":[0,0,0,0,0,0,0,0,0,0,0,0,0,0,0],"sum_hessian":[1E3,3.77E2,6.23E2,2.56E2,1.21E2,5.4E2,8.3E1,1.84E2,7.2E1,9.4E1,2.7E1,2.01E2,3.39E2,2.5E1,5.8E1],"tree_param":{"num_deleted":"0","num_feature":"2","num_nodes":"15","size_leaf_vector":"1"}},{"base_weights":[1.3214902E-6,-1.2408666E-3,2.4415925E-3,-5.049769E-3,-6.50184E-4,-3.27507E-3,5.6443173E-3,-9.434684E-4,-2.9880373E-4,-1.3341797E-4,4.322687E-6,1.6040727E-3,-1.0031449E-3,1.0584166E-3,1.3317615E-4],"categories":[],"categories_nodes":[],"categories_segments":[],"categories_sizes":[],"default_left":[0,0,0,0,0,0,0,0,0,0,0,0,0,0,0],"id":71,"left_children":[1,3,5,7,9,11,13,-1,-1,-1,-1,-1,-1,-1,-1],"loss_changes":[3.0373363E-3,1.4906189E-3,6.2068924E-3,7.76415E-4,2.7324873E-4,1.6082501E-2,4.608736E-3,0E0,0E0,0E0,0E0,0E0,0E0,0E0,0E0],"parents":[2147483647,0,0,1,1,2,2,3,3,4,4,5,5,6,6],"right_children":[2,4,6,8,10,12,14,-1,-1,-1,-1,-1,-1,-1,-1],"split_conditions":[7E0,1E0,1E0,1E0,4E0,8E0,9E0,-9.434684E-4,-2.9880373E-4,-1.3341797E-4,4.322687E-6,1.6040727E-3,-1.0031449E-3,1.0584166E-3,1.3317615E-4],"split_indices":[0,0,1,1,0,0,0,0,0,0,0,0,0,0,0],"split_type":[0,0,0,0,0,0,0,0,0,0,0,0,0,0,0],"sum_hessian":[1E3,6.63E2,3.37E2,8.8E1,5.75E2,1.21E2,2.16E2,2.7E1,6.1E1,2.89E2,2.86E2,3.1E1,9E1,1E2,1.16E2],"tree_param":{"num_deleted":"0","num_feature":"2","num_nodes":"15","size_leaf_vector":"1"}},{"base_weights":[1.6304E-6,-1.1188304E-3,2.2027676E-3,-4.558754E-3,-5.8537204E-4,-2.9425505E-3,5.085376E-3,-8.5249107E-4,-2.6940583E-4,-1.2012173E-4,3.895029E-6,1.4486775E-3,-9.0392085E-4,-2.5495247E-4,7.5682986E-4],"categories":[],"categories_nodes":[],"categories_segments":[],"categories_sizes":[],"default_left":[0,0,0,0,0,0,0,0,0,0,0,0,0,0,0],"id":72,"left_children":[1,3,5,7,9,11,13,-1,-1,-1,-1,-1,-1,-1,-1],"loss_changes":[2.471219E-3,1.2158088E-3,5.0281584E-3,6.352485E-4,2.2151072E-4,1.30947465E-2,4.1329353E-3,0E0,0E0,0E0,0E0,0E0,0E0,0E0,0E0],"parents":[2147483647,0,0,1,1,2,2,3,3,4,4,5,5,6,6],"right_children":[2,4,6,8,10,12,14,-1,-1,-1,-1,-1,-1,-1,-1],"split_conditions":[7E0,1E0,1E0,1E0,4E0,8E0,8E0,-8.5249107E-4,-2.6940583E-4,-1.2012173E-4,3.895029E-6,1.4486775E-3,-9.0392085E-4,-2.5495247E-4,7.5682986E-4],"split_indices":[0,0,1,1,0,0,0,0,0,0,0,0,0,0,0],"split_type":[0,0,0,0,0,0,0,0,0,0,0,0,0,0,0],"sum_hessian":[1E3,6.63E2,3.37E2,8.8E1,5.75E2,1.21E2,2.16E2,2.7E1,6.1E1,2.89E2,2.86E2,3.1E1,9E1,5.3E1,1.63E2],"tree_param":{"num_deleted":"0","num_feature":"2","num_nodes":"15","size_leaf_vector":"1"}},{"base_weights":[1.3464385E-6,-4.4662473E-4,4.8970156E-3,-2.4117325E-3,6.760977E-4,1.0281325E-3,2.4412689E-3,7.5463286E-5,-1.528053E-3,-1.20479206E-4,9.1869564E-4,2.460281E-5,3.8369498E-4],"categories":[],"categories_nodes":[],"categories_segments":[],"categories_sizes":[],"default_left":[0,0,0,0,0,0,0,0,0,0,0,0,0],"id":73,"left_children":[1,3,5,7,9,-1,11,-1,-1,-1,-1,-1,-1],"loss_changes":[2.197499E-3,2.0269868E-3,1.0855903E-3,1.3621133E-2,9.375741E-3,0E0,1.7982349E-4,0E0,0E0,0E0,0E0,0E0,0E0],"parents":[2147483647,0,0,1,1,2,2,3,3,4,4,6,6],"right_children":[2,4,6,8,10,-1,12,-1,-1,-1,-1,-1,-1],"split_conditions":[1E1,1E0,1E0,8E0,8E0,1.0281325E-3,2E0,7.5463286E-5,-1.528053E-3,-1.20479206E-4,9.1869564E-4,2.460281E-5,3.8369498E-4],"split_indices":[0,1,1,0,0,0,1,0,0,0,0,0,0],"split_type":[0,0,0,0,0,0,0,0,0,0,0,0,0],"sum_hessian":[1E3,9.17E2,8.3E1,3.33E2,5.84E2,2.5E1,5.8E1,2.68E2,6.5E1,4.79E2,1.05E2,2.3E1,3.5E1],"tree_param":{"num_deleted":"0","num_feature":"2","num_nodes":"13","size_leaf_vector":"1"}},{"base_weights":[1.9799272E-6,-1.4438964E-3,1.2896245E-3,-4.3564406E-3,1.6512431E-4,6.976698E-4,4.4243163E-3,-5.4021616E-4,-3.7207206E-5,-1.960297E-4,1.516782E-4,1.49688785E-5,1.6796753E-4,9.292805E-4,2.203893E-4],"categories":[],"categories_nodes":[],"categories_segments":[],"categories_sizes":[],"default_left":[0,0,0,0,0,0,0,0,0,0,0,0,0,0,0],"id":74,"left_children":[1,3,5,7,9,11,13,-1,-1,-1,-1,-1,-1,-1,-1],"loss_changes":[1.8654987E-3,2.2126734E-3,9.803788E-4,6.9796806E-4,8.7919016E-4,2.4028835E-4,8.875687E-4,0E0,0E0,0E0,0E0,0E0,0E0,0E0,0E0],"parents":[2147483647,0,0,1,1,2,2,3,3,4,4,5,5,6,6],"right_children":[2,4,6,8,10,12,14,-1,-1,-1,-1,-1,-1,-1,-1],"split_conditions":[5E0,1E0,1E1,4E0,2E0,2E0,1E0,-5.4021616E-4,-3.7207206E-5,-1.960297E-4,1.516782E-4,1.49688785E-5,1.6796753E-4,9.292805E-4,2.203893E-4],"split_indices":[0,1,0,0,0,1,1,0,0,0,0,0,0,0,0],"split_type":[0,0,0,0,0,0,0,0,0,0,0,0,0,0,0],"sum_hessian":[1E3,4.71E2,5.29E2,1.67E2,3.04E2,4.46E2,8.3E1,1.32E2,3.5E1,1.18E2,1.86E2,2.87E2,1.59E2,2.5E1,5.8E1],"tree_param":{"num_deleted":"0","num_feature":"2","num_nodes":"15","size_leaf_vector":"1"}},{"base_weights":[2.5458485E-6,-8.776271E-4,1.7316355E-3,-3.7575485E-3,-4.3111562E-4,-2.2613455E-3,3.9685573E-3,-7.2547107E-4,-2.1175796E-4,-8.043934E-5,3.0233676E-5,-1.2051665E-3,6.5094215E-4,8.858549E-4,-2.8663619E-5],"categories":[],"categories_nodes":[],"categories_segments":[],"categories_sizes":[],"default_left":[0,0,0,0,0,0,0,0,0,0,0,0,0,0,0],"id":75,"left_children":[1,3,5,7,9,11,13,-1,-1,-1,-1,-1,-1,-1,-1],"loss_changes":[1.5249397E-3,8.5222966E-4,3.027986E-3,4.9507373E-4,1.5794134E-4,1.0554419E-2,4.517845E-3,0E0,0E0,0E0,0E0,0E0,0E0,0E0,0E0],"parents":[2147483647,0,0,1,1,2,2,3,3,4,4,5,5,6,6],"right_children":[2,4,6,8,10,12,14,-1,-1,-1,-1,-1,-1,-1,-1],"split_conditions":[7E0,1E0,1E0,1E0,2E0,9E0,9E0,-7.2547107E-4,-2.1175796E-4,-8.043934E-5,3.0233676E-5,-1.2051665E-3,6.5094215E-4,8.858549E-4,-2.8663619E-5],"split_indices":[0,0,1,1,1,0,0,0,0,0,0,0,0,0,0],"split_type":[0,0,0,0,0,0,0,0,0,0,0,0,0,0,0],"sum_hessian":[1E3,6.63E2,3.37E2,8.8E1,5.75E2,1.21E2,2.16E2,2.7E1,6.1E1,3.81E2,1.94E2,5.7E1,6.4E1,1E2,1.16E2],"tree_param":{"num_deleted":"0","num_feature":"2","num_nodes":"15","size_leaf_vector":"1"}},{"base_weights":[1.5724152E-6,-3.47979E-4,3.8216512E-3,-1.1561904E-3,1.2331803E-3,7.7733444E-4,2.0154533E-3,-6.225493E-4,1.0583786E-4,8.1687764E-4,-1.8088236E-4,3.856421E-6,3.2773946E-4],"categories":[],"categories_nodes":[],"categories_segments":[],"categories_sizes":[],"default_left":[0,0,0,0,0,0,0,0,0,0,0,0,0],"id":76,"left_children":[1,3,5,7,9,-1,11,-1,-1,-1,-1,-1,-1],"loss_changes":[1.3379791E-3,1.174548E-3,5.838865E-4,6.832192E-3,6.5762885E-3,0E0,1.4706196E-4,0E0,0E0,0E0,0E0,0E0,0E0],"parents":[2147483647,0,0,1,1,2,2,3,3,4,4,6,6],"right_children":[2,4,6,8,10,-1,12,-1,-1,-1,-1,-1,-1],"split_conditions":[1E1,2E0,1E0,3E0,3E0,7.7733444E-4,2E0,-6.225493E-4,1.0583786E-4,8.1687764E-4,-1.8088236E-4,3.856421E-6,3.2773946E-4],"split_indices":[0,1,1,0,0,0,1,0,0,0,0,0,0],"split_type":[0,0,0,0,0,0,0,0,0,0,0,0,0],"sum_hessian":[1E3,9.17E2,8.3E1,6.07E2,3.1E2,2.5E1,5.8E1,1.84E2,4.23E2,9.4E1,2.16E2,2.3E1,3.5E1],"tree_param":{"num_deleted":"0","num_feature":"2","num_nodes":"13","size_leaf_vector":"1"}},{"base_weights":[2.6315467E-6,-1.1239342E-3,1.0059078E-3,-3.4165916E-3,1.4259161E-4,5.4384075E-4,3.4527893E-3,-1.0722772E-4,-4.9229886E-4,-1.7821595E-4,1.3666708E-4,1.1595853E-4,-4.5677374E-5,7.025994E-4,1.8196348E-4],"categories":[],"categories_nodes":[],"categories_segments":[],"categories_sizes":[],"default_left":[0,0,0,0,0,0,0,0,0,0,0,0,0,0,0],"id":77,"left_children":[1,3,5,7,9,11,13,-1,-1,-1,-1,-1,-1,-1,-1],"loss_changes":[1.1325174E-3,1.3710381E-3,5.9735257E-4,5.8800774E-4,7.210302E-4,2.7593662E-4,4.7740515E-4,0E0,0E0,0E0,0E0,0E0,0E0,0E0,0E0],"parents":[2147483647,0,0,1,1,2,2,3,3,4,4,5,5,6,6],"right_children":[2,4,6,8,10,12,14,-1,-1,-1,-1,-1,-1,-1,-1],"split_conditions":[5E0,1E0,1E1,2E0,2E0,8E0,1E0,-1.0722772E-4,-4.9229886E-4,-1.7821595E-4,1.3666708E-4,1.1595853E-4,-4.5677374E-5,7.025994E-4,1.8196348E-4],"split_indices":[0,1,0,0,0,0,1,0,0,0,0,0,0,0,0],"split_type":[0,0,0,0,0,0,0,0,0,0,0,0,0,0,0],"sum_hessian":[1E3,4.71E2,5.29E2,1.67E2,3.04E2,4.46E2,8.3E1,6.6E1,1.01E2,1.18E2,1.86E2,2.76E2,1.7E2,2.5E1,5.8E1],"tree_param":{"num_deleted":"0","num_feature":"2","num_nodes":"15","size_leaf_vector":"1"}},{"base_weights":[2.730977E-6,-6.94718E-4,1.3728593E-3,-3.091121E-3,-3.2323433E-4,-2.4313692E-3,3.5053156E-3,-5.851436E-4,-1.7946704E-4,6.351657E-5,-8.748715E-5,1.394862E-3,-8.164647E-4,7.9874287E-4,-3.938186E-5],"categories":[],"categories_nodes":[],"categories_segments":[],"categories_sizes":[],"default_left":[0,0,0,0,0,0,0,0,0,0,0,0,0,0,0],"id":78,"left_children":[1,3,5,7,9,11,13,-1,-1,-1,-1,-1,-1,-1,-1],"loss_changes":[9.575039E-4,5.9010996E-4,2.7504975E-3,3.0799507E-4,3.0508058E-4,1.157103E-2,3.795516E-3,0E0,0E0,0E0,0E0,0E0,0E0,0E0,0E0],"parents":[2147483647,0,0,1,1,2,2,3,3,4,4,5,5,6,6],"right_children":[2,4,6,8,10,12,14,-1,-1,-1,-1,-1,-1,-1,-1],"split_conditions":[7E0,1E0,1E0,1E0,1E0,8E0,9E0,-5.851436E-4,-1.7946704E-4,6.351657E-5,-8.748715E-5,1.394862E-3,-8.164647E-4,7.9874287E-4,-3.938186E-5],"split_indices":[0,0,1,1,1,0,0,0,0,0,0,0,0,0,0],"split_type":[0,0,0,0,0,0,0,0,0,0,0,0,0,0,0],"sum_hessian":[1E3,6.63E2,3.37E2,8.8E1,5.75E2,1.21E2,2.16E2,2.7E1,6.1E1,2.1E2,3.65E2,3.1E1,9E1,1E2,1.16E2],"tree_param":{"num_deleted":"0","num_feature":"2","num_nodes":"15","size_leaf_vector":"1"}},{"base_weights":[3.0240792E-6,-3.0673965E-4,3.3882628E-3,-9.852884E-4,1.0207987E-3,7.1355747E-4,1.679477E-3,-5.330927E-4,9.1312744E-5,7.545482E-4,-1.8403333E-4,-1.0172526E-5,2.8202933E-4],"categories":[],"categories_nodes":[],"categories_segments":[],"categories_sizes":[],"default_left":[0,0,0,0,0,0,0,0,0,0,0,0,0],"id":79,"left_children":[1,3,5,7,9,-1,11,-1,-1,-1,-1,-1,-1],"loss_changes":[1.0507121E-3,8.279398E-4,5.258976E-4,5.0207633E-3,5.819627E-3,0E0,1.2017631E-4,0E0,0E0,0E0,0E0,0E0,0E0],"parents":[2147483647,0,0,1,1,2,2,3,3,4,4,6,6],"right_children":[2,4,6,8,10,-1,12,-1,-1,-1,-1,-1,-1],"split_conditions":[1E1,2E0,1E0,3E0,3E0,7.1355747E-4,2E0,-5.330927E-4,9.1312744E-5,7.545482E-4,-1.8403333E-4,-1.0172526E-5,2.8202933E-4],"split_indices":[0,1,1,0,0,0,1,0,0,0,0,0,0],"split_type":[0,0,0,0,0,0,0,0,0,0,0,0,0],"sum_hessian":[1E3,9.17E2,8.3E1,6.07E2,3.1E2,2.5E1,5.8E1,1.84E2,4.23E2,9.4E1,2.16E2,2.3E1,3.5E1],"tree_param":{"num_deleted":"0","num_feature":"2","num_nodes":"13","size_leaf_vector":"1"}},{"base_weights":[3.8934054E-6,-2.7587148E-4,3.0612776E-3,-8.8740955E-4,9.205627E-4,6.4496626E-4,1.5162048E-3,-4.8007062E-4,8.221359E-5,6.7988475E-4,-1.6571223E-4,-9.212891E-6,2.5463104E-4],"categories":[],"categories_nodes":[],"categories_segments":[],"categories_sizes":[],"default_left":[0,0,0,0,0,0,0,0,0,0,0,0,0],"id":80,"left_children":[1,3,5,7,9,-1,11,-1,-1,-1,-1,-1,-1],"loss_changes":[8.570485E-4,6.7248545E-4,4.299864E-4,4.071441E-3,4.7236523E-3,0E0,9.7983066E-5,0E0,0E0,0E0,0E0,0E0,0E0],"parents":[2147483647,0,0,1,1,2,2,3,3,4,4,6,6],"right_children":[2,4,6,8,10,-1,12,-1,-1,-1,-1,-1,-1],"split_conditions":[1E1,2E0,1E0,3E0,3E0,6.4496626E-4,2E0,-4.8007062E-4,8.221359E-5,6.7988475E-4,-1.6571223E-4,-9.212891E-6,2.5463104E-4],"split_indices":[0,1,1,0,0,0,1,0,0,0,0,0,0],"split_type":[0,0,0,0,0,0,0,0,0,0,0,0,0],"sum_hessian":[1E3,9.17E2,8.3E1,6.07E2,3.1E2,2.5E1,5.8E1,1.84E2,4.23E2,9.4E1,2.16E2,2.3E1,3.5E1],"tree_param":{"num_deleted":"0","num_feature":"2","num_nodes":"13","size_leaf_vector":"1"}},{"base_weights":[4.555888E-6,-2.480982E-4,2.76565E-3,-7.992803E-4,8.3025167E-4,5.829316E-4,1.3686842E-3,-4.3232433E-4,7.401829E-5,6.126135E-4,-1.4920488E-4,-8.34465E-6,2.2987525E-4],"categories":[],"categories_nodes":[],"categories_segments":[],"categories_sizes":[],"default_left":[0,0,0,0,0,0,0,0,0,0,0,0,0],"id":81,"left_children":[1,3,5,7,9,-1,11,-1,-1,-1,-1,-1,-1],"loss_changes":[6.989854E-4,5.462927E-4,3.515277E-4,3.3016065E-3,3.8340152E-3,0E0,7.9876074E-5,0E0,0E0,0E0,0E0,0E0,0E0],"parents":[2147483647,0,0,1,1,2,2,3,3,4,4,6,6],"right_children":[2,4,6,8,10,-1,12,-1,-1,-1,-1,-1,-1],"split_conditions":[1E1,2E0,1E0,3E0,3E0,5.829316E-4,2E0,-4.3232433E-4,7.401829E-5,6.126135E-4,-1.4920488E-4,-8.34465E-6,2.2987525E-4],"split_indices":[0,1,1,0,0,0,1,0,0,0,0,0,0],"split_type":[0,0,0,0,0,0,0,0,0,0,0,0,0],"sum_hessian":[1E3,9.17E2,8.3E1,6.07E2,3.1E2,2.5E1,5.8E1,1.84E2,4.23E2,9.4E1,2.16E2,2.3E1,3.5E1],"tree_param":{"num_deleted":"0","num_feature":"2","num_nodes":"13","size_leaf_vector":"1"}},{"base_weights":[5.0640447E-6,-2.4993792E-3,2.491937E-4,-3.8933262E-4,-1.829542E-3,-2.8545863E-4,1.255308E-3,-6.9909474E-5,-3.0120494E-4,-4.6679933E-4,8.8506E-5,9.3145214E-4,-8.604195E-5],"categories":[],"categories_nodes":[],"categories_segments":[],"categories_sizes":[],"default_left":[0,0,0,0,0,0,0,0,0,0,0,0,0],"id":82,"left_children":[1,3,5,-1,7,9,11,-1,-1,-1,-1,-1,-1],"loss_changes":[6.126431E-4,7.597788E-5,4.914806E-4,0E0,8.077355E-5,3.0666448E-3,5.4132133E-3,0E0,0E0,0E0,0E0,0E0,0E0],"parents":[2147483647,0,0,1,1,2,2,4,4,5,5,6,6],"right_children":[2,4,6,-1,8,10,12,-1,-1,-1,-1,-1,-1],"split_conditions":[1E0,1E0,2E0,-3.8933262E-4,2E0,3E0,3E0,-6.9909474E-5,-3.0120494E-4,-4.6679933E-4,8.8506E-5,9.3145214E-4,-8.604195E-5],"split_indices":[0,1,1,0,1,0,0,0,0,0,0,0,0],"split_type":[0,0,0,0,0,0,0,0,0,0,0,0,0],"sum_hessian":[1E3,8.8E1,9.12E2,2.7E1,6.1E1,5.96E2,3.16E2,3.2E1,2.9E1,1.25E2,4.71E2,6.5E1,2.51E2],"tree_param":{"num_deleted":"0","num_feature":"2","num_nodes":"13","size_leaf_vector":"1"}},{"base_weights":[4.2007746E-6,-2.2269206E-4,2.4837654E-3,-1.1096759E-3,2.841033E-4,5.183752E-4,1.2518431E-3,1.8818775E-4,-1.328571E-3,-1.3711855E-4,7.77707E-4,-1.6067426E-5,2.1587478E-4],"categories":[],"categories_nodes":[],"categories_segments":[],"categories_sizes":[],"default_left":[0,0,0,0,0,0,0,0,0,0,0,0,0],"id":83,"left_children":[1,3,5,7,9,-1,11,-1,-1,-1,-1,-1,-1],"loss_changes":[5.6371116E-4,4.1297395E-4,2.729093E-4,1.2191037E-2,7.2664325E-3,0E0,7.592695E-5,0E0,0E0,0E0,0E0,0E0,0E0],"parents":[2147483647,0,0,1,1,2,2,3,3,4,4,6,6],"right_children":[2,4,6,8,10,-1,12,-1,-1,-1,-1,-1,-1],"split_conditions":[1E1,1E0,1E0,8E0,8E0,5.183752E-4,2E0,1.8818775E-4,-1.328571E-3,-1.3711855E-4,7.77707E-4,-1.6067426E-5,2.1587478E-4],"split_indices":[0,1,1,0,0,0,1,0,0,0,0,0,0],"split_type":[0,0,0,0,0,0,0,0,0,0,0,0,0],"sum_hessian":[1E3,9.17E2,8.3E1,3.33E2,5.84E2,2.5E1,5.8E1,2.68E2,6.5E1,4.79E2,1.05E2,2.3E1,3.5E1],"tree_param":{"num_deleted":"0","num_feature":"2","num_nodes":"13","size_leaf_vector":"1"}},{"base_weights":[4.0061336E-6,-6.1172404E-4,8.2976575E-4,-2.2211096E-3,-3.1574248E-4,-1.8648055E-4,2.5331439E-3,-3.6993655E-4,-1.5176857E-4,4.583917E-5,-5.0747396E-5,-2.8144408E-4,3.5224855E-4,5.9078657E-4,-1.8901825E-4],"categories":[],"categories_nodes":[],"categories_segments":[],"categories_sizes":[],"default_left":[0,0,0,0,0,0,0,0,0,0,0,0,0,0,0],"id":84,"left_children":[1,3,5,7,9,11,13,-1,-1,-1,-1,-1,-1,-1,-1],"loss_changes":[5.094611E-4,2.7272268E-4,7.4136234E-4,8.693134E-5,7.236759E-5,2.631861E-3,2.3995664E-3,0E0,0E0,0E0,0E0,0E0,0E0,0E0,0E0],"parents":[2147483647,0,0,1,1,2,2,3,3,4,4,5,5,6,6],"right_children":[2,4,6,8,10,12,14,-1,-1,-1,-1,-1,-1,-1,-1],"split_conditions":[6E0,1E0,2E0,1E0,2E0,9E0,9E0,-3.6993655E-4,-1.5176857E-4,4.583917E-5,-5.0747396E-5,-2.8144408E-4,3.5224855E-4,5.9078657E-4,-1.8901825E-4],"split_indices":[0,0,1,1,0,0,0,0,0,0,0,0,0,0,0],"split_type":[0,0,0,0,0,0,0,0,0,0,0,0,0,0,0],"sum_hessian":[1E3,5.73E2,4.27E2,8.8E1,4.85E2,2.68E2,1.59E2,2.7E1,6.1E1,9.6E1,3.89E2,1.57E2,1.11E2,9E1,6.9E1],"tree_param":{"num_deleted":"0","num_feature":"2","num_nodes":"15","size_leaf_vector":"1"}},{"base_weights":[3.5171802E-6,-5.514477E-4,7.477843E-4,-2.0048602E-3,-2.8415312E-4,-1.6768892E-4,2.28225E-3,-3.3426413E-4,-1.3683646E-4,4.1300795E-5,-4.56821E-5,-2.5348875E-4,3.173249E-4,5.323557E-4,-1.7040526E-4],"categories":[],"categories_nodes":[],"categories_segments":[],"categories_sizes":[],"default_left":[0,0,0,0,0,0,0,0,0,0,0,0,0,0,0],"id":85,"left_children":[1,3,5,7,9,11,13,-1,-1,-1,-1,-1,-1,-1,-1],"loss_changes":[4.138675E-4,2.2242313E-4,6.0162094E-4,7.120884E-5,5.8692043E-5,2.1354742E-3,1.9488425E-3,0E0,0E0,0E0,0E0,0E0,0E0,0E0,0E0],"parents":[2147483647,0,0,1,1,2,2,3,3,4,4,5,5,6,6],"right_children":[2,4,6,8,10,12,14,-1,-1,-1,-1,-1,-1,-1,-1],"split_conditions":[6E0,1E0,2E0,1E0,2E0,9E0,9E0,-3.3426413E-4,-1.3683646E-4,4.1300795E-5,-4.56821E-5,-2.5348875E-4,3.173249E-4,5.323557E-4,-1.7040526E-4],"split_indices":[0,0,1,1,0,0,0,0,0,0,0,0,0,0,0],"split_type":[0,0,0,0,0,0,0,0,0,0,0,0,0,0,0],"sum_hessian":[1E3,5.73E2,4.27E2,8.8E1,4.85E2,2.68E2,1.59E2,2.7E1,6.1E1,9.6E1,3.89E2,1.57E2,1.11E2,9E1,6.9E1],"tree_param":{"num_deleted":"0","num_feature":"2","num_nodes":"15","size_leaf_vector":"1"}},{"base_weights":[3.1932075E-6,-1.8052995E-4,2.010987E-3,-1.8096676E-3,-5.621795E-6,4.041635E-4,1.0820405E-3,-3.020316E-4,-1.233735E-4,-6.54506E-5,3.7455582E-5,-7.867217E-5,2.2978253E-4],"categories":[],"categories_nodes":[],"categories_segments":[],"categories_sizes":[],"default_left":[0,0,0,0,0,0,0,0,0,0,0,0,0],"id":86,"left_children":[1,3,5,7,9,-1,11,-1,-1,-1,-1,-1,-1],"loss_changes":[3.6961012E-4,2.615734E-4,1.540813E-4,5.832914E-5,2.0499887E-4,0E0,1.358565E-4,0E0,0E0,0E0,0E0,0E0,0E0],"parents":[2147483647,0,0,1,1,2,2,3,3,4,4,6,6],"right_children":[2,4,6,8,10,-1,12,-1,-1,-1,-1,-1,-1],"split_conditions":[1E1,1E0,1E0,1E0,1E0,4.041635E-4,2E0,-3.020316E-4,-1.233735E-4,-6.54506E-5,3.7455582E-5,-7.867217E-5,2.2978253E-4],"split_indices":[0,0,1,1,1,0,1,0,0,0,0,0,0],"split_type":[0,0,0,0,0,0,0,0,0,0,0,0,0],"sum_hessian":[1E3,9.17E2,8.3E1,8.8E1,8.29E2,2.5E1,5.8E1,2.7E1,6.1E1,3.06E2,5.23E2,2.3E1,3.5E1],"tree_param":{"num_deleted":"0","num_feature":"2","num_nodes":"13","size_leaf_vector":"1"}},{"base_weights":[2.9295268E-6,-7.127545E-4,4.3646418E-4,-2.1276902E-3,2.2737312E-3,9.2008116E-4,-4.2523915E-4,1.9400088E-4,-5.8180554E-4,-5.5156066E-4,1.041464E-3,2.5158943E-4,-1.5658968E-4,-1.0211713E-3,1.1327402E-4],"categories":[],"categories_nodes":[],"categories_segments":[],"categories_sizes":[],"default_left":[0,0,0,0,0,0,0,0,0,0,0,0,0,0,0],"id":87,"left_children":[1,3,5,7,9,11,13,-1,-1,-1,-1,-1,-1,-1,-1],"loss_changes":[3.1089518E-4,1.6021468E-3,2.6043347E-4,3.8691896E-3,7.7937418E-3,1.5908023E-3,3.44217E-3,0E0,0E0,0E0,0E0,0E0,0E0,0E0,0E0],"parents":[2147483647,0,0,1,1,2,2,3,3,4,4,5,5,6,6],"right_children":[2,4,6,8,10,12,14,-1,-1,-1,-1,-1,-1,-1,-1],"split_conditions":[4E0,2E0,2E0,2E0,2E0,8E0,5E0,1.9400088E-4,-5.8180554E-4,-5.5156066E-4,1.041464E-3,2.5158943E-4,-1.5658968E-4,-1.0211713E-3,1.1327402E-4],"split_indices":[0,1,1,0,0,0,0,0,0,0,0,0,0,0,0],"split_type":[0,0,0,0,0,0,0,0,0,0,0,0,0,0,0],"sum_hessian":[1E3,3.77E2,6.23E2,2.56E2,1.21E2,3.99E2,2.24E2,1.22E2,1.34E2,6.2E1,5.9E1,2.43E2,1.56E2,3E1,1.94E2],"tree_param":{"num_deleted":"0","num_feature":"2","num_nodes":"15","size_leaf_vector":"1"}},{"base_weights":[1.86381E-6,-1.6802712E-4,1.8585069E-3,-1.5823575E-3,-1.616758E-5,3.8032164E-4,9.700161E-4,-2.9161418E-4,-9.544814E-5,-5.6716304E-5,3.0667932E-5,-5.61436E-5,1.9640393E-4],"categories":[],"categories_nodes":[],"categories_segments":[],"categories_sizes":[],"default_left":[0,0,0,0,0,0,0,0,0,0,0,0,0],"id":88,"left_children":[1,3,5,7,9,-1,11,-1,-1,-1,-1,-1,-1],"loss_changes":[3.1605456E-4,1.9714204E-4,1.4145079E-4,7.1749746E-5,1.4782029E-4,0E0,9.0918315E-5,0E0,0E0,0E0,0E0,0E0,0E0],"parents":[2147483647,0,0,1,1,2,2,3,3,4,4,6,6],"right_children":[2,4,6,8,10,-1,12,-1,-1,-1,-1,-1,-1],"split_conditions":[1E1,1E0,1E0,1E0,1E0,3.8032164E-4,2E0,-2.9161418E-4,-9.544814E-5,-5.6716304E-5,3.0667932E-5,-5.61436E-5,1.9640393E-4],"split_indices":[0,0,1,1,1,0,1,0,0,0,0,0,0],"split_type":[0,0,0,0,0,0,0,0,0,0,0,0,0],"sum_hessian":[1E3,9.17E2,8.3E1,8.8E1,8.29E2,2.5E1,5.8E1,2.7E1,6.1E1,3.06E2,5.23E2,2.3E1,3.5E1],"tree_param":{"num_deleted":"0","num_feature":"2","num_nodes":"13","size_leaf_vector":"1"}},{"base_weights":[1.807698E-6,-1.5164522E-4,1.6788074E-3,-1.4284746E-3,-1.4549494E-5,3.4373355E-4,8.7540835E-4,-2.6349426E-4,-8.605781E-5,-5.1060426E-5,2.7610577E-5,-5.0751372E-5,1.7730395E-4],"categories":[],"categories_nodes":[],"categories_segments":[],"categories_sizes":[],"default_left":[0,0,0,0,0,0,0,0,0,0,0,0,0],"id":89,"left_children":[1,3,5,7,9,-1,11,-1,-1,-1,-1,-1,-1],"loss_changes":[2.5785243E-4,1.6067315E-4,1.1566612E-4,5.8710662E-5,1.1981116E-4,0E0,7.413971E-5,0E0,0E0,0E0,0E0,0E0,0E0],"parents":[2147483647,0,0,1,1,2,2,3,3,4,4,6,6],"right_children":[2,4,6,8,10,-1,12,-1,-1,-1,-1,-1,-1],"split_conditions":[1E1,1E0,1E0,1E0,1E0,3.4373355E-4,2E0,-2.6349426E-4,-8.605781E-5,-5.1060426E-5,2.7610577E-5,-5.0751372E-5,1.7730395E-4],"split_indices":[0,0,1,1,1,0,1,0,0,0,0,0,0],"split_type":[0,0,0,0,0,0,0,0,0,0,0,0,0],"sum_hessian":[1E3,9.17E2,8.3E1,8.8E1,8.29E2,2.5E1,5.8E1,2.7E1,6.1E1,3.06E2,5.23E2,2.3E1,3.5E1],"tree_param":{"num_deleted":"0","num_feature":"2","num_nodes":"13","size_leaf_vector":"1"}},{"base_weights":[1.6834572E-6,-3.3256592E-4,6.5831037E-4,7.246403E-4,-9.2104956E-4,-2.4548632E-3,2.40554E-3,-1.712921E-4,6.482185E-4,2.6169282E-5,-3.846378E-4,1.2531861E-3,-7.697944E-4,-4.292559E-4,4.5963438E-4],"categories":[],"categories_nodes":[],"categories_segments":[],"categories_sizes":[],"default_left":[0,0,0,0,0,0,0,0,0,0,0,0,0,0,0],"id":90,"left_children":[1,3,5,7,9,11,13,-1,-1,-1,